const params = {
	"controller.l1.weight" : [[ 6.9763e-02, 4.2419e-02,-6.3599e-02, 1.6064e-01,-5.1651e-03, 1.5479e-01,  -2.1985e-01, 1.3245e-01, 1.4502e-01,-1.2634e-01, 4.0283e-02, 1.6602e-01,   1.0620e-02, 1.1981e-01,-1.6382e-01, 5.3467e-02, 1.9849e-01], [-7.8125e-02,-5.3284e-02, 2.5391e-01,-1.8140e-01, 1.3330e-01, 2.5879e-01,   8.9478e-02,-8.7219e-02, 2.1655e-01,-8.8440e-02, 1.3269e-01, 1.6394e-01,   1.9150e-02,-3.8696e-02, 3.1052e-02, 2.3880e-02, 1.2610e-01], [-1.0107e-01,-1.2469e-01,-6.2744e-02, 5.0751e-02,-9.7351e-02, 3.8567e-03,  -2.4109e-02, 1.6223e-01,-2.3010e-01, 2.4246e-02, 2.0532e-01,-1.8750e-01,  -1.6882e-01, 1.3110e-01, 2.1130e-01,-9.7839e-02, 1.6220e-02], [-1.0962e-01, 2.0142e-01, 3.1226e-01,-1.4062e-01, 1.6113e-01, 1.7578e-02,   3.1958e-01,-1.1346e-01, 1.1682e-01, 1.7200e-01,-2.9495e-02,-1.4221e-01,   1.9238e-01, 2.5952e-01,-1.0522e-01,-1.2018e-01,-1.7249e-01], [ 9.0866e-03,-3.1624e-03, 2.3206e-01, 1.5308e-01,-8.7158e-02, 1.6418e-01,   3.7781e-02, 1.6138e-01, 7.9102e-02, 1.7969e-01,-7.5928e-02, 9.4421e-02,  -1.3965e-01,-1.4038e-01, 1.2201e-01, 1.2744e-01,-1.9165e-01], [ 1.0248e-01,-1.0120e-01, 1.3867e-01, 2.0227e-01, 8.4717e-02,-1.8066e-01,   8.1543e-02, 7.6172e-02, 1.5527e-01,-2.4707e-01,-5.2887e-02, 1.1859e-01,   2.5269e-02,-1.3953e-01, 2.2253e-01, 4.1229e-02, 2.0264e-01], [ 1.3147e-01,-1.0181e-01, 2.0544e-01,-1.1040e-02, 7.3929e-03,-5.4092e-03,   3.6499e-01,-2.8076e-01, 1.6846e-01, 5.6152e-02, 2.3087e-02, 7.0007e-02,  -1.4465e-01, 1.8677e-01,-1.2138e-02, 2.5220e-01,-1.2091e-01], [ 2.2668e-01, 2.9053e-01, 2.0801e-01,-1.2805e-01,-2.6917e-02, 1.5186e-01,  -1.1371e-01, 7.5073e-02,-2.3145e-01, 7.8308e-02,-4.1931e-02,-6.7139e-02,   1.2012e-01, 1.3550e-01, 7.5439e-02,-3.0334e-02, 9.7961e-03], [ 1.3696e-01, 1.8298e-01,-6.8359e-02, 5.6335e-02, 1.6211e-01,-3.0273e-01,   2.3279e-01,-5.6419e-03,-1.2433e-01,-1.0760e-01, 1.3708e-01,-2.3010e-01,  -9.9304e-02, 2.5342e-01,-2.0886e-01, 1.7807e-02,-1.0757e-02], [ 2.9224e-01, 2.1704e-01, 1.0266e-01, 2.3535e-01,-4.8943e-03, 2.6367e-01,   1.2817e-02, 2.0081e-01,-7.0618e-02, 8.5388e-02,-2.2253e-01,-7.4463e-02,   1.9958e-02, 1.0944e-01,-1.9617e-01,-3.8738e-03,-3.6316e-02], [ 1.1194e-01,-3.2959e-02, 2.6538e-01,-2.0947e-01,-8.3984e-02, 1.3135e-01,   6.8420e-02,-3.7659e-02, 3.3478e-02, 1.3586e-01, 2.2546e-01, 1.3208e-01,  -6.6223e-02,-1.5857e-01, 1.6138e-01,-1.2408e-01, 6.9031e-02], [-1.1041e-01,-2.6294e-01,-1.2469e-01,-4.5242e-03,-1.0399e-02,-1.6785e-01,   1.9629e-01, 2.7563e-01, 6.4880e-02,-3.0347e-01,-2.2717e-01,-1.1938e-01,  -1.5674e-01,-9.0576e-02,-1.1694e-01,-1.7975e-02, 8.0017e-02], [ 1.2642e-02,-1.5894e-01, 1.2054e-01,-3.8208e-02, 2.3682e-01, 1.9604e-01,  -2.4402e-01,-1.0522e-01,-1.2433e-01,-3.1372e-01, 8.2092e-02,-1.1798e-01,   1.4905e-01, 2.6025e-01, 9.9426e-02,-8.1726e-02,-1.8530e-01], [ 1.6138e-01,-1.6638e-01,-1.4514e-01,-1.4331e-01,-8.3557e-02,-1.8188e-01,  -3.3887e-01,-2.1826e-01, 5.5573e-02,-2.4707e-01,-1.4502e-01, 1.5393e-01,   1.9012e-02, 8.3679e-02,-8.3984e-02, 1.1938e-01, 1.5930e-01], [-4.2816e-02,-1.9592e-01, 1.0779e-01,-2.9373e-02,-4.6783e-02, 1.1224e-01,  -2.1313e-01, 1.6614e-01, 2.9688e-01,-1.3794e-01, 5.0262e-02,-1.3817e-02,   4.8248e-02,-4.0375e-02, 5.3741e-02,-5.7678e-02,-1.7712e-01], [ 1.3721e-01, 6.3965e-02, 1.1017e-01,-1.8469e-01, 1.0876e-01, 2.3035e-01,   1.8219e-02, 2.3962e-01,-1.9043e-02, 1.8091e-01,-1.5369e-01, 2.1289e-01,  -2.7295e-01, 1.2164e-01, 6.6467e-02, 1.4368e-01,-7.8674e-02], [-7.4768e-02,-5.6000e-02, 1.1554e-01,-1.2854e-01, 2.0898e-01,-3.3203e-01,   2.7734e-01, 1.2451e-01,-1.3000e-01, 7.0129e-02, 1.9592e-01, 9.6313e-02,  -1.5955e-01,-1.8701e-01, 7.2388e-02,-2.2534e-01,-1.8396e-01], [ 2.2388e-01,-1.1096e-01, 2.0740e-01, 1.5710e-01, 2.1204e-01,-2.1887e-01,   4.1656e-02, 2.5439e-01, 1.5854e-02,-3.5057e-03, 1.1725e-01, 1.7737e-01,  -5.1086e-02, 2.6733e-01, 1.7822e-01, 2.1155e-01, 1.4868e-01], [-2.4084e-01, 2.2119e-01, 3.7140e-02, 1.0913e-01, 6.5674e-02, 4.5074e-02,  -3.1250e-01, 3.5431e-02,-2.1655e-01,-1.7908e-01,-2.6782e-01,-1.5649e-01,   1.9897e-01,-1.3904e-01, 3.2227e-01, 8.8013e-02,-1.5295e-01], [-2.9248e-01,-2.3242e-01,-1.3599e-01, 1.7578e-01,-2.7856e-01, 7.2144e-02,   3.7817e-01,-8.8257e-02, 2.1648e-03, 1.4563e-01, 4.1229e-02,-1.3147e-01,   6.1432e-02, 5.0873e-02, 9.6741e-02, 1.9934e-01,-3.0664e-01], [-1.9943e-02,-8.0444e-02,-7.0740e-02, 2.2046e-01, 2.8833e-01, 1.5163e-03,   4.9835e-02, 2.3804e-01,-8.5144e-02, 6.5613e-02,-1.6870e-01, 1.6800e-02,  -7.0068e-02,-2.2485e-01,-1.3525e-01,-9.7107e-02,-2.6807e-01], [ 6.3904e-02,-1.5625e-02,-6.2042e-02, 1.2286e-01, 1.0059e-01, 2.3636e-02,  -9.9426e-02,-8.5754e-02,-1.1792e-01,-2.9129e-02,-2.5269e-01, 2.5513e-01,   3.2776e-02, 3.0005e-01,-1.4648e-01,-1.7896e-01,-1.1511e-01], [ 3.0685e-02, 1.8994e-01,-5.1514e-02,-3.9551e-02, 1.9812e-01,-1.5149e-01,  -1.9336e-01,-1.8234e-02,-7.3929e-03, 2.9724e-02, 1.1902e-01,-7.4890e-02,   1.8921e-01, 1.9482e-01, 7.2266e-02, 1.9562e-02, 4.8035e-02], [ 1.5247e-01, 8.0872e-02, 2.3804e-01,-6.8115e-02, 2.3474e-01,-9.1736e-02,  -1.3354e-01,-1.1536e-01, 5.0201e-02, 2.0984e-01, 8.3679e-02,-1.2610e-01,  -2.2131e-01,-1.8945e-01, 6.7688e-02,-2.0233e-02, 1.3745e-01], [ 2.4280e-01,-1.9861e-01,-5.1331e-02, 3.1396e-01,-6.2622e-02, 1.8323e-01,  -2.5415e-01, 3.2056e-01, 3.7354e-02, 1.6190e-02, 2.3645e-01,-2.0154e-01,   1.6101e-01, 1.2769e-01,-7.1228e-02,-6.1218e-02, 1.3574e-01], [ 2.9370e-01, 2.4023e-01,-2.1826e-01, 7.4341e-02, 2.2424e-01,-1.4392e-01,   1.4075e-01,-1.4172e-01,-9.9060e-02,-6.4819e-02,-2.2070e-01, 1.3664e-02,  -2.8488e-02,-1.6479e-02,-1.5808e-01,-3.8116e-02, 2.3590e-02], [-2.5049e-01,-1.8762e-01,-2.8345e-01,-1.0541e-01,-2.8979e-01,-7.1167e-02,   1.7957e-01, 6.0974e-02, 2.8271e-01, 1.5915e-02,-2.4817e-01, 1.5671e-02,  -1.0391e-02, 1.1206e-01,-1.1292e-01,-4.0253e-02, 1.8176e-01], [-3.8300e-02,-2.7295e-01,-5.8167e-02, 3.2812e-01, 4.1260e-02, 2.0886e-01,   1.3684e-01, 2.4887e-02,-6.3904e-02,-1.9080e-01,-2.4512e-01,-1.8112e-02,  -6.4209e-02,-1.3440e-01,-5.9509e-02,-9.5581e-02, 1.6418e-01], [ 1.1469e-01, 2.8320e-01, 6.1920e-02, 2.1472e-01,-2.5952e-01,-1.3721e-01,  -1.1407e-01, 2.6270e-01, 9.3506e-02,-1.5083e-02, 1.9745e-02,-1.2622e-01,   3.0994e-03, 1.0236e-01, 2.3792e-01, 1.6129e-02,-2.4438e-01], [-1.4661e-01, 2.1082e-01,-4.6204e-02,-9.1919e-02, 7.7515e-02,-7.8491e-02,  -1.9812e-01,-6.0486e-02, 4.1779e-02,-1.1543e-02, 2.0386e-02, 1.2598e-01,  -3.1708e-02,-1.0730e-01, 9.4727e-02,-2.2546e-01, 1.7688e-01], [ 1.8127e-01, 8.4900e-02, 2.2803e-01, 1.1841e-01,-1.8787e-01, 6.3049e-02,  -3.2446e-01,-5.5267e-02,-2.0905e-03,-5.7892e-02,-2.2021e-01, 1.5686e-01,  -1.7029e-01, 1.6711e-01, 9.8755e-02,-5.5206e-02,-8.9722e-02], [ 2.2217e-02,-1.7688e-01, 8.6426e-02,-3.5571e-01,-2.6636e-01,-2.5000e-01,  -3.2788e-01, 1.3416e-01, 2.7954e-01,-3.1519e-01,-4.9927e-02,-4.4952e-02,   6.5063e-02,-1.7603e-01, 3.9276e-02, 7.0190e-02,-2.7979e-01], [-2.3132e-01, 3.7354e-02, 2.0764e-01, 9.2346e-02, 1.0201e-02, 1.9495e-01,  -2.2046e-01, 1.5466e-01, 7.3914e-02, 6.7932e-02, 1.9531e-01,-2.4377e-01,   7.1777e-02, 1.6577e-01, 1.9791e-02, 1.0370e-01,-1.5295e-01], [ 2.4329e-01, 1.3573e-02, 7.4463e-02, 1.4075e-01, 2.5049e-01, 1.9116e-01,   2.8809e-01, 9.5276e-02,-1.6846e-01, 1.1920e-01, 2.3901e-01,-1.9788e-01,   5.9937e-02,-2.3083e-01,-4.6448e-02,-6.0608e-02, 1.5295e-01], [ 7.4890e-02,-1.5918e-01, 3.7018e-02, 2.9517e-01, 1.8280e-02,-3.7140e-02,   2.0312e-01, 1.3550e-01,-2.1683e-02, 1.5601e-01,-8.1116e-02,-1.7639e-01,  -6.8054e-02, 1.6028e-01,-2.9861e-02, 8.7585e-02, 1.6284e-01], [-1.0675e-01,-6.7078e-02, 1.3440e-01, 1.3538e-01, 1.1523e-01,-2.6782e-01,  -2.4829e-01, 7.5012e-02, 6.2683e-02,-1.2878e-01,-1.4697e-01,-3.4454e-02,  -3.2349e-02, 2.1399e-01, 1.2524e-01, 1.3257e-01,-2.1436e-01], [-7.9773e-02,-7.7820e-02, 3.2886e-01,-7.6721e-02,-7.2388e-02,-1.7566e-01,  -2.2241e-01, 2.8003e-01, 1.0583e-01, 1.5686e-02,-1.6373e-02,-2.1045e-01,  -9.7778e-02,-1.2659e-01, 2.3035e-01,-1.0643e-03,-2.0776e-01], [-3.0396e-01,-3.6279e-01,-1.8945e-01,-3.6646e-01,-3.5889e-01,-3.2593e-01,   1.0596e-01,-1.3940e-01, 1.5466e-01,-2.6050e-01, 8.1421e-02, 2.2180e-01,   2.2961e-01, 2.9834e-01, 4.7363e-02, 2.6611e-01, 1.3965e-01], [-1.0004e-01,-3.1567e-01,-2.5781e-01,-2.1155e-01,-1.6199e-01,-5.3101e-02,   3.2617e-01,-8.5693e-02,-6.6101e-02,-2.9126e-01,-2.0386e-01, 5.1575e-02,  -6.6223e-02,-1.6797e-01,-1.9836e-01, 2.5146e-01,-2.1533e-01], [ 1.1145e-01, 1.5283e-01, 3.1592e-01, 1.3940e-01, 7.5073e-02, 7.3509e-03,   1.8555e-01, 2.0422e-01, 6.4758e-02,-9.9335e-03,-2.6221e-01, 4.9744e-02,   5.5145e-02,-2.1619e-01, 1.9824e-01,-6.8726e-02,-2.1216e-01], [-9.2590e-02,-2.6054e-03,-1.8677e-01,-7.8491e-02,-2.3816e-01,-1.0425e-01,  -1.4771e-01, 2.1265e-01, 1.2939e-01,-2.1521e-01, 3.7598e-01, 6.9397e-02,  -2.2437e-01, 3.0054e-01,-1.1945e-01, 5.4359e-03, 1.8677e-01], [ 1.5308e-01, 1.6809e-01,-3.4210e-02,-1.7993e-01, 9.8450e-02,-2.0410e-01,  -2.7969e-02, 1.9482e-01,-1.2671e-01, 7.8125e-02, 2.0105e-01, 2.0496e-01,   8.2825e-02, 2.2534e-01, 2.0374e-01, 2.1838e-01, 2.4277e-02], [-2.8418e-01,-1.2733e-02,-1.1932e-02,-6.2866e-02, 5.0018e-02,-2.7023e-02,   3.5797e-02, 1.8469e-01, 1.8457e-01,-1.5808e-01, 1.0486e-01, 7.6538e-02,   1.1719e-01, 2.0667e-01, 7.8369e-02,-1.2347e-01, 7.2754e-02], [-7.7942e-02, 5.3040e-02, 1.0376e-01, 1.8286e-01,-2.2559e-01, 2.1423e-01,  -3.1494e-01,-2.0959e-01, 1.7419e-01,-2.0007e-01,-1.1879e-02,-6.2225e-02,   1.7944e-01, 1.6663e-01, 1.6174e-01, 1.5271e-01, 2.1606e-01], [ 1.2286e-01, 1.3489e-01,-8.1787e-02,-1.2154e-02,-6.4209e-02, 1.4856e-01,  -1.7834e-01, 6.8481e-02,-1.0132e-01, 1.6748e-01, 8.4839e-02, 1.4673e-01,   8.8623e-02,-7.3181e-02,-2.3914e-01,-1.0815e-01, 3.2471e-02], [ 2.7417e-01, 7.0679e-02,-6.5430e-02, 1.0626e-01,-2.3340e-01, 8.4656e-02,   1.4258e-01,-3.2690e-01,-6.7520e-03, 3.7964e-02,-2.4548e-03,-4.0131e-02,   2.8735e-01,-9.6863e-02, 6.3965e-02, 9.9548e-02, 2.2058e-01], [ 8.1787e-03,-1.8936e-02,-1.9556e-01,-1.8530e-01,-1.2158e-01, 1.3464e-01,  -1.9543e-01, 3.0396e-01,-9.4116e-02, 1.6394e-01,-2.6147e-01,-2.7197e-01,  -1.0590e-01, 2.1582e-01,-1.0895e-02, 3.7207e-01, 3.6890e-01], [ 2.3889e-01,-9.4177e-02, 9.0332e-02,-6.5369e-02,-2.2644e-01,-9.4727e-02,  -2.4951e-01, 1.1673e-02,-3.6224e-02,-7.2327e-02,-1.4868e-01,-2.0703e-01,  -2.0398e-01,-1.0284e-01,-1.1469e-01,-1.9214e-01, 1.3928e-01], [-1.4758e-01, 1.8506e-01, 2.0844e-02, 1.9031e-01, 2.9956e-01, 1.4746e-01,  -7.7698e-02, 1.6467e-01,-2.7368e-01,-8.8196e-02, 1.0150e-01,-2.1228e-01,  -2.2595e-01, 1.9324e-01,-1.2657e-02,-5.3009e-02,-4.1443e-02], [-1.6467e-01,-9.4543e-02,-1.9177e-01,-3.4595e-01, 1.6650e-01,-1.4282e-01,   1.2030e-01, 2.2791e-01, 2.3975e-01,-2.2241e-01,-7.7881e-02, 3.6987e-02,  -1.1243e-01, 2.5940e-02, 1.9727e-01, 2.4219e-01,-2.5391e-01], [ 2.0581e-01, 1.7715e-02,-5.8929e-02,-1.3489e-01,-2.4963e-01,-8.4839e-02,  -2.4377e-01,-1.4465e-01, 2.3657e-01,-2.2046e-01,-7.7209e-02,-2.1423e-01,   3.2251e-01, 2.1533e-01, 2.2510e-01, 1.6479e-01, 5.9357e-02], [-2.3071e-01, 2.3816e-01, 1.1957e-01, 1.9788e-01,-2.0361e-01, 5.2795e-02,   2.7051e-01,-2.4036e-01,-1.3123e-01,-7.1220e-03,-1.4868e-01, 2.9883e-01,  -4.5166e-02,-1.3306e-01,-6.4087e-02, 1.8884e-01, 1.2634e-01], [ 1.9446e-01, 2.1631e-01, 1.9226e-02,-9.9426e-02,-3.2349e-02,-1.2128e-01,   1.9482e-01,-1.3538e-01,-9.8022e-02, 3.4698e-02,-1.9873e-01, 2.3218e-01,   1.0925e-01,-1.0712e-01, 2.7637e-01, 4.3335e-02, 6.4636e-02], [ 2.5192e-02,-1.5857e-01,-3.2690e-01, 1.1377e-01,-2.6880e-01, 3.4008e-03,   5.3253e-02, 3.0713e-01, 1.9934e-01,-1.5625e-01,-2.1753e-01, 2.5781e-01,  -3.2684e-02, 4.8248e-02, 1.7407e-01,-1.9568e-01,-1.7737e-01], [ 2.6871e-02,-1.9836e-01, 1.8359e-01, 9.9243e-02,-1.1017e-01, 5.9448e-02,   3.9014e-01, 3.9575e-01,-1.4636e-01,-1.8542e-01,-1.4124e-01,-8.2581e-02,  -4.5441e-02,-1.1841e-01,-1.3208e-01, 1.0315e-01,-2.0142e-01], [ 3.6602e-03,-2.5977e-01, 1.4168e-02, 1.1383e-01, 1.2154e-02, 2.4011e-01,  -6.2683e-02, 1.3557e-02,-1.0870e-01, 1.7188e-01,-1.1786e-01, 1.5678e-03,  -5.2155e-02, 7.4883e-03,-5.5939e-02,-4.8126e-02,-1.4636e-01], [ 1.3843e-01, 1.7944e-01,-2.5040e-02, 1.3452e-01, 9.1309e-02, 1.7419e-01,  -1.3000e-01,-1.3708e-01, 4.3213e-02, 2.2534e-01,-1.6565e-01,-2.6514e-01,   4.1260e-02, 1.3025e-01,-2.1375e-01, 2.4048e-01,-1.6077e-01], [-1.1420e-01,-1.2512e-01,-4.9744e-02,-1.1102e-01, 3.6084e-01, 1.0498e-01,   1.3354e-01,-1.1505e-01,-1.5833e-01,-1.6504e-01, 6.0120e-02, 4.8370e-02,   5.1758e-02, 1.3745e-01,-2.1594e-01, 6.8787e-02,-3.1738e-02], [ 2.1118e-01, 1.1462e-01,-2.6929e-01,-4.6082e-02,-7.0190e-03, 1.3403e-01,   1.0083e-01, 2.1997e-01, 2.3157e-01, 3.8147e-02,-1.7749e-01, 1.7480e-01,   2.8003e-01, 1.8420e-01,-1.1436e-02,-1.6382e-01,-1.3464e-01], [-7.6843e-02, 1.4880e-01, 2.1558e-01, 1.8469e-01, 8.6548e-02,-7.6660e-02,  -2.3621e-01, 1.6956e-03, 3.7384e-02, 1.2927e-01, 1.6370e-01, 1.7432e-01,  -2.6782e-01,-4.8431e-02,-1.4214e-02,-1.8140e-01, 2.8107e-02], [-1.6125e-01,-2.4377e-01,-3.0444e-01,-2.3657e-01,-8.8684e-02,-2.4255e-01,  -4.4629e-01, 2.9736e-01,-1.5027e-01,-3.1787e-01,-1.5906e-01,-1.6162e-01,   7.1289e-02, 2.6660e-01, 3.7018e-02, 2.9834e-01, 9.7290e-02], [-7.7820e-02, 2.0984e-01,-6.1859e-02, 8.8867e-02,-1.1884e-01, 7.9712e-02,   1.1993e-01, 2.1942e-02, 2.6245e-01,-1.2305e-01, 2.1094e-01, 3.0289e-03,   7.5562e-02, 1.6101e-01, 7.1106e-02, 1.1029e-01, 2.0020e-01], [-1.8872e-01, 2.5195e-01, 7.0679e-02,-2.9205e-02, 5.4108e-02,-1.4368e-01,   8.9722e-02,-1.9092e-01, 1.9299e-01, 1.6113e-01,-6.7505e-02,-1.1719e-01,  -2.3157e-01,-7.1411e-02,-1.0931e-01, 1.2061e-01,-2.5610e-01], [ 8.4595e-02,-7.2144e-02, 9.9976e-02,-1.0718e-01, 1.8079e-01, 2.7664e-02,   3.9355e-01, 2.1729e-01,-2.0801e-01,-1.0803e-01, 1.7502e-02, 2.3682e-01,   1.1072e-01,-1.0138e-01, 1.9751e-01, 1.8958e-01, 5.4413e-02], [ 2.2803e-01, 1.5344e-01,-1.5845e-01,-1.1768e-01,-1.7200e-01,-1.0913e-01,  -7.2815e-02,-7.3967e-03,-8.7280e-02, 1.6663e-01, 6.6284e-02,-1.1780e-01,   2.0166e-01, 2.6978e-01, 1.1938e-01, 2.1350e-01,-1.6098e-02], [ 2.5635e-01,-2.1106e-01, 2.5562e-01, 1.5961e-02, 1.5698e-01, 3.7262e-02,  -8.7524e-02, 1.2366e-01, 1.7651e-01,-6.2042e-02, 2.0117e-01, 1.5503e-01,  -1.4465e-01,-1.4099e-01, 2.1387e-01,-4.9683e-02,-2.3975e-01], [ 2.1265e-01,-1.4795e-01, 3.2990e-02, 1.1646e-01, 2.4304e-01, 6.2256e-03,   5.7343e-02, 5.2979e-02, 6.1981e-02,-2.2473e-01, 1.1011e-01,-2.0630e-01,  -7.8430e-02, 1.1908e-01,-1.1792e-01, 1.8774e-01,-2.3535e-01], [-2.5635e-01,-3.3472e-01,-2.8467e-01,-2.4597e-01,-1.3110e-01,-5.1422e-02,  -2.0728e-01, 3.0823e-02, 3.6133e-02, 3.1586e-03,-2.5293e-01, 2.7832e-02,  -7.8918e-02, 2.6416e-01, 3.2935e-01,-6.2599e-03, 9.3140e-02], [-1.0352e-01,-4.5013e-02, 1.5747e-01, 2.3804e-01,-1.9873e-01, 1.4062e-01,  -2.1899e-01, 5.9357e-02, 7.4829e-02,-7.0618e-02,-1.1841e-01, 1.8024e-03,   2.9980e-01,-1.4380e-01, 1.1108e-01, 2.4662e-03,-2.6929e-01], [-3.9825e-02,-3.9673e-02,-2.5586e-01,-1.6724e-01,-2.2717e-01, 1.0590e-02,   1.5149e-01, 1.1414e-01, 2.2449e-01,-5.0110e-02, 1.3782e-01, 3.4821e-02,   2.6514e-01, 5.7648e-02, 2.8320e-01,-1.7395e-01,-2.8857e-01], [ 1.8091e-01, 1.2903e-01,-1.2213e-01, 2.7759e-01,-1.2306e-02, 6.9092e-02,   2.9614e-01, 1.3611e-01,-2.0691e-01, 1.5222e-01, 1.1804e-01, 1.9885e-01,  -8.8562e-02,-4.8065e-02, 1.9995e-01, 9.7046e-02, 9.9487e-02], [ 1.0437e-02,-1.8420e-01, 2.4988e-01,-9.7351e-02, 2.1533e-01, 1.3855e-01,  -6.1218e-02, 2.6685e-01,-1.3867e-01, 3.9703e-02,-2.5562e-01, 1.4380e-01,   7.2289e-03, 1.0266e-01, 1.5540e-01,-3.5461e-02, 1.3818e-01], [-3.2471e-02, 1.0358e-01, 5.0537e-02,-1.7883e-01,-2.0752e-01, 3.5229e-03,   1.7773e-01,-2.2961e-01, 2.1716e-01, 1.1060e-01, 1.7456e-01,-3.3203e-02,   2.8003e-01, 1.9824e-01, 4.8279e-02, 1.8829e-02, 1.4539e-01], [-3.6768e-01,-7.0496e-02,-3.8770e-01,-3.5913e-01,-3.7231e-01,-1.7236e-01,  -5.6543e-01, 6.9580e-02,-1.5039e-01, 2.0251e-01,-2.9492e-01, 7.7087e-02,   3.3234e-02, 1.1786e-01, 2.0557e-01, 2.8735e-01,-1.7236e-01], [ 4.2084e-02, 4.2633e-02,-1.0193e-01, 1.8604e-01, 2.7173e-01, 2.2388e-01,   2.7051e-01,-1.6565e-01, 9.9792e-03,-1.4380e-01,-2.2064e-02,-1.3159e-01,  -5.6366e-02,-1.1255e-01, 1.0791e-01, 1.4722e-01,-5.3162e-02], [ 2.1704e-01,-2.6074e-01, 1.6077e-01, 1.5076e-01, 4.6539e-02, 3.7903e-02,  -1.0217e-01, 1.3293e-01,-1.2756e-01, 2.2736e-02, 2.7618e-02,-2.1179e-01,   1.8494e-01,-2.8442e-02,-1.2199e-02, 1.7615e-01,-1.4075e-01], [-1.2634e-01,-1.3306e-01,-2.5073e-01,-1.8262e-01,-1.9312e-01,-1.7615e-01,   3.3716e-01,-7.6477e-02,-4.1260e-02,-5.9662e-03, 1.2077e-02,-1.5186e-01,   1.7737e-01,-8.7280e-02, 2.5854e-01, 1.3293e-01, 4.1748e-02], [ 2.6221e-01,-4.1461e-04,-1.1743e-01, 2.6970e-03,-1.2402e-01, 1.0858e-01,  -5.7861e-02,-1.0162e-02,-7.1899e-02, 5.9784e-02, 1.4612e-01,-2.6779e-02,  -3.6072e-02,-7.9956e-02,-1.4441e-01, 2.0959e-01,-1.1969e-01], [-5.1727e-02, 8.5510e-02,-7.5562e-02, 1.7615e-01,-1.6769e-02, 2.5467e-02,  -2.6270e-01, 1.1890e-01, 1.9482e-01,-2.0105e-01,-3.6279e-01, 3.5309e-02,   3.5767e-01, 2.0813e-01,-1.1359e-01, 5.7335e-03, 2.0068e-01], [ 2.7100e-01, 2.2742e-01,-1.2054e-01,-4.3030e-02, 1.7761e-01, 6.1096e-02,   2.1863e-01, 2.2385e-02, 2.7051e-01,-2.3010e-01, 1.3123e-01,-2.5757e-01,   3.5669e-01,-6.1859e-02,-2.4548e-01, 2.6025e-01, 2.2827e-01], [-1.5088e-01, 4.0192e-02,-1.7883e-01,-1.4319e-01,-8.8257e-02,-1.4038e-01,  -2.1225e-02,-3.7939e-01,-2.8793e-02,-3.9136e-01,-8.0688e-02,-1.4671e-02,  -6.5918e-02,-2.7075e-01,-1.2856e-02, 3.3130e-01,-2.5439e-01], [ 1.6711e-01, 1.9727e-01, 7.0496e-02, 1.2154e-02,-1.9788e-01,-3.4576e-02,   1.3501e-01,-4.5532e-02, 2.1326e-01,-5.5695e-02, 3.8483e-02, 8.6609e-02,  -1.7371e-01,-2.1155e-01,-1.4453e-01,-1.9421e-01, 2.0996e-02], [ 1.4612e-01,-1.3824e-02, 2.2668e-01,-2.2461e-01,-1.8692e-02, 1.0687e-01,   2.8854e-02,-9.2590e-02,-1.2054e-01, 5.6976e-02, 1.6077e-01, 1.7639e-01,   8.8379e-02, 1.9519e-01,-1.0181e-01,-1.5649e-01,-7.4707e-02], [ 3.0811e-01, 9.6680e-02, 2.7588e-01,-2.7466e-02, 3.0835e-01, 7.6416e-02,   8.8928e-02, 1.8079e-01, 1.7505e-01, 7.9407e-02,-2.2729e-01, 1.6876e-02,  -3.8300e-03,-1.6699e-01,-4.6448e-02,-1.4136e-01, 4.6448e-02], [ 7.8125e-02, 2.4487e-01, 1.9922e-01, 8.0933e-02,-8.8379e-02,-2.1240e-01,   2.8820e-03, 1.3721e-01, 1.0809e-01,-2.7634e-02,-4.6204e-02, 3.9429e-02,  -2.0056e-01,-2.1423e-01, 1.4563e-01, 1.0797e-01,-2.5537e-01], [-1.0139e-02,-1.3745e-01, 6.9763e-02,-1.2482e-01,-1.1609e-01, 3.6670e-01,   3.7842e-02, 1.8018e-01, 3.0884e-02,-9.8938e-02,-2.5415e-01,-4.0863e-02,   3.9673e-01,-1.3513e-01,-1.5210e-01,-5.8655e-02,-1.1334e-01], [ 4.6631e-02, 2.2253e-01, 1.0406e-01, 2.3218e-01, 1.2573e-01,-8.0994e-02,   6.5552e-02, 1.6821e-01, 8.4473e-02, 1.3904e-01,-1.4990e-01, 1.5747e-01,  -2.1362e-01,-3.3234e-02, 1.0999e-01, 1.6943e-01, 2.0557e-01], [-1.1053e-01,-1.2421e-01,-2.4307e-02, 1.0437e-01, 1.5564e-01,-3.1763e-01,   6.3477e-02,-5.4199e-02,-1.4392e-01, 2.2046e-01,-2.6367e-01, 1.5173e-01,   4.3243e-02, 1.9360e-01, 3.1079e-01, 2.4866e-01,-1.7542e-01], [-1.8164e-01, 1.0913e-01, 1.1804e-01, 8.9478e-02, 1.7505e-01, 2.4817e-01,  -2.1362e-01, 5.9357e-02, 1.3000e-01,-6.4209e-02, 4.5563e-02, 1.4246e-01,   1.2817e-01,-1.7639e-01, 9.5520e-02, 1.6077e-01,-2.8223e-01], [-5.6488e-02, 2.8882e-01,-1.4648e-01, 2.3608e-01,-1.6785e-02, 2.2351e-01,   8.9722e-02,-1.6345e-01, 2.9883e-01, 1.7639e-01,-2.4658e-01,-6.2943e-03,   1.3184e-02,-1.2659e-01, 3.5742e-01,-5.2979e-02,-1.4832e-01], [-8.1024e-03, 3.2043e-02,-1.3062e-01, 3.9001e-02,-6.8970e-02, 2.9587e-02,   9.1980e-02,-2.1912e-02,-1.1615e-01,-1.7175e-01, 1.7139e-01, 2.3608e-01,  -5.2490e-02, 2.6685e-01, 9.1064e-02, 1.8347e-01,-2.2852e-01], [-1.5236e-02, 1.6467e-01, 2.4487e-01, 1.4612e-01,-9.6558e-02, 1.9250e-01,  -5.2795e-02, 2.2388e-01, 8.0933e-02,-2.1204e-01, 1.0150e-01,-1.2170e-01,  -1.7603e-01, 8.8654e-03, 2.4365e-01, 2.0166e-01,-2.1497e-01], [ 2.7808e-01, 2.5928e-01, 9.6802e-02,-8.5632e-02, 2.0398e-01, 1.4758e-01,   3.1464e-02,-1.7664e-01, 1.2695e-01,-4.9011e-02, 9.7839e-02,-4.5227e-02,   6.4331e-02, 1.9580e-01,-1.1353e-01,-8.3496e-02,-1.6357e-01], [ 1.2744e-01,-1.4783e-01,-2.1545e-01, 1.0394e-01, 1.5121e-02,-1.8860e-01,   2.3010e-01,-3.8428e-01, 2.9395e-01,-2.3352e-01, 1.2952e-01, 8.8440e-02,   2.4915e-01,-1.2274e-01,-1.4880e-01, 2.0728e-01,-1.6711e-01], [ 8.4717e-02,-1.1182e-01,-1.5955e-01, 1.4294e-01,-7.5012e-02,-2.2754e-01,  -1.7554e-01,-2.8488e-02,-8.8013e-02,-1.4600e-01, 1.8970e-01,-1.7517e-01,   2.5681e-02,-1.0297e-01,-1.4746e-01,-1.0968e-01, 6.2447e-03], [-4.7211e-02, 2.3608e-01,-7.5012e-02,-2.1704e-01, 1.4453e-01,-2.9358e-02,  -3.1348e-01, 3.1738e-01, 1.4145e-02, 4.1138e-02,-2.0740e-01, 2.7954e-01,  -1.8164e-01, 6.6795e-03,-1.9922e-01, 9.1064e-02, 1.5796e-01], [ 1.1032e-02, 2.5684e-01,-8.5632e-02,-7.1838e-02, 9.5764e-02, 3.0371e-01,   2.9224e-01, 2.0154e-01, 1.6394e-01, 1.7334e-01, 2.3816e-01, 7.4280e-02,   6.5689e-03,-1.2524e-01, 1.2964e-01,-1.7303e-02,-6.3171e-02], [ 1.7114e-01,-7.2998e-02, 4.7150e-02,-9.5276e-02,-1.9617e-01, 3.3398e-01,   2.0004e-02,-7.2937e-03,-1.6931e-01, 4.2480e-02, 5.8533e-02,-3.2684e-02,   1.4734e-01,-1.9910e-01, 1.0486e-01, 2.5024e-01, 2.2598e-02], [ 1.8958e-01, 1.8323e-01,-8.1299e-02, 7.1655e-02, 1.1670e-01, 1.8652e-01,  -7.0129e-02,-1.0718e-01, 2.5732e-01, 6.8970e-02, 1.0553e-01, 3.2446e-01,  -2.9888e-03, 1.0596e-01, 1.5710e-01, 1.4539e-01,-1.3603e-02], [ 9.6924e-02, 6.0547e-02,-1.0071e-01, 5.0354e-02, 1.0504e-01, 1.6125e-01,  -3.5400e-02, 5.7434e-02, 2.0111e-02,-2.4976e-01,-1.7761e-01, 3.1445e-01,   7.0496e-02, 3.8025e-02,-1.1200e-01,-9.1125e-02, 2.4475e-01], [ 2.8589e-01,-7.8430e-02, 1.1713e-01,-7.4997e-03,-1.3586e-01,-5.9052e-02,   3.5547e-01, 8.9539e-02, 2.3621e-01, 2.0642e-01,-7.6538e-02, 2.1594e-01,  -1.6211e-01, 9.1736e-02, 2.8191e-03,-8.5815e-02, 1.2000e-01], [ 2.2205e-01, 1.0443e-01, 1.1951e-01,-1.3916e-01, 6.2828e-03, 8.3435e-02,  -2.1179e-01,-3.2471e-02,-1.6724e-01,-2.9834e-01, 2.1155e-01,-1.3794e-01,  -1.2177e-01, 1.5210e-01,-1.4966e-01, 2.3633e-01,-4.1046e-02], [ 9.8450e-02, 1.8628e-01,-1.9922e-01, 9.1675e-02, 1.3086e-01,-2.8046e-02,  -4.8737e-02, 1.2866e-01,-1.5503e-01,-8.7463e-02, 1.3123e-01,-2.1133e-02,  -1.3586e-01,-2.4353e-01,-2.1655e-01,-2.9125e-03,-4.9988e-02], [ 3.2024e-03,-1.7871e-01,-2.0105e-01,-1.0345e-01,-1.9421e-01,-1.9617e-01,   1.7871e-01, 2.2192e-01, 2.5220e-01,-1.5747e-01, 1.7017e-01, 1.8176e-01,  -1.7737e-01, 8.3557e-02,-1.3635e-01, 2.4475e-01, 1.2199e-02], [ 4.4952e-02, 1.0681e-01,-2.8763e-02,-1.9958e-01,-4.1412e-02,-4.0955e-02,   2.7490e-01,-6.3843e-02,-2.4255e-01, 1.1200e-01, 2.2107e-01,-1.3147e-01,  -1.8445e-01,-1.1993e-01,-4.3152e-02,-7.3486e-02, 2.0105e-01], [ 1.5564e-01, 3.7079e-02, 2.3535e-01, 8.9050e-02, 1.7236e-01, 3.0380e-02,   1.1731e-01,-9.1064e-02, 2.8931e-01, 1.2024e-01, 4.7951e-03, 1.6187e-01,  -1.6922e-02,-1.4929e-01,-6.0028e-02, 1.1133e-01,-5.4321e-02], [-3.1470e-01,-1.6492e-01,-1.6138e-01,-2.2876e-01,-1.9653e-01,-2.6294e-01,   1.1462e-01, 3.0151e-01, 2.7490e-01,-2.1985e-01, 4.1016e-02,-2.0190e-01,  -1.0541e-01, 3.9124e-02, 1.3574e-01, 2.0874e-01,-8.4900e-02], [ 5.2738e-04,-1.8164e-01,-1.6089e-01,-6.8848e-02, 7.8247e-02,-9.6497e-02,  -1.3306e-01,-2.1167e-01,-2.1924e-01, 1.9684e-02, 1.3452e-01, 2.3242e-01,  -7.0068e-02,-1.6895e-01, 1.9202e-01,-2.9175e-02, 2.9495e-02], [ 1.6525e-02, 1.9080e-01,-1.4832e-01, 9.6802e-02,-3.1967e-03, 2.6538e-01,   2.1057e-01, 1.6617e-02, 2.0984e-01,-6.9946e-02,-3.6774e-02,-1.8323e-01,  -6.0211e-02,-5.6915e-02, 2.9517e-01,-3.8239e-02,-1.1646e-01], [-7.6050e-02,-2.6196e-01,-2.4329e-01,-2.7515e-01,-3.3374e-01,-3.3081e-01,   2.7905e-01, 2.4524e-01, 1.5979e-01,-2.2717e-01,-1.1487e-01, 2.4731e-01,   1.7664e-01,-1.1243e-01,-1.8127e-01, 1.8958e-01, 1.2030e-01], [-2.8397e-02,-5.3024e-03,-1.1078e-02,-1.8750e-01,-1.6922e-02,-1.3452e-01,   4.4312e-01,-1.4075e-01,-1.7383e-01,-3.9307e-02,-1.6418e-01, 5.9753e-02,  -1.2201e-01, 1.1066e-01,-9.7473e-02,-2.7176e-02,-1.8530e-01], [-1.2347e-01, 2.8076e-01,-1.8762e-01, 1.5259e-01,-1.5161e-01,-1.9531e-02,  -1.2402e-01,-1.9516e-02,-1.6663e-01,-1.2756e-01,-6.5857e-02,-2.0593e-01,  -2.1484e-01,-1.4664e-02,-2.7573e-02, 2.1826e-01, 1.1420e-01], [ 1.4648e-01, 3.7903e-02, 1.7236e-01,-1.4233e-01, 2.9517e-01, 1.7590e-01,   1.3232e-01,-2.0728e-01,-2.3083e-01,-1.9397e-01,-2.8271e-01,-5.9845e-02,   3.1201e-01, 1.3525e-01, 4.4952e-02, 1.6113e-02,-6.2408e-02], [-5.9814e-02,-3.7140e-02,-1.2891e-01, 1.3054e-02,-5.0140e-02,-1.7542e-01,   2.1387e-01,-2.2729e-01, 2.6343e-01,-9.9976e-02, 1.7822e-01, 1.0339e-01,   3.7201e-02,-1.4844e-01, 1.3599e-01,-8.3694e-03,-2.2070e-01], [-1.0950e-01,-4.5068e-01,-1.3452e-01,-1.2976e-01, 2.3914e-01, 2.3169e-01,  -6.3904e-02,-1.1188e-01, 1.5381e-01, 7.2144e-02,-2.6294e-01, 3.1909e-01,  -1.8604e-01,-2.2900e-01, 1.9653e-01,-3.5339e-02, 1.8457e-01], [-2.0740e-01, 3.2739e-01,-3.2422e-01,-2.9492e-01,-4.4525e-02, 2.1027e-02,   2.4500e-01,-1.1798e-01,-2.3422e-02, 1.8311e-01, 1.2891e-01,-2.4207e-01,   1.9135e-02, 1.6028e-01,-1.3171e-01,-1.2988e-01,-1.6235e-01], [-3.2422e-01,-3.8574e-01,-1.0730e-01,-2.9565e-01,-1.1078e-01,-7.7393e-02,   1.4307e-01,-3.5181e-01, 1.0138e-01,-3.7384e-02,-2.0947e-01,-1.5063e-01,   7.5073e-02,-2.2934e-02, 2.7197e-01, 3.5309e-02,-1.7334e-01], [-1.4172e-01,-4.2542e-02, 3.2690e-01, 3.7329e-01, 1.6333e-01,-1.2683e-01,   7.0251e-02, 1.9116e-01, 2.6566e-02,-2.8247e-01, 9.8816e-02, 2.3413e-01,   1.5869e-02,-1.3525e-01,-1.5796e-01,-2.8793e-02,-4.8737e-02], [-1.1682e-01, 5.5328e-02,-4.9866e-02, 1.6528e-01, 1.3245e-01, 3.1689e-01,   9.3201e-02, 6.5308e-02, 1.9440e-02,-1.5259e-01, 2.0142e-01, 4.7821e-02,   2.4402e-01,-5.7434e-02, 1.1670e-01,-8.2153e-02, 2.4707e-01], [ 5.3368e-03, 2.1643e-01,-2.6840e-02,-2.0178e-01, 1.4368e-01, 6.2256e-02,  -2.0789e-01, 5.0201e-02, 1.3574e-01, 1.8652e-01, 1.0028e-01,-1.2347e-01,  -1.8628e-01, 2.0520e-01, 1.5747e-01, 2.0435e-01, 1.2915e-01], [-1.6586e-02,-9.9243e-02,-1.7712e-01,-6.7688e-02,-2.0642e-01, 1.5369e-01,   2.9517e-01,-1.5160e-02, 1.6663e-01, 9.0027e-02,-5.9723e-02, 4.6936e-02,   1.6525e-02, 1.1536e-01, 1.1377e-01, 1.8066e-01,-1.3574e-01], [ 1.1133e-01, 8.7891e-02,-1.9543e-01,-2.1252e-01,-1.7395e-01,-1.4368e-01,  -2.2632e-01, 3.3356e-02,-1.2581e-02, 2.2546e-01, 1.6821e-01, 1.8774e-01,  -1.1548e-01, 7.0740e-02,-9.2163e-02,-1.0046e-01,-1.4355e-01], [-1.1749e-01,-1.8347e-01, 3.0957e-01, 7.4768e-02, 2.4719e-02,-2.0190e-01,  -2.3901e-01,-3.0005e-01, 7.6660e-02, 3.7720e-02, 9.4757e-03, 2.5049e-01,   4.5715e-02, 2.9102e-01, 4.2755e-02, 1.3171e-01, 2.1509e-01], [ 7.6233e-02,-7.4219e-02,-4.9286e-02,-9.3811e-02,-2.2485e-01,-2.1033e-01,   6.0059e-02,-2.4609e-01, 1.3770e-01,-4.2694e-02, 3.1714e-01,-4.5312e-01,   2.2607e-01, 1.9653e-01,-1.1829e-01,-4.5349e-02, 1.1188e-01], [-4.2458e-03,-1.9318e-02, 1.6357e-01, 1.4905e-01, 1.5894e-01,-5.7495e-02,  -1.7151e-01, 1.1517e-01, 3.3966e-02,-6.6406e-02, 1.7090e-01,-5.7953e-02,   2.3657e-01, 1.3635e-01,-1.9440e-02,-1.7053e-01,-2.1948e-01], [ 1.0028e-01, 3.0444e-01,-1.9128e-01,-3.6560e-02,-5.2429e-02, 2.3792e-01,  -1.3123e-01,-3.3020e-02,-2.8717e-02,-8.9966e-02,-2.4646e-01, 2.3840e-01,   3.2227e-02,-1.6028e-01, 1.1572e-01, 1.5167e-02,-1.6577e-01], [ 1.2421e-01,-2.2302e-01, 5.4504e-02, 2.2876e-01, 9.5978e-03, 1.3647e-01,  -2.0532e-01,-1.6138e-01, 1.6626e-01, 7.2144e-02, 1.4544e-03,-1.6992e-01,  -1.4200e-03, 1.6003e-01,-2.0581e-01, 2.3108e-01,-2.2168e-01], [ 1.5125e-01, 1.7505e-01, 4.4342e-02, 8.8501e-02, 1.4587e-01, 5.0720e-02,  -1.2842e-01, 1.3855e-01,-3.3295e-02,-2.1802e-01,-1.7603e-01, 1.3379e-01,   4.2175e-02,-8.5754e-02,-5.2429e-02, 5.4871e-02,-7.7576e-02]],
	"controller.l1.bias" : [ 0.05853  , 0.0654   ,-0.2026   , 0.03873  ,-0.0663   , 0.1458   , -0.1292   ,-0.11664  , 0.0903   ,-0.0417   , 0.2249   , 0.0887   ,  0.0804   , 0.05295  , 0.08624  , 0.04456  , 0.001144 , 0.1432   ,  0.002869 , 0.02037  ,-0.0663   , 0.09076  ,-0.04147  , 0.07495  ,  0.2288   , 0.02951  , 0.11694  , 0.0366   ,-0.04697  , 0.2229   ,  0.1794   , 0.01388  , 0.1558   , 0.0723   , 0.1309   ,-0.10675  , -0.04694  ,-0.0005364, 0.1149   ,-0.188    ,-0.02576  , 0.001468 ,  0.1276   , 0.05914  , 0.1884   , 0.2598   ,-0.0475   , 0.2454   , -0.1031   ,-0.04474  , 0.2109   , 0.04135  ,-0.05246  , 0.0713   ,  0.09705  ,-0.0127   ,-0.0433   , 0.10266  ,-0.0882   , 0.1852   , -0.0941   , 0.1714   , 0.2279   , 0.09265  ,-0.162    , 0.0763   , -0.1328   , 0.00408  ,-0.05115  , 0.212    , 0.1415   , 0.03714  ,  0.2103   , 0.05444  ,-0.141    , 0.0907   , 0.09894  , 0.06024  , -0.1132   , 0.05933  ,-0.0723   , 0.2295   , 0.1746   ,-0.09174  ,  0.0935   ,-0.04263  ,-0.04608  , 0.129    , 0.1647   ,-0.1481   , -0.0288   ,-0.1826   , 0.1962   , 0.183    ,-0.006176 , 0.1279   ,  0.1946   , 0.03253  ,-0.06256  , 0.1492   , 0.08856  , 0.1437   , -0.0533   , 0.1699   , 0.1179   ,-0.03824  ,-0.004112 ,-0.1846   ,  0.2583   , 0.0988   ,-0.01317  ,-0.04434  ,-0.07404  , 0.0839   ,  0.02028  ,-0.02188  , 0.152    , 0.03577  , 0.2352   , 0.2341   , -0.04858  ,-0.201    ,-0.03735  ,-0.11414  , 0.0679   ,-0.02376  , -0.03003  ,-0.1371   ],
	"controller.l2.weight" : [[ 1.0144e-01, 2.8381e-02,-8.0872e-02, 9.0942e-02, 1.4111e-01, 3.7872e-02,  -2.8793e-02,-5.7037e-02, 3.3630e-02, 3.1616e-02, 5.4779e-02,-7.6416e-02,  -1.6037e-02,-1.4709e-01,-6.0516e-02,-4.6661e-02, 4.3884e-02,-6.6284e-02,   7.0984e-02, 2.8320e-02, 5.2734e-02, 2.3865e-02,-4.7180e-02,-1.0292e-02,   4.6082e-02, 4.9438e-02, 1.4915e-02, 1.3818e-01,-4.7150e-02, 8.4412e-02,  -7.7820e-04,-9.9487e-02, 3.7628e-02, 5.1384e-03, 6.8604e-02,-5.4138e-02,  -2.2815e-01, 6.9313e-03, 4.5593e-02, 8.4656e-02,-1.2720e-01,-1.2985e-02,  -2.0264e-02,-3.6530e-02,-4.2786e-02,-1.8875e-02,-1.3914e-03,-1.1566e-01,   5.4504e-02,-3.4424e-02, 2.4628e-02,-3.0334e-02,-1.4160e-01,-4.8950e-02,   1.0223e-01, 1.2018e-01,-3.3600e-02, 7.1411e-02,-2.7237e-02, 1.1621e-01,  -1.7407e-01, 1.1279e-01,-9.7580e-03,-5.0873e-02, 4.6356e-02, 5.9113e-02,  -9.6560e-04,-3.3234e-02, 1.0490e-02,-3.5156e-02, 1.4514e-01,-2.1881e-02,  -5.1117e-02,-6.7139e-02, 1.5068e-02, 4.1809e-02, 1.5881e-01, 7.6050e-02,   2.6474e-02, 1.0168e-01,-1.7053e-01, 7.6355e-02,-2.1500e-02,-4.5853e-03,   3.0174e-03, 1.1169e-01, 1.2378e-01,-3.4332e-03, 4.0680e-02, 1.0468e-02,  -4.4189e-02, 1.3379e-01,-2.8503e-02,-9.3689e-02,-5.9052e-02,-4.9500e-02,   5.1651e-03, 8.8013e-02,-3.4790e-02, 1.1438e-01,-9.9976e-02, 6.7322e-02,   1.4868e-01, 5.6915e-03, 8.5022e-02,-3.6194e-02, 7.5806e-02, 3.0197e-02,   2.6489e-02, 6.2866e-02, 1.0376e-01, 5.2681e-03,-1.7242e-02, 3.5461e-02,   9.8450e-02,-1.0718e-01,-5.6915e-02, 4.4434e-02, 8.4290e-02,-4.9652e-02,  -5.1697e-02, 5.0583e-03,-2.3206e-01,-1.6687e-01, 1.8875e-02, 1.0986e-01,   3.0575e-03, 1.2744e-01], [ 2.2705e-02,-1.9699e-02, 3.2196e-02,-1.2988e-01,-1.1505e-02, 6.0333e-02,  -6.6772e-02, 8.5388e-02,-8.5388e-02, 1.0236e-01, 2.1393e-02, 1.7688e-01,  -2.3148e-02, 6.9702e-02, 1.0309e-01,-5.6549e-02,-3.7079e-02, 4.6143e-02,   3.6713e-02, 5.0476e-02,-6.5231e-03, 8.5754e-02,-7.7637e-02,-9.6436e-02,   7.8918e-02,-2.1805e-02, 2.2602e-03, 1.8054e-01, 1.6510e-02,-1.2793e-01,   4.1687e-02,-5.1941e-02, 1.1841e-01, 9.6924e-02, 1.1566e-01,-4.3304e-02,  -2.5586e-01,-3.4119e-02,-1.5186e-01, 6.4148e-02,-5.1422e-02,-1.3354e-01,   5.7709e-02, 9.3323e-02, 6.6345e-02, 1.3037e-01,-4.9469e-02,-6.5491e-02,  -4.2053e-02,-1.4136e-01,-3.0914e-02, 8.7402e-02,-6.2500e-02, 1.1261e-01,  -2.1698e-02, 1.0693e-01, 1.5344e-01,-1.6077e-01, 2.6978e-02, 2.9129e-02,   7.6866e-03, 2.1194e-02,-1.2903e-01,-5.6030e-02, 1.3977e-01,-2.3636e-02,  -1.6739e-02,-1.1887e-02, 4.6753e-02,-3.9001e-02, 3.8788e-02,-4.0466e-02,   2.5055e-02,-4.3549e-02, 8.5815e-02, 1.1493e-01,-1.0425e-01, 8.8318e-02,   3.6865e-02, 1.0596e-01,-1.6797e-01, 1.1711e-02,-1.0767e-01,-6.9275e-02,   8.0566e-02,-1.7715e-02, 9.1431e-02, 2.9388e-02,-3.6896e-02, 2.2192e-01,  -4.0741e-02, 7.6233e-02, 3.4973e-02, 2.7466e-02,-5.1331e-02,-7.1350e-02,  -5.6946e-02, 6.2469e-02, 7.9285e-02, 8.1665e-02,-1.5161e-01, 8.3618e-02,   5.2917e-02, 3.0502e-02,-5.7617e-02,-4.0314e-02,-5.4893e-03,-1.5297e-02,   1.3708e-01,-7.6294e-02,-9.5398e-02, 4.0131e-02, 1.9608e-02, 6.0089e-02,   3.9185e-02,-1.4331e-01,-1.6479e-01, 5.7098e-02, 4.8096e-02, 2.7145e-02,  -5.0262e-02, 3.3630e-02,-1.7322e-01,-1.3757e-01, 1.0260e-01, 8.0078e-02,   1.0730e-01, 7.5317e-02], [-6.6986e-03, 1.0626e-01, 6.5857e-02, 9.6191e-02,-4.0070e-02, 1.1426e-01,  -4.4861e-02,-1.1810e-01, 8.1329e-03,-1.0315e-01, 2.1103e-02, 2.2546e-01,  -1.1040e-02,-1.0689e-02, 9.4971e-02,-4.9957e-02, 1.8555e-01,-5.5603e-02,  -3.1769e-02, 2.8961e-02, 1.4313e-02,-7.0129e-02,-1.2756e-01,-4.2328e-02,  -1.1810e-01,-1.1957e-01, 2.2675e-02, 3.6652e-02, 2.7863e-02,-7.5012e-02,  -4.5990e-02, 3.3779e-03,-1.8219e-02,-1.0242e-03, 6.1646e-02, 2.4509e-03,   8.4961e-02, 1.4563e-01, 5.3406e-02, 7.4951e-02, 1.3818e-01,-4.6326e-02,  -1.5388e-02, 4.5044e-02,-1.2250e-01,-3.6407e-02, 1.1328e-01,-1.3147e-01,  -9.9365e-02,-2.7695e-02, 6.5552e-02, 1.7749e-01, 2.7191e-02,-2.8976e-02,   1.5961e-02,-1.2152e-01, 6.2561e-02,-3.3813e-02, 7.5989e-02, 4.7455e-02,  -3.9886e-02,-1.6922e-02, 2.9404e-02, 4.9858e-03,-7.4219e-02,-7.5378e-02,  -9.6497e-02, 1.1371e-01,-8.5678e-03, 9.2651e-02, 6.2439e-02, 7.8735e-03,   1.2335e-01, 1.1682e-01,-3.6438e-02,-6.3721e-02, 1.0510e-01,-1.5063e-01,  -4.7272e-02, 4.8828e-02, 2.5781e-01, 3.3295e-02,-5.9601e-02,-1.2436e-03,  -5.2307e-02,-8.5693e-02,-4.5685e-02,-4.0741e-02, 8.2825e-02, 1.8860e-02,  -4.1840e-02, 1.4755e-02, 7.7576e-02, 1.8509e-02,-4.4403e-02,-9.7656e-02,   6.9458e-02,-8.1543e-02,-1.3161e-02,-1.4114e-02,-8.3084e-03, 6.6406e-02,  -1.4526e-01, 1.3635e-01, 1.1859e-01, 2.6031e-02, 1.2793e-01,-7.2815e-02,   6.9702e-02, 1.7627e-01, 1.2384e-01, 5.7434e-02, 2.8091e-02, 1.2585e-01,  -9.2224e-02, 7.1960e-02, 2.3117e-02, 7.9346e-02,-6.5430e-02, 6.3293e-02,   1.1581e-02,-6.4026e-02,-3.9185e-02, 1.2537e-01,-8.0139e-02, 6.8604e-02,   5.1544e-02,-1.2195e-01], [-9.5947e-02, 5.1147e-02,-1.1719e-02, 5.2299e-03, 3.3722e-02,-3.3142e-02,  -2.2079e-02, 2.8152e-02,-2.7466e-02, 2.3804e-02,-8.7402e-02,-5.6030e-02,  -8.1055e-02, 2.0935e-02,-2.7603e-02,-6.8237e-02, 1.8051e-02,-9.0088e-02,  -8.5571e-02,-9.4360e-02, 5.3192e-02,-2.1469e-02,-9.6924e-02, 2.1572e-03,  -2.2751e-02,-7.1899e-02, 2.8275e-02,-8.4473e-02,-5.4291e-02, 4.0649e-02,   4.6844e-03, 6.9519e-02,-8.7952e-02, 7.6141e-03, 5.3711e-02, 7.2449e-02,  -6.9397e-02,-6.0822e-02, 2.3972e-02,-4.5197e-02, 3.2135e-02, 1.0918e-02,   2.4689e-02,-2.3941e-02,-3.5980e-02, 7.1716e-02, 7.5623e-02, 4.3701e-02,   7.1838e-02,-8.9050e-02, 6.0760e-02,-9.0332e-02,-9.5764e-02, 1.4397e-02,  -1.0994e-02, 5.0629e-02,-7.0984e-02,-6.4941e-02,-5.4169e-02,-1.5945e-02,   2.7664e-02,-1.0292e-02,-2.6352e-02,-4.3182e-02,-4.4800e-02,-1.7181e-02,   3.6964e-03,-3.0563e-02,-8.8196e-02,-2.8976e-02, 1.2360e-02,-5.6946e-02,   8.4400e-04,-9.5032e-02, 5.0598e-02,-4.1504e-03,-8.4534e-02,-8.0200e-02,   5.2643e-03,-9.1675e-02, 4.5441e-02,-1.9028e-02, 1.1627e-02,-5.2216e-02,   2.8687e-02, 4.0100e-02,-8.2321e-03, 2.5879e-02,-3.8910e-02,-7.2937e-02,  -4.1901e-02,-2.2736e-02,-2.6886e-02,-7.3486e-02, 4.8279e-02,-3.1708e-02,   1.5038e-02,-1.8555e-02,-8.2581e-02,-6.8665e-04,-5.8472e-02,-9.7656e-02,  -9.3445e-02, 1.4290e-02, 5.2094e-02, 1.2581e-02,-8.3374e-02, 7.6172e-02,  -5.7251e-02,-1.0002e-02, 8.2764e-02, 2.9694e-02,-9.2163e-02,-9.8022e-02,  -7.6782e-02,-7.9651e-02,-5.2704e-02,-8.3435e-02,-3.8513e-02, 3.5919e-02,   5.8105e-02, 2.9388e-02, 4.2938e-02,-8.0872e-02,-4.4067e-02,-3.2715e-02,   2.6581e-02, 3.1219e-02], [ 5.3619e-02, 8.2458e-02, 2.5864e-02, 8.5144e-02,-3.0060e-02,-3.4698e-02,   3.2959e-02,-8.1558e-03,-6.4270e-02, 2.2259e-03, 4.4067e-02,-9.3750e-02,   1.0681e-01, 7.1793e-03,-4.7455e-02, 4.2267e-03,-1.1011e-01, 1.0109e-02,   9.2468e-02, 4.5959e-02,-3.4607e-02,-3.9642e-02,-2.6413e-02, 7.9895e-02,   4.9622e-02,-7.2002e-04, 8.7280e-02, 1.1078e-02, 8.2458e-02, 3.1204e-02,   1.7624e-02,-6.8237e-02, 5.0781e-02,-2.7969e-02, 8.4656e-02, 1.4328e-02,  -5.1483e-02,-9.9243e-02, 9.1858e-02, 4.0680e-02,-1.4343e-01, 2.0386e-02,  -1.2749e-02, 4.4281e-02, 8.3191e-02,-3.3173e-02, 4.9988e-02,-2.2141e-02,   6.4697e-02, 4.3091e-02, 5.6641e-02, 1.3367e-01,-7.9102e-02,-5.0201e-02,   9.2590e-02, 3.7781e-02, 4.8981e-02, 1.0675e-01,-7.0618e-02, 4.3060e-02,  -8.9539e-02, 1.0175e-01,-3.3051e-02,-1.4381e-03,-4.2877e-02, 1.1436e-02,   4.9225e-02, 6.9519e-02, 1.4624e-01, 9.8999e-02, 3.2532e-02,-1.3992e-02,   1.3046e-02, 3.2562e-02, 5.9937e-02,-3.1403e-02, 6.3904e-02, 4.8523e-02,   8.5571e-02,-8.4778e-02,-2.2559e-01, 7.0374e-02, 7.8613e-02, 9.3567e-02,  -6.6162e-02, 4.9500e-02,-1.9638e-02,-6.4270e-02, 9.4604e-02, 1.0541e-01,   8.0566e-02, 7.6294e-02, 1.0278e-01, 5.4779e-02,-1.5312e-02,-3.2227e-02,   1.2244e-01,-3.2928e-02, 5.8716e-02,-2.0645e-02,-2.2003e-02,-6.1157e-02,   3.2166e-02, 5.7434e-02,-5.6854e-02, 3.0045e-02,-2.9053e-02,-2.8442e-02,   5.6610e-02, 2.8366e-02, 2.7924e-02, 1.2140e-01, 3.8513e-02,-3.4821e-02,  -3.7155e-03,-1.6388e-02, 6.9214e-02, 2.6733e-02,-3.2501e-02,-2.7115e-02,  -1.5182e-02, 1.5511e-02, 1.5221e-02,-9.2468e-02,-1.9638e-02,-7.8506e-03,  -4.6021e-02,-3.3630e-02], [ 2.5284e-02,-1.6586e-02,-4.0680e-02,-2.2339e-02, 6.7139e-02, 5.1056e-02,   1.0724e-01, 5.8655e-02, 5.8380e-02,-1.9318e-02,-1.8201e-01,-1.7407e-01,   6.2622e-02,-9.3872e-02,-1.0504e-01,-3.5309e-02,-2.8931e-02, 1.0596e-01,   3.6377e-02,-2.6646e-03, 1.0016e-01, 1.2805e-01, 2.2253e-01, 1.2988e-01,   9.6252e-02, 1.8097e-02,-5.6580e-02, 7.1777e-02, 9.1553e-02,-5.1819e-02,  -4.6875e-02,-8.8257e-02,-6.0272e-02, 8.1406e-03, 4.0253e-02, 6.7017e-02,  -1.3953e-01,-2.9633e-02,-3.7903e-02, 1.5100e-01,-1.4099e-01, 1.0330e-02,  -4.7668e-02, 6.7932e-02,-7.9834e-02,-6.5002e-02,-6.7139e-02,-1.3745e-01,   1.4868e-01, 6.0333e-02,-1.1401e-01,-1.0195e-03, 1.6724e-02, 7.3975e-02,  -6.1707e-02,-3.3356e-02, 1.5845e-01,-2.3544e-02, 6.5369e-02, 1.3525e-01,  -1.2390e-01,-2.4750e-02, 9.6741e-02,-3.2997e-04,-1.8115e-01, 3.1708e-02,   1.5045e-02,-5.1941e-02, 5.1819e-02,-2.4002e-02,-7.6027e-03, 6.4545e-03,  -1.3208e-01,-1.4282e-01, 1.3135e-01,-8.1360e-02, 1.3901e-02,-1.1639e-01,   1.4038e-01, 7.2937e-02,-1.1621e-01,-6.1554e-02,-1.4026e-01, 7.0435e-02,   1.2035e-03,-2.3840e-01, 1.3965e-01,-2.5616e-03, 2.9007e-02, 4.5593e-02,   1.0849e-02,-6.3965e-02, 1.1734e-02, 5.0934e-02,-2.0493e-02,-2.3361e-02,  -3.0502e-02,-1.4160e-01, 2.6672e-02, 5.0697e-03,-6.3171e-02, 6.9923e-03,   1.8237e-01, 4.5288e-02,-6.3721e-02, 1.3049e-01,-2.5726e-02,-4.9530e-02,   4.7943e-02,-3.9490e-02, 8.3313e-02, 9.7961e-02, 1.0260e-01, 8.0994e-02,  -1.2744e-01,-4.9347e-02,-1.1249e-01, 1.1224e-01, 4.5898e-02, 3.4454e-02,  -4.7882e-02, 3.7415e-02, 6.0059e-02,-7.1838e-02, 9.4543e-02, 1.5039e-03,   2.3483e-02, 9.6191e-02], [-3.8300e-02,-1.0818e-02,-4.0222e-02,-1.1864e-02,-1.5205e-02,-3.2837e-02,   4.5471e-02,-5.8212e-03, 7.2815e-02,-2.3743e-02,-4.6875e-02,-4.9438e-02,  -4.0680e-02,-1.7380e-02,-1.0565e-01,-6.0760e-02,-1.2070e-02,-2.0752e-02,  -2.4323e-02, 4.9164e-02, 1.2192e-02,-1.4755e-02,-1.0059e-01,-3.6072e-02,  -9.9609e-02,-2.2095e-02, 1.2732e-03, 6.3972e-03,-8.9111e-02,-7.3425e-02,   4.4586e-02,-9.0210e-02, 3.5095e-02,-2.5314e-02, 5.8685e-02, 1.2321e-02,   3.8929e-03,-9.8694e-02, 1.5076e-02, 4.0344e-02, 4.3793e-03,-1.9119e-02,  -5.6549e-02,-7.9773e-02, 1.2749e-02, 5.3406e-02,-9.3994e-02, 4.1382e-02,   5.9906e-02, 6.8665e-02, 3.6957e-02,-4.9164e-02, 4.1290e-02,-1.0443e-01,  -4.6021e-02, 3.8544e-02, 4.9744e-02,-6.8481e-02,-3.4599e-03, 1.0376e-02,  -1.1078e-01, 2.6474e-03,-1.5282e-02,-3.0731e-02,-7.3242e-02,-1.8768e-02,  -1.1635e-03, 2.9739e-02, 5.3925e-02, 4.5624e-02,-1.0022e-01,-9.3140e-02,   4.0741e-02, 1.0818e-02, 3.0975e-03,-1.3609e-03, 5.8868e-02,-7.9224e-02,  -5.8167e-02,-3.0884e-02, 6.2683e-02, 3.0304e-02,-8.5938e-02,-4.4983e-02,  -5.7343e-02,-9.4604e-02, 7.1983e-03, 6.0577e-02, 2.0401e-02,-7.6782e-02,   4.0131e-02,-9.7885e-03,-1.4511e-02,-9.8633e-02,-7.8125e-02,-7.0618e-02,  -6.9702e-02, 2.9480e-02, 2.9404e-02, 5.2521e-02,-1.0614e-01,-1.0620e-01,  -9.0942e-02,-1.5511e-02,-4.9896e-03,-5.7800e-02,-1.4961e-02, 8.2092e-02,   5.4565e-02,-1.0156e-01, 6.8787e-02,-5.7312e-02,-3.1281e-02,-6.3660e-02,   2.0279e-02,-8.1406e-03, 6.2317e-02, 5.5481e-02,-8.2520e-02,-4.0955e-02,  -2.4994e-02,-5.3497e-02,-1.1761e-01,-3.6133e-02,-5.0934e-02, 8.7204e-03,  -5.5084e-02,-1.0114e-01], [ 4.7028e-02, 5.6702e-02,-8.7769e-02, 1.6846e-01, 9.3933e-02,-1.0870e-01,  -3.9398e-02,-6.1035e-03, 7.5378e-02,-1.4137e-02,-1.0040e-01, 7.4402e-02,  -2.8427e-02,-5.1544e-02, 7.8888e-03, 7.6294e-02, 1.0852e-01, 1.6998e-02,   1.3199e-02,-1.3452e-01, 6.1676e-02,-6.6284e-02, 1.1407e-01,-6.1178e-04,  -7.4463e-02,-6.1829e-02,-3.5889e-02,-1.0504e-01, 7.0381e-04,-5.4291e-02,   4.3579e-02,-5.7159e-02,-7.4585e-02,-1.0010e-01,-7.9529e-02, 6.4941e-02,  -1.0042e-03,-2.6138e-02,-5.2032e-02, 4.1901e-02,-1.2915e-01, 4.3243e-02,   3.6377e-02, 2.0599e-02,-1.0239e-02,-9.0576e-02,-9.7733e-03,-1.1713e-01,  -3.8300e-02,-3.9551e-02,-9.7198e-03, 8.7280e-02, 2.3987e-02,-7.0862e-02,  -3.2532e-02,-2.1021e-01, 1.6754e-02,-5.3436e-02, 1.6922e-02,-1.7548e-02,   7.7820e-03, 7.4646e-02, 1.0638e-01,-6.4697e-02, 5.6953e-03, 1.6953e-02,  -1.5845e-01,-8.2779e-03,-6.8550e-03, 3.6041e-02, 1.2108e-02, 3.0041e-04,  -1.4755e-02,-5.3406e-03,-9.8145e-02,-9.4757e-03, 4.0955e-02,-3.1891e-02,  -4.1138e-02,-6.0059e-02, 7.4585e-02, 1.6846e-02,-3.9215e-02, 5.8105e-02,  -4.2572e-02,-1.5100e-01,-3.2074e-02,-1.9627e-03,-5.8044e-02, 2.8900e-02,  -3.6163e-02, 9.9792e-02, 6.8298e-02,-1.2842e-01, 3.3722e-03, 9.4849e-02,  -3.6469e-02,-1.2457e-01, 3.0045e-02, 4.5563e-02,-3.5675e-02,-1.0857e-02,  -5.3009e-02,-6.5125e-02, 1.7303e-02,-2.9190e-02,-3.0609e-02,-7.1899e-02,  -3.1647e-02,-1.8524e-02,-5.2368e-02,-5.4398e-03,-1.6342e-02, 3.1616e-02,  -1.3708e-01, 3.2654e-02, 1.7532e-02,-2.6596e-02,-8.8074e-02,-6.2408e-02,  -2.3956e-02, 4.1992e-02,-1.1908e-01, 7.7515e-02,-2.3285e-02,-8.0078e-02,  -1.4755e-02, 3.9093e-02], [ 3.5065e-02,-3.4714e-03, 3.0945e-02,-6.6711e-02, 4.3243e-02, 7.1228e-02,   2.3209e-02,-1.2329e-02, 5.8594e-02, 1.7365e-02, 3.1342e-02,-3.1097e-02,   2.7573e-02,-3.5797e-02, 4.9042e-02,-2.0035e-02, 3.2593e-02,-4.6051e-02,  -4.1595e-02,-2.3056e-02,-8.2275e-02,-6.1920e-02,-5.3650e-02,-9.2224e-02,   6.4697e-02, 3.0777e-02,-5.3864e-02,-7.6843e-02, 7.3181e-02, 4.3373e-03,   2.1545e-02, 4.8126e-02,-3.0701e-02,-6.5491e-02, 5.0537e-02,-7.7026e-02,   7.1411e-02,-5.5450e-02,-1.0056e-02,-2.7664e-02,-6.3538e-02, 3.4943e-03,  -2.8992e-02,-9.3628e-02, 4.4922e-02, 6.5491e-02, 6.2866e-02, 2.3956e-02,  -1.1383e-02, 3.8300e-02,-3.3722e-02, 1.9188e-03, 4.1534e-02,-4.3365e-02,  -2.4094e-02,-4.0100e-02, 3.9368e-02, 6.3599e-02,-7.6294e-02,-8.3191e-02,   8.5068e-03, 4.9011e-02,-2.6016e-02,-9.6863e-02, 6.9397e-02,-6.6833e-02,   2.1286e-03, 2.7451e-02, 6.1096e-02,-6.6650e-02,-5.2826e-02, 4.0207e-03,  -1.2726e-02, 5.6702e-02, 3.1342e-02, 3.6530e-02,-7.5073e-02,-1.3451e-02,  -1.6174e-02,-4.2938e-02, 3.1921e-02, 3.0502e-02,-4.6692e-02,-3.4851e-02,  -8.3618e-02, 5.1941e-02,-3.5309e-02, 1.9211e-02, 1.7715e-02, 5.5939e-02,  -7.1777e-02,-1.9424e-02,-4.2114e-02, 2.2293e-02, 5.6244e-02,-6.5002e-02,  -6.5491e-02, 2.2369e-02,-9.2163e-02, 2.2400e-02, 4.7577e-02,-3.1311e-02,  -7.8003e-02, 4.3060e-02,-8.7402e-02,-1.0028e-01,-6.4331e-02, 4.8218e-02,  -9.3567e-02,-6.3904e-02, 5.7983e-02,-6.5796e-02,-3.2135e-02,-4.5776e-02,  -4.8462e-02, 3.1158e-02, 1.9623e-02,-4.2358e-02, 5.5481e-02, 1.6937e-02,  -8.3435e-02,-5.5634e-02,-6.8787e-02,-7.3509e-03, 4.9835e-02, 2.5742e-02,  -6.9946e-02, 2.3746e-03], [ 6.5186e-02, 4.4037e-02, 5.1880e-02, 5.1270e-02, 7.1228e-02, 6.8909e-02,   2.8896e-03, 9.4116e-02, 8.5815e-02, 4.9408e-02, 1.3757e-01,-3.9612e-02,   1.2268e-01, 3.3417e-02, 1.5869e-01,-1.9043e-02, 2.9968e-02,-7.2449e-02,   7.0312e-02,-1.1452e-02, 1.1847e-01, 1.1011e-01,-2.0325e-02,-1.5594e-02,   7.1167e-02, 3.8513e-02,-8.8745e-02,-3.2135e-02,-3.8025e-02, 1.9995e-01,  -3.3600e-02, 5.0171e-02, 7.2144e-02, 3.7689e-02,-6.6956e-02,-1.7380e-02,   1.0675e-01,-1.6858e-01,-5.3284e-02,-8.5510e-02,-6.1859e-02, 4.7363e-02,   1.6739e-02, 5.1605e-02, 1.6284e-01,-8.2474e-03,-6.5491e-02, 1.4502e-01,   1.1856e-02,-7.7637e-02,-1.0582e-02, 6.5735e-02,-2.3453e-02,-1.0521e-02,   4.4594e-03, 1.5344e-01, 9.8999e-02, 1.2360e-01, 4.7577e-02, 5.3467e-02,  -1.1115e-01, 7.7515e-02,-2.7313e-02,-1.3863e-02, 1.7065e-01, 7.0801e-02,   8.8318e-02,-7.8430e-02, 6.0791e-02, 8.3618e-02,-9.0103e-03, 1.2006e-01,   8.1665e-02,-7.2266e-02,-4.5990e-02,-2.0279e-02,-2.1228e-01, 1.8872e-01,  -6.9824e-02, 1.0559e-01,-2.9492e-01, 1.3435e-02, 9.4788e-02,-5.2765e-02,  -5.8441e-02, 2.2754e-01,-3.3356e-02,-2.0706e-02, 7.2876e-02, 1.5063e-01,  -3.4119e-02,-3.9185e-02,-1.3184e-02,-3.3844e-02,-4.1565e-02, 1.7017e-01,   9.9426e-02, 9.5276e-02, 1.3062e-01, 1.2878e-01,-4.0131e-02, 1.3257e-01,  -1.5297e-02,-3.6743e-02, 2.1680e-01, 4.0192e-02,-1.2158e-01, 6.1615e-02,   1.1487e-01,-1.9263e-01,-2.7808e-01, 1.5540e-01, 3.8055e-02,-1.2177e-02,   2.2290e-01, 2.6306e-02,-1.0889e-01,-8.0811e-02, 1.4417e-01, 1.9745e-02,  -7.6233e-02, 7.8857e-02,-5.8937e-04,-1.4148e-01,-3.2227e-02, 1.5503e-01,   4.7699e-02, 7.0251e-02], [-8.9844e-02, 3.0624e-02,-8.7341e-02, 1.1490e-02,-9.1553e-02,-9.7168e-02,  -5.7220e-02,-4.7729e-02,-9.2102e-02,-7.8857e-02,-7.4036e-02,-3.4058e-02,  -6.9397e-02,-2.4796e-02, 5.2032e-02,-8.2825e-02, 2.0142e-02,-7.2815e-02,  -9.5886e-02, 4.3884e-02, 5.7770e-02,-8.7280e-02, 5.0392e-03, 4.9011e-02,   9.6512e-03,-3.4332e-02,-7.7698e-02, 8.5297e-03, 5.9326e-02, 9.9640e-03,  -4.0466e-02,-9.7534e-02,-5.7159e-02,-7.1960e-02,-6.7200e-02,-1.8631e-02,   5.4474e-03,-2.8091e-02, 5.3497e-02,-8.6060e-02, 3.5706e-02,-3.3661e-02,  -2.6108e-02, 3.6682e-02,-2.8648e-03,-1.8707e-02,-1.8372e-02,-3.2623e-02,   8.7646e-02,-8.2581e-02, 3.6072e-02,-2.6505e-02,-6.5063e-02,-5.7159e-02,   3.7659e-02, 3.3325e-02,-1.4328e-02,-3.7022e-03, 1.6069e-03,-3.3478e-02,  -5.3925e-02, 6.2103e-03,-5.9776e-03,-9.1980e-02,-5.5603e-02,-3.1647e-02,   3.3020e-02, 4.7188e-03, 8.1543e-02,-5.6381e-03,-8.2275e-02, 4.5715e-02,   6.6895e-02,-5.7678e-02,-3.0380e-02, 4.6234e-02, 2.7985e-02,-8.3801e-02,   7.4890e-02,-4.0466e-02, 1.8326e-02, 7.2021e-02, 5.1605e-02,-7.5867e-02,  -7.4425e-03,-7.8430e-02, 3.8513e-02,-5.3833e-02, 4.6753e-02,-5.1697e-02,  -3.3661e-02, 6.9458e-02, 3.2867e-02,-7.5989e-03,-5.4443e-02,-3.2837e-02,   6.2683e-02,-8.1604e-02,-4.2000e-03, 1.7700e-02,-6.3538e-02,-2.3514e-02,  -4.4128e-02,-6.2675e-03,-7.8674e-02, 1.9989e-02,-5.2063e-02,-5.5786e-02,  -4.0253e-02, 9.0790e-03,-2.8931e-02,-6.5308e-02,-4.9194e-02,-1.3704e-03,  -2.7054e-02, 8.6823e-03,-4.0100e-02, 3.6926e-02,-9.6680e-02, 6.9580e-02,   4.5532e-02,-5.4565e-02, 7.5500e-02, 5.4260e-02,-3.7415e-02,-9.5520e-02,   4.7699e-02,-5.3192e-02], [ 6.9580e-02, 1.2329e-01, 5.7495e-02, 1.0352e-01, 2.8397e-02, 8.1558e-03,   2.2339e-02, 1.8213e-01, 1.1005e-01, 1.0754e-01,-3.2776e-02,-1.3330e-01,   4.6417e-02,-9.0027e-02,-2.8717e-02,-1.6312e-02, 1.0460e-02, 3.1113e-02,   7.9712e-02,-1.1176e-01,-9.9609e-02,-2.7451e-02, 1.9019e-01, 9.4666e-02,  -3.9215e-02, 1.2915e-01,-2.0218e-02, 1.9318e-02,-5.0323e-02, 5.2643e-02,   6.8481e-02,-9.5825e-02, 3.7079e-02, 8.2397e-03, 2.7603e-02,-5.9479e-02,   1.0522e-01, 2.0432e-02,-1.7273e-01, 1.6943e-01,-1.6919e-01, 1.0358e-01,   2.8244e-02,-1.6052e-02, 3.8055e-02, 2.5528e-02,-1.1230e-01, 5.8212e-03,   5.8502e-02, 4.4678e-02,-7.1716e-02,-4.9103e-02, 1.7383e-01,-5.4779e-03,  -2.0935e-02,-2.8488e-02, 5.8716e-02,-5.7190e-02, 2.4765e-02, 7.9346e-02,  -6.7993e-02, 1.9569e-03, 8.2397e-02,-1.2611e-02, 5.6267e-03, 1.8286e-01,   4.8157e-02,-1.1499e-01,-4.8492e-02,-8.4076e-03, 1.0413e-01, 8.1116e-02,  -6.3660e-02,-6.5918e-02, 1.4549e-02, 1.0602e-01,-1.7542e-01, 9.7595e-02,   6.1310e-02, 9.4238e-02,-8.3008e-02,-3.8239e-02, 1.2680e-02, 3.1128e-02,   1.1377e-01,-8.4717e-02,-6.5079e-03,-9.8511e-02, 7.5989e-02, 2.2675e-02,   3.8147e-02, 9.2041e-02, 1.2830e-01,-4.1504e-02, 6.1150e-03, 1.0431e-01,   7.3120e-02, 3.5706e-02, 7.0923e-02,-2.1973e-02, 2.7069e-02, 9.2163e-02,   1.5572e-02,-1.1926e-01, 7.8125e-03, 1.3351e-02,-4.0375e-02, 4.7569e-03,   7.9712e-02,-7.6477e-02,-5.7068e-02,-4.3068e-03, 1.7346e-01, 7.7286e-03,   6.3477e-03,-3.2349e-02,-1.1365e-01, 7.4402e-02, 5.4779e-02, 1.0950e-01,  -6.8237e-02,-4.3488e-03, 6.5308e-02,-9.0820e-02, 1.0217e-01, 9.9365e-02,   8.0200e-02, 1.2598e-01], [-6.8726e-02,-3.0762e-02,-3.6774e-02, 5.5206e-02, 5.0259e-04,-3.2837e-02,   4.3823e-02, 2.5879e-02,-7.2632e-02, 2.4429e-02,-1.6983e-02,-7.2754e-02,  -3.9337e-02,-4.0558e-02,-7.4646e-02, 4.7241e-02,-6.5491e-02, 5.8289e-02,  -2.1255e-02, 7.8430e-02,-6.2744e-02, 4.5052e-03,-1.3596e-02, 1.7654e-02,   1.3237e-02, 2.4246e-02,-8.3252e-02,-4.0527e-02,-8.2764e-02,-1.5427e-02,  -8.8867e-02, 1.5335e-02,-4.7882e-02, 7.7515e-02,-2.7512e-02,-1.2924e-02,  -1.4992e-02, 5.0629e-02,-7.9163e-02,-2.6138e-02,-7.9407e-02,-8.4290e-02,  -3.0869e-02,-4.8126e-02, 6.9153e-02,-7.4585e-02, 1.8951e-02,-7.9773e-02,  -5.3406e-02, 6.7749e-02,-9.2712e-02, 6.4575e-02, 2.2614e-02, 4.9286e-02,  -9.3628e-02, 4.8126e-02, 3.8452e-02,-8.8379e-02, 7.2021e-02,-7.7637e-02,   5.4230e-02,-4.8889e-02,-8.4412e-02,-8.7524e-02,-4.9774e-02, 5.2460e-02,  -5.6122e-02, 5.8563e-02,-6.7749e-02, 2.1118e-02,-9.0515e-02,-1.4618e-02,   5.6458e-02,-7.9773e-02,-1.0236e-01, 4.1473e-02,-7.2205e-02,-7.2388e-02,  -7.5073e-03, 5.4657e-02,-5.6335e-02, 3.1281e-02,-4.0619e-02,-1.2566e-02,   3.4199e-03, 1.8768e-02, 6.5430e-02,-3.1860e-02, 1.0925e-02, 6.6895e-02,   8.6975e-03,-6.8474e-03, 3.7842e-02,-3.3966e-02,-1.6006e-02,-6.1371e-02,  -1.1238e-02, 4.1168e-02, 6.5613e-02,-4.7607e-02,-7.7942e-02,-7.6355e-02,   2.0599e-02, 5.3986e-02, 2.1713e-02,-9.9487e-02, 5.5847e-02,-4.3915e-02,   5.9448e-02,-9.3079e-02, 1.2703e-02, 9.1324e-03,-8.5083e-02,-8.0383e-02,   6.4514e-02, 7.5256e-02,-3.8940e-02,-6.7383e-02, 4.4220e-02,-9.4849e-02,   1.6342e-02,-8.4534e-02, 2.6199e-02, 4.9072e-02, 5.9204e-02,-6.0944e-02,   4.4830e-02,-8.0322e-02], [ 7.5378e-02,-3.8971e-02,-8.4167e-02,-2.6901e-02, 1.4233e-01, 4.1016e-02,   7.0374e-02, 6.0272e-03,-1.5613e-01,-3.9551e-02, 5.2368e-02,-5.6519e-02,   1.7548e-02,-1.2329e-01, 2.2797e-02,-2.2461e-02,-1.1194e-01,-5.0446e-02,   1.1420e-01, 8.5327e-02,-1.7969e-01, 6.4964e-03,-1.2189e-01,-9.1125e-02,   1.0492e-01,-1.0187e-01,-6.2637e-03, 1.1798e-01, 5.5359e-02,-3.0533e-02,   5.9082e-02,-1.5869e-02, 9.8206e-02,-7.4829e-02, 1.0785e-01, 4.1290e-02,  -2.9633e-02,-1.2927e-01,-6.1829e-02, 1.1987e-01,-1.1499e-01, 4.6005e-03,   1.8997e-02, 4.7607e-02,-4.2480e-02, 5.6915e-02,-7.3242e-02, 3.7628e-02,  -1.1459e-02,-7.7881e-02, 5.4169e-02, 1.3171e-01,-1.0254e-01, 2.9221e-02,   7.4341e-02, 3.6621e-02,-1.7670e-02,-9.1675e-02,-1.1940e-03, 5.6410e-04,  -7.0862e-02, 1.0913e-01, 2.9495e-02,-5.7007e-02, 6.6406e-02,-8.9788e-04,   3.7720e-02,-1.5610e-02, 1.9409e-01,-1.2398e-02, 9.2957e-02,-2.5787e-02,  -4.4189e-02,-1.5332e-01, 9.6313e-02, 5.1636e-02,-1.3818e-01, 5.1544e-02,   1.5955e-01, 1.1703e-02,-7.3730e-02,-2.9922e-02, 3.2745e-02, 5.7098e-02,  -3.5431e-02,-6.2439e-02,-2.0294e-02,-5.9784e-02, 5.7800e-02, 1.4319e-01,   5.2223e-03, 1.0864e-01,-1.5175e-02,-5.4352e-02, 2.7679e-02,-1.5820e-01,  -6.9397e-02,-8.1665e-02,-4.6082e-02,-3.2482e-03, 2.6123e-02, 1.1110e-03,  -4.6814e-02,-6.4209e-02,-1.5369e-01,-3.4393e-02, 3.8452e-02, 7.0923e-02,   4.7974e-02,-8.5754e-02,-3.9124e-02,-7.1411e-02, 4.5135e-02,-1.8492e-03,   6.2103e-02,-2.4887e-02, 5.7411e-03, 2.5311e-03,-2.9434e-02,-1.0406e-01,   2.1500e-02,-1.5961e-02, 5.8624e-02,-1.8079e-01, 5.2834e-03,-8.3008e-03,   1.2134e-01,-3.8147e-02], [-4.1046e-02, 5.8746e-02, 6.8054e-03,-7.3120e-02,-4.8950e-02,-4.9477e-03,   4.6692e-03, 2.3849e-02,-1.3709e-06, 5.3711e-03,-7.0679e-02, 1.0620e-02,   6.1737e-02, 6.8359e-02, 2.2217e-02,-9.7900e-02,-4.8157e-02, 1.7502e-02,  -6.2988e-02,-6.3286e-03, 7.9298e-04,-5.1453e-02, 5.0751e-02,-8.6182e-02,  -7.3914e-02,-5.1727e-02, 2.2858e-02, 1.9409e-02, 3.2684e-02, 6.2561e-02,  -4.1626e-02, 2.6054e-03,-7.3318e-03,-4.2877e-02,-5.1208e-02,-3.8391e-02,   5.3375e-02, 4.3396e-02, 5.7800e-02,-8.2581e-02, 5.0995e-02, 1.7990e-02,  -8.9478e-02,-1.0016e-01, 2.5848e-02,-3.0502e-02,-9.2651e-02, 2.9495e-02,  -7.9773e-02,-5.7556e-02,-2.2614e-02, 2.6077e-02,-9.2346e-02, 2.8793e-02,  -3.0823e-02, 7.2693e-02,-3.7262e-02,-1.9836e-03, 4.6387e-02, 7.3242e-02,  -7.6111e-02, 7.0953e-03, 3.7308e-03, 3.0533e-02,-3.2043e-02,-3.9673e-02,  -8.4045e-02, 5.6572e-03,-8.2397e-02,-2.0279e-02, 4.1595e-02,-3.9856e-02,  -7.3914e-02, 6.4636e-02,-4.3915e-02, 1.2558e-02,-1.4107e-02, 2.4887e-02,   1.4511e-02, 1.9211e-02, 8.3374e-02, 3.0075e-02, 4.2114e-02,-1.3626e-02,   2.3773e-02,-7.5012e-02,-6.1340e-02,-4.4067e-02, 4.9835e-02,-5.5328e-02,  -7.8979e-02,-7.2327e-03,-3.6377e-02,-1.9058e-02,-9.2407e-02,-3.3760e-03,  -6.3293e-02, 4.2381e-03, 2.4582e-02,-3.5858e-02,-7.7332e-02,-4.2755e-02,   3.4851e-02,-2.5345e-02, 6.5186e-02,-7.0007e-02, 4.2297e-02,-5.1971e-02,  -2.1545e-02, 3.1586e-02, 2.5101e-03,-1.8860e-02, 5.5298e-02,-5.2765e-02,  -7.9407e-02,-3.7659e-02,-1.1673e-02,-8.0566e-02,-4.4464e-02, 4.9072e-02,   6.4880e-02,-3.9337e-02, 2.3865e-02,-4.8950e-02,-8.0795e-03,-1.0095e-01,   5.0995e-02,-2.3193e-02], [-7.0862e-02,-3.4241e-02, 2.5616e-03, 1.0577e-01, 6.3477e-02, 3.2074e-02,  -2.3819e-02,-1.0742e-02, 1.2598e-01,-6.5979e-02,-8.0824e-05, 8.8013e-02,   5.4169e-02, 8.1253e-03,-8.6136e-03, 1.3878e-02, 7.5134e-02,-1.1856e-02,   1.1285e-01, 6.3904e-02,-1.1871e-01,-1.2396e-01, 3.0167e-02,-4.6478e-02,  -1.1072e-01, 3.5004e-02,-3.2166e-02,-6.6895e-02, 2.0361e-01, 6.7871e-02,   4.6021e-02, 1.0443e-01, 1.7548e-02,-4.2908e-02,-1.4648e-02, 8.0872e-02,   2.2697e-03,-2.3331e-02, 7.7698e-02, 2.9968e-02, 9.5154e-02,-6.4209e-02,  -2.8107e-02, 8.5754e-02,-9.9792e-02, 4.9072e-02, 1.5234e-01,-1.0565e-01,   7.0915e-03, 3.0853e-02, 1.0608e-01, 8.0200e-02, 1.3757e-01, 7.4097e-02,  -2.5284e-02,-4.6143e-02, 6.4941e-02, 3.9948e-02,-7.6782e-02, 4.2877e-02,   6.6589e-02,-2.5421e-02, 9.4482e-02, 2.8183e-02, 9.3811e-02,-1.2427e-01,  -7.4081e-03,-2.9633e-02, 8.2642e-02, 1.4442e-02,-7.5012e-02,-7.7698e-02,   4.8004e-02, 9.6741e-02,-7.1167e-02, 3.0029e-02, 7.5806e-02,-9.0515e-02,   1.3354e-01, 2.4628e-02, 1.2006e-01,-2.1286e-02,-8.6121e-02,-5.0171e-02,   9.5825e-02,-1.7505e-01, 3.2715e-02,-6.6833e-03,-4.2908e-02,-6.2012e-02,   3.2806e-02, 8.6548e-02, 5.6519e-02, 9.2285e-02,-8.5876e-02,-7.1472e-02,   3.4668e-02,-1.2103e-01,-1.4941e-01,-1.1603e-01,-5.9906e-02, 1.4486e-03,   1.3962e-03, 2.4689e-02, 8.4412e-02,-2.0203e-02,-1.8494e-02,-5.7709e-02,  -3.8696e-02, 3.2013e-02, 7.9102e-02, 1.3586e-01,-9.4971e-02, 5.7373e-03,  -6.2622e-02, 7.0190e-02, 5.5176e-02, 1.5503e-01,-8.7524e-02, 7.0557e-02,  -5.6610e-02,-3.6499e-02, 1.4162e-03, 9.6985e-02, 7.8186e-02, 2.1332e-02,  -7.2266e-02,-9.9060e-02], [-9.8724e-03,-1.2383e-02,-8.9188e-03, 2.8748e-02, 8.1360e-02, 3.3234e-02,   4.9706e-03,-2.0203e-02, 1.5149e-01, 6.3965e-02, 1.0577e-01,-2.7878e-02,   2.8763e-02, 5.3101e-02, 1.0187e-01,-3.8879e-02,-4.9896e-02,-1.2985e-02,   3.4637e-02,-1.1646e-01,-9.1858e-02, 5.6305e-02, 1.1688e-01, 1.4111e-01,   9.6191e-02, 2.8656e-02, 3.7201e-02, 5.9395e-03, 1.8103e-01, 1.8164e-01,   3.5706e-02, 2.0493e-02,-3.2867e-02, 4.2763e-03,-4.2610e-03, 3.8208e-02,   1.0864e-01,-5.5634e-02,-1.0944e-01, 1.4294e-01,-2.0752e-01, 1.6846e-02,   2.8687e-02, 9.3567e-02, 3.3844e-02, 1.0742e-02,-1.2976e-01, 1.7419e-01,   4.0314e-02, 3.3173e-02, 5.2673e-02,-1.6022e-02, 8.2214e-02, 1.7395e-02,  -5.4169e-02, 2.3193e-02,-5.6610e-03,-8.6243e-02, 2.7863e-02, 1.1786e-01,  -7.6355e-02,-3.0685e-02, 1.1053e-01,-5.1758e-02, 8.4229e-02, 3.5248e-02,  -7.6172e-02,-9.1919e-02, 1.8015e-03,-4.4556e-02,-9.2316e-03,-1.5678e-03,   8.3191e-02,-8.9661e-02, 6.4087e-02,-3.9711e-03,-4.0344e-02,-8.1421e-02,   4.7638e-02, 7.0007e-02,-2.4146e-01, 1.4172e-01, 8.4656e-02, 8.0383e-02,   1.0632e-01,-7.8735e-02, 1.1798e-01, 5.0316e-03, 1.0614e-01,-4.9438e-03,  -8.5388e-02, 2.1698e-02,-3.8086e-02, 8.8623e-02, 1.1877e-01, 1.2964e-01,  -1.7639e-02,-8.8654e-03,-3.2715e-02,-6.2439e-02, 7.3914e-02,-9.8267e-03,   7.8918e-02, 2.4567e-02, 1.0474e-01,-2.1362e-02,-2.6550e-02,-5.8075e-02,   3.0853e-02,-1.8896e-01,-9.1248e-02, 5.1697e-02,-7.2083e-02, 6.2988e-02,  -7.5256e-02, 1.3931e-02,-7.3730e-02, 1.2512e-01,-4.8584e-02,-3.9825e-02,   3.4302e-02, 2.2232e-02, 1.0510e-01,-2.4585e-01, 2.2232e-02, 8.1604e-02,   2.0828e-02, 1.1066e-01], [ 4.7821e-02, 1.5222e-01, 8.4595e-02, 3.2623e-02, 9.2468e-02, 3.1204e-02,   1.0144e-01, 4.1290e-02, 5.0903e-02,-5.0049e-02, 6.3782e-02, 1.7249e-01,   1.3206e-02, 1.0462e-03, 1.0333e-01,-2.3666e-02, 1.3232e-01, 1.3420e-02,   6.7139e-02, 1.2512e-01,-6.3782e-02,-2.0126e-02, 1.0681e-02, 5.4932e-02,  -6.9946e-02,-4.6173e-02, 1.5541e-02,-5.7526e-03,-8.8806e-02,-6.8970e-03,  -6.8787e-02, 1.9014e-05, 8.7341e-02, 1.0657e-01, 1.1029e-01, 2.8656e-02,  -8.0338e-03, 1.5295e-01, 1.3342e-01, 1.0541e-01, 1.0272e-01, 7.4402e-02,   4.4632e-03, 5.1727e-02, 8.0811e-02, 8.6136e-03, 1.8127e-01,-1.1517e-01,   9.6924e-02, 1.1865e-01, 2.3727e-02, 7.2388e-02,-3.9490e-02, 7.0114e-03,   3.8147e-03, 7.6904e-03,-1.5884e-02, 1.5637e-01,-1.0223e-02, 1.1909e-02,   4.6814e-02, 1.1084e-01, 7.2083e-02, 4.8248e-02,-5.8441e-02, 1.1163e-01,  -2.7054e-02, 5.8441e-02,-4.9866e-02, 5.9265e-02,-5.0751e-02, 1.6272e-01,   8.6548e-02, 1.2524e-01, 9.5886e-02,-4.6631e-02, 2.1973e-01,-2.1835e-02,  -2.0569e-02, 1.7881e-03, 2.7051e-01, 5.1819e-02, 1.3049e-01, 1.0742e-01,   3.0365e-02,-3.1158e-02, 2.9953e-02, 9.9976e-02, 1.0022e-01, 2.8152e-02,  -4.3854e-02, 3.5782e-03, 1.1011e-01, 8.1360e-02,-1.3359e-02,-2.8549e-02,   6.4453e-02, 6.3416e-02,-5.3223e-02, 3.7292e-02, 8.0872e-04, 5.0751e-02,  -1.4229e-03,-3.4363e-02,-9.0637e-03,-3.4424e-02, 2.0752e-03,-6.4240e-03,   1.1005e-01, 2.2327e-01, 1.0565e-01,-8.6426e-02, 1.0840e-01, 6.4819e-02,   1.6064e-01, 2.3285e-02, 1.8225e-01,-2.5833e-02, 7.0374e-02, 7.2693e-02,   4.1389e-04,-1.9455e-02,-7.7148e-02, 1.5039e-01, 9.7778e-02, 5.7861e-02,   4.4495e-02, 9.1309e-02], [-7.4646e-02, 6.7688e-02,-1.9867e-02, 6.8176e-02, 7.3059e-02,-4.5013e-03,  -9.0271e-02,-1.3725e-02,-5.4077e-02,-3.1372e-02,-2.0020e-02, 4.1077e-02,  -3.1643e-03,-4.0527e-02,-1.0452e-03, 2.8915e-02,-8.9722e-03, 4.9408e-02,   1.8356e-02,-5.7526e-02, 1.9485e-02, 6.3782e-02,-4.8096e-02,-7.6782e-02,  -8.8928e-02,-1.1124e-02, 8.4717e-02,-1.5282e-02, 5.0171e-02, 3.3508e-02,   1.4885e-02,-9.0881e-02,-7.3303e-02, 7.1228e-02, 2.4261e-02, 1.5230e-03,   7.8064e-02, 2.0416e-02,-1.2451e-02, 2.5482e-02, 5.0293e-02,-8.6243e-02,  -2.0706e-02, 7.3303e-02, 3.2990e-02,-1.1856e-02,-8.7646e-02, 4.5868e-02,  -7.1350e-02,-6.3965e-02, 1.7166e-02,-6.0059e-02, 7.0435e-02,-6.5186e-02,  -2.2125e-02,-6.5613e-02,-4.3488e-02,-8.6670e-02,-2.8870e-02, 4.8523e-03,  -4.7272e-02, 7.7705e-03,-1.4595e-02,-9.6893e-03,-5.0842e-02,-6.2439e-02,  -1.1501e-03,-7.8918e-02, 1.3695e-02, 3.3307e-04,-3.2776e-02, 8.3679e-02,  -2.4551e-02, 5.8167e-02,-4.0245e-03, 2.0493e-02,-1.7960e-02, 6.3171e-02,   4.6295e-02,-4.3549e-02, 9.6970e-03,-8.9233e-02,-6.4514e-02, 2.2079e-02,   6.3660e-02,-5.0934e-02,-6.4941e-02,-8.3542e-04, 2.8473e-02,-8.5632e-02,   7.2021e-02,-2.0157e-02,-2.4567e-02,-2.2476e-02, 3.7292e-02, 6.6772e-02,   8.8806e-03, 5.8655e-02, 4.7226e-03,-1.0765e-02, 8.1299e-02,-9.4727e-02,  -4.8370e-02,-3.2593e-02,-6.7566e-02,-8.4717e-02,-1.0345e-02,-1.3504e-02,  -1.2856e-02,-3.5065e-02, 8.8257e-02,-4.7882e-02,-8.3252e-02, 4.1656e-02,  -1.8021e-02,-1.9653e-02,-1.2016e-02, 2.8076e-02, 1.4366e-02, 3.6743e-02,  -4.7577e-02,-5.2795e-02, 3.5572e-03, 2.4200e-02,-1.2596e-02, 2.0645e-02,   3.2043e-02,-6.9153e-02], [-9.7839e-02, 2.8992e-02,-5.2643e-03, 1.0522e-01,-5.4047e-02,-5.9113e-02,   5.2460e-02, 4.3274e-02, 2.4033e-02, 2.0752e-02,-1.7227e-02, 2.4194e-01,   5.7098e-02, 1.2610e-01,-8.2153e-02, 1.4185e-01, 1.6968e-01, 5.5328e-02,  -9.2621e-03,-2.9541e-02,-6.4392e-02, 6.9580e-02, 1.9812e-01, 7.2144e-02,  -1.0638e-01, 3.4790e-02, 1.2402e-01,-1.0919e-01,-1.4624e-01, 6.4270e-02,   5.0415e-02, 6.1707e-02,-5.1788e-02, 7.2083e-02,-1.6495e-02,-1.3062e-02,   1.1951e-01, 1.2769e-01, 1.1884e-01,-9.5825e-02, 1.5649e-01, 1.8311e-01,  -1.0155e-02,-8.7280e-02, 5.4291e-02, 3.7140e-02, 2.9907e-01, 2.7893e-02,  -5.4077e-02, 1.9031e-01, 7.7087e-02,-4.4586e-02, 1.8042e-01, 6.8054e-02,   3.8116e-02,-9.4666e-02,-3.7537e-02, 7.7454e-02, 6.9763e-02,-1.0986e-01,   1.8640e-01,-6.3538e-02, 1.3525e-01, 1.7615e-01,-3.3997e-02,-2.9892e-02,   6.3782e-02, 1.5515e-01,-1.8701e-01, 6.4392e-02,-3.8300e-02, 1.4307e-01,   4.9194e-02, 1.3293e-01,-8.1543e-02, 3.4828e-03, 1.5186e-01, 5.6000e-03,  -1.4624e-01, 1.7566e-01, 2.1704e-01, 3.0701e-02, 5.5962e-03, 6.2469e-02,   8.5144e-02, 2.8366e-02,-8.0872e-02, 1.5686e-02, 9.6970e-03,-5.3375e-02,  -1.4626e-02,-1.5979e-01,-3.7384e-02,-9.8953e-03, 8.1726e-02, 2.1619e-01,   1.2469e-01, 2.5894e-02, 2.1851e-02,-1.6815e-02, 2.4109e-02, 1.3074e-01,   4.8256e-03, 1.6052e-01, 2.2839e-01,-2.8687e-02, 1.3062e-01, 5.1331e-02,  -2.0706e-02, 1.4209e-01, 2.1375e-01,-2.3743e-02, 9.1248e-02, 5.2582e-02,   7.3669e-02, 3.2135e-02, 2.1942e-02,-2.2021e-01,-1.4709e-02, 6.1584e-02,   1.4229e-02, 9.0515e-02,-8.8989e-02, 1.4917e-01,-1.4233e-01, 6.0425e-02,  -1.4990e-01,-7.9712e-02], [-7.1960e-02,-6.1920e-02, 6.0303e-02, 7.1350e-02,-2.9800e-02,-1.6129e-02,   5.1025e-02,-9.1934e-03,-6.5063e-02, 3.6713e-02,-8.7891e-03,-3.8239e-02,  -4.1412e-02,-3.6652e-02,-3.3875e-02,-1.7090e-02,-9.4604e-02, 1.8707e-02,  -5.8350e-02,-9.3628e-02, 6.8665e-02, 1.4580e-02,-1.2054e-02,-1.7746e-02,  -3.3569e-02,-4.9103e-02, 3.8147e-02, 1.7487e-02,-2.6810e-02,-9.0210e-02,   4.6570e-02, 1.1749e-03,-6.2256e-02, 4.8126e-02,-5.3558e-02,-8.1177e-02,   4.4220e-02,-4.7791e-02,-5.8960e-02,-5.9570e-02, 6.6040e-02, 6.5430e-02,  -9.2712e-02,-4.7607e-02,-6.7200e-02,-9.4788e-02,-1.8021e-02, 1.3176e-02,   1.3741e-02,-4.0100e-02, 5.7892e-02,-6.7444e-02,-6.4392e-02, 7.4951e-02,  -7.2403e-03,-1.8387e-02, 1.6594e-03,-7.7820e-02,-6.1066e-02, 5.9906e-02,  -6.1218e-02,-9.3872e-02,-2.1378e-02,-5.4779e-02, 7.1960e-02,-3.3203e-02,   1.5266e-02, 6.8359e-02,-9.6436e-03,-1.7476e-04,-6.7810e-02,-5.9631e-02,  -1.1276e-02,-2.1332e-02, 3.0869e-02, 5.3070e-02,-4.9042e-02, 4.6173e-02,   3.6713e-02, 2.8229e-03, 5.2216e-02,-8.9111e-02, 6.7871e-02, 9.6817e-03,  -1.4648e-02, 5.8380e-02, 4.6967e-02, 3.6926e-02,-8.5754e-02, 1.4870e-02,  -2.9846e-02,-4.9133e-02,-7.0679e-02, 3.9062e-02, 8.5754e-03, 3.2898e-02,  -5.6305e-02,-4.2023e-02, 6.4621e-03, 2.1362e-02, 2.1194e-02,-7.1411e-02,   6.8726e-02,-9.7351e-02, 3.6346e-02,-1.5205e-02, 4.8737e-02,-8.8318e-02,   3.9551e-02,-9.4910e-02,-5.4749e-02, 4.8920e-02,-8.2153e-02,-6.2561e-02,  -5.0232e-02,-1.7639e-02, 5.8350e-02, 2.5528e-02,-3.1281e-02, 3.0075e-02,  -1.8600e-02,-4.9500e-02,-3.9185e-02,-4.6043e-03,-5.1819e-02,-7.3425e-02,   5.6610e-02,-7.6660e-02], [ 1.9638e-02,-9.5642e-02, 4.9988e-02, 7.0679e-02,-9.2285e-02, 1.9485e-02,   2.5269e-02,-3.3661e-02, 6.3477e-02,-2.1072e-02,-7.3671e-04, 5.3986e-02,  -5.1636e-02, 6.1859e-02,-1.5421e-03, 1.1917e-02,-6.8420e-02,-5.3223e-02,   7.2693e-02,-2.0645e-02,-8.4045e-02, 2.9831e-02,-7.1960e-02,-4.9988e-02,  -6.5369e-02, 7.5684e-03, 6.8542e-02,-8.7585e-02,-7.1960e-02, 3.0090e-02,  -4.7150e-02, 9.1095e-03,-6.1310e-02,-9.1064e-02, 6.7078e-02, 1.2215e-02,   2.4185e-02,-2.7130e-02,-8.8196e-02,-5.5176e-02,-1.0147e-02,-7.9956e-02,   6.1951e-02,-5.8632e-03,-7.9529e-02, 1.1864e-02, 3.1948e-03,-6.7749e-02,  -4.7455e-02, 7.0923e-02,-5.8014e-02, 5.9967e-02,-7.1350e-02, 4.7211e-02,   1.4992e-02, 1.1215e-03,-4.3121e-02, 2.8625e-02, 1.8845e-02,-1.0941e-02,  -3.7079e-02,-1.1940e-02,-8.2932e-03, 1.9882e-02, 7.6538e-02, 6.5979e-02,  -2.3117e-02, 7.6660e-02, 8.0933e-02,-2.6428e-02,-9.0210e-02, 2.9099e-02,  -7.5867e-02,-7.1594e-02,-7.7271e-02,-4.3884e-02,-1.6739e-02, 6.5674e-02,  -3.5217e-02,-3.4058e-02,-2.2903e-02, 4.0558e-02, 8.0383e-02, 6.7444e-02,  -7.5256e-02,-4.9683e-02,-5.5908e-02, 1.7654e-02,-7.1533e-02, 5.1025e-02,   3.0563e-02,-4.0558e-02, 6.6528e-02,-3.1219e-02, 6.4575e-02, 5.8632e-03,   6.2225e-02,-3.7231e-02, 4.9973e-03, 3.1235e-02,-2.2522e-02,-9.1492e-02,   7.0251e-02,-1.6785e-02,-6.7139e-02,-8.1116e-02,-8.1177e-02, 8.4351e-02,  -4.0619e-02,-5.9479e-02, 1.2611e-02, 3.2867e-02, 2.6276e-02, 2.6703e-02,  -1.6342e-02, 7.9102e-02,-4.6143e-02, 8.3130e-02, 6.4148e-02,-5.7434e-02,   2.0142e-02,-1.2732e-04, 4.8676e-02,-7.7942e-02, 5.3284e-02, 3.3264e-02,  -2.6978e-02,-1.7075e-02], [ 1.0455e-01,-5.6343e-03,-9.7809e-03, 5.5664e-02, 1.5884e-02,-3.3386e-02,  -5.6854e-02, 1.1627e-01, 5.7709e-02, 8.8989e-02,-3.1097e-02,-1.5491e-01,   1.1005e-01,-1.3428e-01, 9.0790e-03,-3.8483e-02, 6.8176e-02, 8.9478e-02,   1.5823e-02,-2.6688e-02,-5.8197e-02, 8.7814e-03, 6.1554e-02,-3.5004e-02,   5.9875e-02, 3.9764e-02,-6.8542e-02, 5.8075e-02,-7.0984e-02, 6.2256e-02,   1.0974e-01,-8.6823e-03, 5.9204e-02, 5.8624e-02,-6.2073e-02, 6.4819e-02,   6.7566e-02, 2.2797e-02,-3.5675e-02, 3.4393e-02,-9.6741e-02, 4.6509e-02,   9.4238e-02, 9.4116e-02, 8.4473e-02, 9.6741e-02,-5.5328e-02, 1.1487e-01,   1.4221e-01,-5.3772e-02,-7.9956e-02, 6.1127e-02,-5.6366e-02,-8.1299e-02,  -4.1046e-02,-3.8185e-03, 4.7363e-02,-2.1469e-02,-6.3232e-02, 6.0516e-02,  -4.8462e-02,-2.6436e-03, 1.2299e-02,-7.4890e-02,-6.2866e-02, 9.2957e-02,   3.2532e-02,-4.7333e-02, 7.8613e-02, 3.8452e-03, 3.0441e-02, 1.0773e-02,   7.4158e-02,-1.4618e-02, 1.4473e-02, 9.9335e-03,-7.0007e-02, 4.1229e-02,   3.7262e-02, 1.1017e-02,-8.9539e-02, 9.0271e-02, 2.4994e-02, 7.4219e-02,  -1.7853e-02,-1.3046e-02,-1.2856e-02,-9.6436e-02,-2.6306e-02, 1.1279e-01,   8.1421e-02, 1.1615e-01,-4.3549e-02,-7.9285e-02,-1.0986e-02, 2.0844e-02,  -1.7944e-02, 5.4291e-02, 6.5575e-03, 9.1064e-02,-3.5065e-02,-6.0638e-02,  -8.4839e-02,-2.9388e-02, 5.1666e-02, 1.2231e-01,-8.5205e-02,-2.3605e-02,   7.9041e-02, 1.8112e-02, 8.8272e-03,-4.5441e-02, 1.0046e-01,-2.0020e-02,  -5.1331e-02,-8.8928e-02,-9.0149e-02, 1.2988e-01, 9.8633e-02, 7.1754e-03,   5.9784e-02, 8.0322e-02,-7.4707e-02,-1.7236e-01, 5.9204e-02,-5.1193e-03,   5.3253e-02,-1.5793e-02], [-5.0049e-02, 3.4058e-02,-4.3091e-02, 1.7126e-01,-4.0039e-02,-4.7791e-02,   6.6711e-02, 8.1848e-02, 5.4779e-02,-2.6016e-03, 2.6520e-02,-1.8530e-01,   9.8419e-03,-7.6538e-02, 1.8244e-03, 6.0150e-02, 5.8929e-02, 9.9854e-02,   9.6817e-03, 6.2523e-03, 5.2856e-02, 8.2581e-02,-1.3781e-03,-5.0446e-02,   4.3610e-02, 3.9185e-02, 8.0994e-02, 5.8289e-02, 4.4708e-02, 1.1365e-01,   1.0931e-01,-3.1174e-02, 7.3181e-02, 2.2812e-03, 5.3436e-02, 2.6459e-02,  -1.1246e-02, 8.0872e-02,-4.0710e-02, 7.3547e-02,-1.6821e-01,-3.9948e-02,  -3.9749e-03, 4.0466e-02,-6.3416e-02,-1.2695e-02,-1.2866e-01, 2.6779e-03,   1.1487e-01, 2.2217e-02,-6.2927e-02, 1.5930e-01, 1.1737e-01, 4.3732e-02,  -3.0441e-02, 1.6693e-02,-3.8028e-05, 1.0156e-01, 4.2969e-02, 4.2908e-02,  -2.8687e-02, 8.9600e-02, 1.1853e-01,-6.8703e-03, 1.1909e-02, 1.0535e-01,   1.2390e-02, 1.8372e-02,-4.0009e-02, 1.0315e-01, 6.2683e-02, 8.0444e-02,   4.7638e-02,-5.0232e-02, 2.0386e-02, 7.7271e-02, 5.7983e-02, 1.5823e-02,  -6.7566e-02,-5.9021e-02,-2.1729e-01, 4.1046e-02, 3.1342e-02,-3.2013e-02,   6.8970e-02, 1.2756e-01,-9.4528e-03, 6.3843e-02, 9.4177e-02, 1.5411e-02,   3.0579e-02, 4.4403e-02, 8.3008e-02, 9.6741e-02,-9.1125e-02,-6.4758e-02,   8.8806e-02, 1.6525e-02, 6.5613e-02,-4.5624e-02, 5.9387e-02, 4.1504e-02,   1.0674e-02,-4.1199e-02, 6.9580e-02, 1.5900e-02,-6.2317e-02,-2.5803e-02,  -5.4565e-02,-7.1533e-02, 1.2646e-01,-7.7095e-03, 9.9487e-02, 2.9221e-02,   9.1736e-02, 2.8717e-02, 9.6741e-02, 5.9479e-02,-3.1311e-02,-6.1127e-02,   1.0674e-02,-9.4177e-02, 6.4209e-02,-2.1582e-01, 1.0388e-01, 3.5492e-02,   3.3417e-02,-6.1676e-02], [-3.0823e-03, 8.7158e-02, 3.3722e-02,-3.3844e-02, 3.8818e-02,-8.2886e-02,  -1.9241e-02,-2.2552e-02, 5.8105e-02,-6.0272e-02,-2.1881e-02, 4.0466e-02,   5.8441e-02,-6.3820e-03,-1.4542e-02,-6.8115e-02, 2.8717e-02,-9.3933e-02,  -2.2263e-02, 6.9092e-02,-1.4143e-03,-5.5084e-02,-1.1854e-03, 6.3477e-02,   2.2034e-02,-6.6406e-02, 4.9530e-02,-8.6670e-02,-3.4504e-03, 2.1484e-02,  -9.2712e-02,-2.0126e-02,-5.6213e-02, 7.6172e-02,-3.8666e-02,-5.5878e-02,  -6.0577e-02,-5.2582e-02,-3.6652e-02, 2.8610e-02, 3.6682e-02,-6.2164e-02,  -1.0205e-01,-2.7481e-02,-4.5288e-02,-1.2955e-02,-5.9998e-02, 6.7078e-02,  -1.6891e-02,-4.3701e-02, 4.5685e-02,-9.0027e-02,-5.2948e-02,-7.6965e-02,  -1.3870e-02, 1.7853e-02,-8.0933e-02,-1.8707e-02,-7.8308e-02,-4.5746e-02,  -1.2741e-02, 5.6519e-02,-4.6310e-03,-1.0443e-01,-1.0147e-02, 3.4332e-02,  -6.1890e-02, 3.6163e-02,-3.8330e-02,-9.1095e-03,-3.1921e-02, 4.4037e-02,  -9.0454e-02, 5.2429e-02, 5.3467e-02, 3.3691e-02, 2.4429e-02,-8.5632e-02,  -6.0181e-02,-1.5701e-02, 4.0894e-02,-6.5491e-02, 6.4819e-02,-3.2349e-02,  -7.2876e-02, 3.8483e-02, 2.4521e-02, 2.5055e-02,-5.8655e-02,-5.3772e-02,   1.5701e-02, 1.0117e-02,-8.2642e-02,-4.8615e-02,-4.0527e-02, 4.5044e-02,  -8.8013e-02, 5.3162e-02, 7.6599e-02,-8.3374e-02, 7.9407e-02, 6.9962e-03,  -6.3049e-02, 9.5892e-04,-7.3059e-02,-6.6040e-02,-7.7087e-02, 3.6041e-02,   2.1835e-02,-6.4697e-02,-3.6411e-03, 3.6255e-02,-9.3079e-02, 3.3783e-02,  -8.1665e-02, 4.2450e-02, 2.1591e-02, 8.2275e-02, 5.6244e-02,-5.4413e-02,   1.1368e-02,-4.9316e-02, 2.2415e-02,-7.2083e-02,-6.1798e-02, 5.9891e-03,  -9.8999e-02, 1.4931e-02], [ 6.2866e-02, 6.2500e-02,-7.7393e-02,-9.0210e-02,-6.6528e-02, 5.6610e-02,   5.6671e-02,-1.2161e-02, 1.7365e-02,-9.1431e-02, 6.2073e-02,-8.4229e-02,  -1.0510e-01, 2.7985e-02,-7.9529e-02,-4.1626e-02, 4.4495e-02,-7.5569e-03,   5.5359e-02, 6.8787e-02,-3.3203e-02,-1.0492e-01, 4.3945e-02, 1.8433e-02,  -9.8999e-02,-8.5678e-03, 1.2276e-02,-8.8882e-03,-7.3547e-02, 1.7990e-02,  -4.9164e-02,-5.8411e-02, 1.8555e-02, 6.3599e-02,-8.7463e-02,-7.6965e-02,  -4.1595e-02,-7.7576e-02,-8.5815e-02,-8.0322e-02, 6.8115e-02, 3.8727e-02,   2.4521e-02,-2.6455e-03,-2.1408e-02,-7.2021e-03, 8.6975e-02,-1.2238e-02,  -6.8298e-02, 1.7838e-02,-1.5289e-02, 1.2138e-02, 1.5388e-02,-9.6680e-02,  -3.3112e-02, 5.9319e-03,-9.8877e-03,-8.7585e-02,-1.7303e-02, 2.1973e-02,  -2.8610e-02, 6.0883e-02,-1.2871e-02,-2.5726e-02, 3.7018e-02,-3.3386e-02,   6.8176e-02, 3.9154e-02,-4.7089e-02,-9.6680e-02,-9.5703e-02, 3.4180e-02,  -7.4524e-02,-2.7664e-02,-6.5796e-02,-7.0129e-02,-7.8918e-02, 4.5532e-02,   3.0396e-02, 4.2847e-02,-6.9946e-02, 6.2073e-02,-2.5787e-02,-1.7334e-02,   7.9422e-03,-3.4760e-02, 3.0106e-02, 2.4445e-02,-8.5449e-03,-4.7821e-02,  -7.4219e-02,-3.7567e-02,-1.0333e-01, 3.2501e-02,-1.9012e-02, 4.2084e-02,  -6.1615e-02, 5.7129e-02,-4.1229e-02,-6.7932e-02, 3.6072e-02,-1.7654e-02,   3.1624e-03,-9.7778e-02,-6.9946e-02,-5.2094e-02, 8.6517e-03,-1.1070e-02,   5.5084e-03,-5.3345e-02,-5.8350e-02,-6.7383e-02,-8.0566e-02,-2.7054e-02,   5.7251e-02, 3.1235e-02, 1.5617e-02, 4.0192e-02,-8.7036e-02, 1.3725e-02,   7.1777e-02,-3.9612e-02, 3.4760e-02, 5.7831e-02, 2.2369e-02, 2.3422e-02,   1.8005e-02, 3.5492e-02], [ 1.7796e-03,-9.6741e-03,-4.2267e-02, 6.7139e-02,-5.8411e-02,-4.7333e-02,   3.5004e-02, 1.6586e-02,-4.4708e-02,-2.0706e-02,-1.5274e-02,-3.8422e-02,  -3.0853e-02, 6.9214e-02,-1.7380e-02,-3.5095e-02, 5.7190e-02, 4.7821e-02,  -8.3374e-02, 6.6589e-02, 5.4260e-02, 5.9753e-02, 8.6182e-02,-7.0312e-02,  -1.8677e-02,-8.6609e-02, 1.1246e-02,-3.7750e-02,-5.7907e-03,-2.2797e-02,  -3.8544e-02,-5.7373e-03, 4.7699e-02,-2.9316e-03,-1.0553e-01,-3.9246e-02,   6.1646e-02, 2.4399e-02,-2.5482e-02, 5.9357e-02, 9.9258e-03, 2.8107e-02,  -2.0782e-02, 2.1324e-03,-3.7014e-05,-2.8290e-02,-2.7679e-02,-2.6993e-02,  -1.2121e-03,-4.5654e-02, 2.1133e-02,-5.3406e-03, 1.7120e-02,-4.8920e-02,   1.5059e-03, 7.1594e-02,-1.9226e-02,-5.8479e-03, 2.0996e-02,-5.1453e-02,  -2.4918e-02,-3.7628e-02,-1.8448e-02,-7.5439e-02, 3.2288e-02, 5.1147e-02,   7.5912e-03, 1.5244e-02,-2.5467e-02, 8.1711e-03,-3.1403e-02, 2.1729e-02,  -1.0364e-01, 5.6549e-02, 7.4005e-03,-1.0492e-01,-1.0168e-01, 4.4067e-02,  -7.8308e-02, 6.0303e-02, 2.3529e-02,-1.6449e-02,-2.8412e-02,-1.1818e-02,   4.2114e-02,-5.9143e-02,-1.0394e-01,-6.5002e-02,-8.4106e-02,-3.0106e-02,  -8.3008e-02,-6.5369e-02,-4.6265e-02,-4.8859e-02,-9.4223e-03,-4.7180e-02,   1.0719e-02,-1.2459e-02, 5.7587e-02, 1.1244e-03, 2.8381e-02,-1.0040e-01,   3.0579e-02, 6.8130e-03,-2.7027e-03,-6.5674e-02, 4.6661e-02,-6.0822e-02,  -2.6810e-02,-1.4746e-04,-7.1167e-02,-3.5126e-02, 5.5969e-02,-2.2095e-02,  -8.2581e-02, 6.4209e-02,-5.5389e-02,-8.7097e-02,-5.6458e-02,-9.9548e-02,   6.6895e-02, 6.9397e-02,-7.1228e-02,-7.8735e-02,-6.5796e-02,-6.9885e-02,  -1.7365e-02,-4.9477e-03], [-5.3345e-02, 1.7136e-02, 9.2010e-03,-1.4856e-01,-3.9368e-02,-3.8635e-02,   1.3130e-02,-9.1095e-03,-1.3477e-01,-1.0706e-01,-1.2744e-01, 9.6558e-02,   5.6976e-02, 1.2250e-01,-3.7903e-02, 1.0864e-01,-1.6129e-02, 2.7351e-03,   8.7280e-02,-5.6763e-02, 6.0516e-02, 9.8877e-03,-8.5693e-02, 3.0651e-03,  -9.4971e-02,-6.3438e-03, 2.8412e-02, 3.5553e-02, 8.2520e-02,-8.3496e-02,   7.5569e-03, 1.4563e-01,-6.2988e-02,-8.4656e-02,-9.3079e-03, 1.5381e-01,   9.4849e-02, 1.0553e-01, 2.2552e-02, 4.2877e-02, 8.9050e-02,-2.4811e-02,  -4.2816e-02, 1.1017e-02,-7.7209e-02, 5.2917e-02, 1.3110e-01,-2.3010e-02,  -1.1951e-01, 1.2524e-01, 1.2390e-01,-7.3364e-02,-7.4280e-02, 1.0669e-01,  -7.2021e-02,-3.8696e-02, 7.0877e-03,-1.0162e-01,-1.0596e-01,-9.6863e-02,   1.6162e-01, 1.3094e-03,-4.3640e-02,-5.6152e-03, 5.2399e-02,-3.4149e-02,  -3.7811e-02, 1.1145e-01, 4.8279e-02, 5.5878e-02,-1.3318e-01, 1.0187e-01,   1.6739e-02, 1.1871e-01, 5.1849e-02, 1.6998e-02, 8.8318e-02, 2.5375e-02,   5.9875e-02,-6.7749e-02, 1.5125e-01,-1.0730e-01,-5.8594e-02,-5.8136e-02,   7.1621e-04,-1.5152e-02, 5.2490e-02,-6.9666e-04, 2.5589e-02,-2.3224e-02,   7.7858e-03, 3.8269e-02,-8.5693e-02,-1.1917e-02, 2.3193e-02, 2.7283e-02,  -4.6509e-02,-6.5125e-02,-1.5129e-02,-4.2000e-03,-1.5393e-01,-4.4220e-02,  -8.7708e-02, 1.7176e-03,-6.9702e-02,-1.0699e-01, 3.5828e-02, 5.5267e-02,  -4.3518e-02, 1.1609e-01,-1.3660e-01, 3.6774e-02,-4.1016e-02,-6.5918e-02,   1.1859e-01,-5.7831e-02, 6.3843e-02,-1.2744e-01,-8.5754e-02, 6.3171e-02,   8.2642e-02,-1.2611e-02,-4.2877e-02, 2.4292e-01,-7.1899e-02, 3.4363e-02,   1.0760e-01, 5.7587e-02], [ 9.1743e-04, 8.9569e-03, 3.8391e-02,-9.5291e-03,-3.7476e-02,-6.9153e-02,  -4.3488e-02,-2.7939e-02,-7.0068e-02, 3.5675e-02,-2.0798e-02,-6.0242e-02,   1.8890e-02,-9.4666e-02,-6.8787e-02,-3.8727e-02,-6.7688e-02, 3.3936e-02,   7.5928e-02,-5.3589e-02,-1.7899e-02, 5.0751e-02, 3.2593e-02,-9.0393e-02,  -2.9282e-02, 1.4091e-02,-1.0941e-02,-6.2988e-02, 7.2998e-02,-6.5125e-02,  -6.7261e-02, 5.2261e-03,-4.1107e-02,-3.7201e-02,-7.3486e-02,-9.2468e-02,   3.1830e-02, 5.2856e-02,-4.2450e-02, 2.2125e-02,-4.7058e-02,-8.3252e-02,  -1.1757e-02,-7.4053e-04, 7.7698e-02, 2.4170e-02,-3.0441e-02, 7.6477e-02,  -8.6487e-02, 1.2924e-02, 9.7198e-03, 8.6914e-02,-2.3590e-02,-5.6000e-02,  -3.0975e-03, 4.4647e-02,-2.3071e-02, 8.1604e-02,-2.3594e-03,-3.8395e-03,   3.4904e-03,-1.8570e-02, 1.2772e-02,-5.3558e-02, 2.1103e-02,-7.6294e-02,   7.0984e-02, 2.5284e-02, 2.0966e-02, 3.1677e-02, 1.4000e-02, 2.3788e-02,   3.6102e-02,-3.7415e-02,-2.5978e-03,-2.3483e-02, 7.9163e-02, 4.1260e-02,  -1.5137e-02,-7.0435e-02,-4.1199e-02,-2.9434e-02, 8.4229e-02, 1.3092e-02,   4.5848e-04, 7.2693e-02,-2.1515e-02, 8.0627e-02, 6.6948e-03, 3.6316e-02,   7.1594e-02, 3.9581e-02, 8.3008e-03,-4.3762e-02,-6.7627e-02, 5.4840e-02,   2.3102e-02, 6.1218e-02,-3.5797e-02, 6.3538e-02, 6.8359e-02,-4.2877e-02,   7.4341e-02,-6.6528e-02,-4.9744e-02, 4.0955e-02,-8.2642e-02, 8.7585e-02,  -8.8730e-03,-6.3354e-02, 1.9333e-02,-7.6172e-02,-9.0759e-02,-7.9712e-02,  -6.5491e-02,-8.5571e-02,-2.4704e-02, 2.0065e-02,-1.0681e-02,-8.8257e-02,  -7.7148e-02,-2.7878e-02,-5.6992e-03, 1.2093e-02, 2.1790e-02,-6.4392e-02,   1.8005e-03,-2.3499e-03], [-5.8868e-02,-4.2694e-02,-7.4585e-02, 4.3732e-02, 8.3740e-02, 1.8280e-02,   9.9121e-02,-1.5297e-02, 5.6213e-02,-3.1097e-02, 1.0994e-02, 1.4392e-01,  -3.9673e-02, 1.0809e-01, 3.6194e-02, 8.4229e-02, 1.3428e-01,-3.3508e-02,   6.2439e-02, 1.7932e-01,-3.0121e-02,-5.9296e-02, 1.1414e-01,-8.8745e-02,   5.9875e-02, 8.3862e-02, 4.1199e-02, 3.4790e-02,-2.9221e-02, 7.8857e-02,   9.6130e-02, 1.2466e-02,-1.7029e-02, 6.3599e-02,-1.6342e-02,-5.3497e-02,  -1.7688e-01, 1.0028e-01, 6.5186e-02,-1.0107e-01, 8.0200e-02,-3.1738e-02,   7.3547e-02, 7.1838e-02,-3.1147e-03, 5.3986e-02, 2.4023e-01,-1.4661e-01,   1.1957e-01, 1.5222e-01, 1.8555e-02,-1.8555e-02,-2.2461e-02, 3.5736e-02,  -6.7749e-02,-2.7176e-02,-4.7646e-03,-1.3046e-02, 1.3257e-01, 4.5380e-02,   1.4099e-01, 1.0583e-01, 1.1139e-01,-9.7198e-03,-6.2927e-02,-4.5746e-02,   1.6113e-02, 1.2769e-01, 1.0849e-02, 1.5222e-01,-1.0078e-02, 2.8366e-02,  -1.5190e-02, 1.9177e-01, 6.9336e-02,-3.2532e-02, 1.7773e-01,-5.1605e-02,   4.7760e-02, 1.2695e-02, 1.0236e-01,-2.5436e-02,-5.7953e-02, 4.7485e-02,   3.1464e-02, 3.6011e-02, 6.2805e-02,-3.3051e-02,-6.2332e-03, 9.5596e-03,   1.1047e-01,-3.0396e-02,-3.6865e-02, 1.3733e-01,-4.2755e-02, 5.5878e-02,   3.0640e-02, 3.5919e-02, 1.0010e-01, 8.4229e-02,-6.8207e-03,-2.0599e-02,   4.3060e-02, 8.4351e-02,-9.9640e-03,-7.2205e-02, 1.5271e-01,-3.5797e-02,   4.4525e-02, 8.1177e-02, 9.7961e-02,-1.0620e-02, 1.3649e-02, 5.6839e-03,   4.5227e-02, 1.3403e-01, 1.3647e-01,-2.2873e-02,-1.4839e-02, 9.1736e-02,  -7.1907e-03, 5.6519e-02,-1.7688e-01, 2.4927e-01,-9.4421e-02, 8.6121e-02,  -2.6779e-02, 5.9357e-02], [ 1.8875e-02, 1.1047e-01, 2.0340e-02, 2.1408e-02, 8.2581e-02,-3.4729e-02,   5.9113e-02, 1.0321e-01,-8.8989e-02,-2.7390e-02,-5.5817e-02,-5.8868e-02,  -1.3130e-02,-1.2433e-01,-3.6926e-02, 6.9336e-02,-1.2225e-01,-9.4421e-02,  -4.9255e-02,-4.3213e-02,-2.9083e-02,-5.5389e-02,-7.9590e-02,-9.0103e-03,  -6.0638e-02,-1.7456e-02, 7.3975e-02,-3.6652e-02,-2.7115e-02, 4.3182e-02,  -8.8806e-02,-5.0598e-02, 1.0626e-01, 8.4106e-02,-1.9531e-02,-1.2207e-02,  -7.8430e-02, 3.9612e-02, 7.1533e-02,-8.0139e-02,-2.0398e-01,-1.6937e-02,  -3.5629e-03, 3.9734e-02, 1.1029e-01, 7.4501e-03,-5.5420e-02,-9.3140e-02,   1.8616e-01, 8.1055e-02,-6.6040e-02, 6.1401e-02,-6.8054e-02,-3.6896e-02,  -2.2583e-02,-3.2013e-02,-5.8655e-02, 8.1909e-02,-1.2024e-02,-1.4328e-02,   1.1151e-01, 6.5552e-02, 5.1758e-02, 5.4932e-02,-1.7419e-01,-2.0325e-02,  -1.5808e-02,-6.5674e-02, 4.5685e-02, 2.2720e-02, 1.4595e-02, 1.0262e-02,  -6.4880e-02,-3.8239e-02, 7.6721e-02,-5.0537e-02, 8.4106e-02, 8.9233e-02,  -8.4351e-02, 8.1848e-02,-7.1411e-02, 2.4414e-02,-6.4636e-02, 2.5497e-02,  -3.3539e-02, 1.9943e-02, 7.6477e-02, 8.4000e-03, 1.6678e-02,-1.9150e-02,   4.6844e-02, 1.0803e-02, 1.8539e-02,-5.9479e-02, 1.2842e-01,-6.3293e-02,   5.1758e-02, 3.2440e-02, 9.4116e-02,-2.3087e-02,-1.3000e-02,-6.3293e-02,   7.0557e-02,-7.3181e-02,-6.4636e-02,-6.3904e-02, 8.7952e-02,-5.0583e-03,   8.9050e-02, 5.9570e-02,-1.6754e-02,-5.5725e-02, 9.4421e-02,-2.7512e-02,   1.7715e-02,-2.4634e-01, 1.1145e-01, 4.8828e-02, 4.8401e-02, 1.7609e-02,   5.6793e-02, 4.2236e-02,-1.0846e-01,-7.1716e-02,-4.1809e-02, 4.1412e-02,   3.8605e-02,-2.0874e-02], [-4.6349e-03,-2.1271e-02,-5.5389e-02, 1.0547e-01, 8.1543e-02, 6.8542e-02,   2.7069e-02, 1.0431e-01, 2.1399e-01, 1.1676e-01,-7.9834e-02, 1.0321e-01,  -6.4575e-02, 5.3772e-02,-1.5283e-01,-1.6632e-02, 5.5481e-02, 5.7434e-02,   1.5417e-01,-5.8746e-02, 8.1848e-02, 9.7717e-02, 6.3782e-02, 1.0114e-01,  -3.5797e-02, 6.3843e-02, 1.0327e-01,-1.2573e-01, 1.8225e-01, 7.5195e-02,   8.4595e-02,-1.1978e-03,-4.0192e-02,-3.1948e-03,-1.6663e-02, 1.5125e-01,   9.1125e-02, 1.0840e-01,-1.1658e-02, 1.2048e-01, 1.8250e-01, 9.0698e-02,  -6.5918e-02,-5.4993e-02,-3.1921e-02, 1.0193e-01, 8.0139e-02,-1.4246e-01,   2.9343e-02,-8.5327e-02, 5.5359e-02, 1.5419e-02, 1.4233e-01, 5.8838e-02,  -1.6098e-02,-6.8665e-02, 1.3257e-01,-6.7871e-02,-2.4597e-02, 1.0822e-01,   1.0968e-01, 1.4307e-01, 2.0203e-01,-6.5613e-02, 2.0276e-01,-3.5614e-02,   9.7322e-04,-3.1799e-02,-5.0873e-02, 5.6190e-03, 1.5152e-02,-1.5161e-01,   1.1365e-01, 1.3196e-01,-5.4016e-02, 3.6224e-02, 4.6387e-03,-7.9041e-02,   7.4707e-02, 5.1941e-02, 8.9172e-02, 9.8724e-03,-9.3811e-02,-9.5520e-02,   4.0100e-02,-2.1423e-01, 1.2146e-01,-1.8555e-02, 4.9377e-02, 1.3684e-01,  -2.2583e-02, 1.0101e-01, 2.2675e-02,-1.0208e-02, 1.6113e-01,-3.7323e-02,  -5.8777e-02,-2.2473e-01, 1.1253e-03,-5.6091e-02, 8.3191e-02, 9.3201e-02,   8.3374e-02, 9.9609e-02, 4.0588e-02,-7.9956e-03,-2.2888e-02,-2.7893e-02,  -3.4637e-02, 4.4617e-02,-1.2854e-01, 6.8542e-02, 9.1400e-03, 9.9182e-02,  -2.2168e-01, 6.2683e-02,-4.6631e-02, 1.5491e-01,-5.9265e-02,-1.8797e-03,  -3.7750e-02,-5.3444e-03,-4.2969e-02, 1.1829e-01, 4.8187e-02,-4.1748e-02,  -4.5929e-02, 6.1432e-02], [-7.5264e-03, 8.0444e-02, 6.9458e-02, 3.9703e-02, 7.1716e-02, 2.2171e-02,   4.6234e-02,-4.3579e-02, 4.3427e-02, 4.2267e-02, 7.3120e-02, 8.5510e-02,  -3.5980e-02, 9.3842e-03, 7.7698e-02,-4.6417e-02,-7.1167e-02,-3.4760e-02,   7.9163e-02, 6.9336e-02,-3.7903e-02, 6.7993e-02,-6.1066e-02,-3.0457e-02,   6.8359e-02,-3.6469e-02, 1.4539e-01,-5.6519e-02,-1.7810e-01,-1.2006e-01,  -4.6051e-02, 1.7517e-02, 8.1848e-02,-7.0984e-02,-6.1981e-02, 1.5465e-02,  -6.8550e-03, 9.1736e-02, 2.0020e-01,-2.4002e-02, 1.4062e-01,-1.7258e-02,   9.0393e-02,-5.1544e-02, 3.2562e-02, 3.5400e-02, 1.9958e-01,-2.0325e-02,  -3.7354e-02, 6.8237e-02, 9.3628e-02,-5.8502e-02,-9.0210e-02, 4.0558e-02,   5.0507e-02, 3.0777e-02, 2.6596e-02,-1.2863e-02, 1.2405e-02, 4.0466e-02,   1.1029e-01, 1.0010e-01, 1.4107e-02, 4.9530e-02,-5.9631e-02,-5.8197e-02,  -7.5500e-02, 2.7130e-02, 2.7206e-02, 5.2185e-02, 5.7190e-02,-2.0844e-02,   1.0773e-01, 6.0974e-02, 2.1301e-02,-6.9824e-02, 1.6199e-01, 4.2755e-02,   1.9348e-02,-8.7814e-03, 1.9080e-01,-8.0444e-02, 4.2755e-02, 3.3173e-02,  -7.2144e-02,-4.4800e-02, 9.2957e-02,-1.0353e-02, 8.8318e-02,-3.6591e-02,  -7.5645e-03, 1.0841e-02,-4.1931e-02,-6.0242e-02,-4.5807e-02, 6.4148e-02,  -6.2286e-02, 5.9723e-02, 4.9957e-02,-4.3365e-02, 6.3110e-02, 4.3945e-02,  -3.4607e-02, 1.1035e-01,-1.0461e-01, 2.7252e-02, 4.9713e-02,-2.1637e-02,  -5.0293e-02, 2.1021e-01, 7.9773e-02, 5.7800e-02,-3.9856e-02, 5.2490e-02,   1.3074e-01, 1.7960e-02, 9.2529e-02, 3.0563e-02, 4.9866e-02, 2.3026e-02,  -9.7198e-03,-2.5883e-03,-3.7289e-03, 6.0394e-02,-7.1716e-02, 7.2327e-03,   3.8666e-02, 4.0009e-02], [ 5.5504e-03,-6.9580e-02, 1.2726e-02, 6.0577e-02,-1.5327e-02,-7.8796e-02,   6.5918e-02,-1.0460e-02, 1.7273e-02, 5.5634e-02, 4.9957e-02,-6.8604e-02,  -3.7750e-02, 3.7933e-02,-5.6335e-02,-1.6968e-02, 4.8401e-02, 1.8768e-02,   2.1149e-02, 1.2337e-02,-6.6406e-02, 4.7241e-02, 4.6173e-02,-4.4312e-02,   1.1566e-02,-2.2430e-02, 1.4816e-02,-7.8918e-02,-5.4779e-02, 5.7465e-02,  -3.7811e-02, 1.0284e-02,-6.6528e-02, 9.5139e-03,-4.0253e-02, 2.9469e-03,  -2.9678e-02, 6.3660e-02,-6.1737e-02,-5.3131e-02,-8.0383e-02, 4.7607e-02,  -3.5492e-02, 5.4565e-02, 6.8237e-02,-6.6101e-02,-2.6276e-02,-3.4424e-02,  -4.8431e-02,-1.5732e-02, 2.8748e-02,-6.9153e-02,-7.6233e-02, 2.0660e-02,   6.1249e-02, 6.6589e-02, 2.0782e-02,-9.0820e-02,-6.0913e-02,-8.7769e-02,  -1.9028e-02,-1.0205e-01,-6.9153e-02, 7.3608e-02,-7.8064e-02,-8.1848e-02,   3.7537e-02, 6.7993e-02, 5.8746e-02,-5.9570e-02,-7.8186e-02, 2.6840e-02,  -5.5969e-02,-9.2102e-02,-2.9678e-02,-2.8458e-02,-8.8318e-02,-1.0095e-01,  -5.6824e-02,-2.1133e-02, 2.9831e-02,-8.4229e-02,-7.4707e-02, 3.8109e-03,   4.5105e-02, 5.8105e-02,-7.3914e-02,-1.1452e-02,-5.8472e-02, 1.1841e-02,   4.0741e-02, 6.5369e-02, 4.2358e-02,-5.1880e-02, 5.2155e-02,-8.7524e-02,   1.7273e-02,-8.1421e-02,-1.7929e-02,-2.1683e-02, 2.2720e-02,-2.1500e-02,  -3.3478e-02, 2.0905e-02, 6.2561e-02, 5.1727e-02, 5.2582e-02,-1.2770e-03,   5.4352e-02,-2.7557e-02, 6.3232e-02,-8.5632e-02,-9.2712e-02,-2.1698e-02,   7.7454e-02, 8.7097e-02, 1.7242e-02,-1.4542e-02,-7.9346e-02,-2.0157e-02,  -6.4209e-02,-3.0396e-02,-6.2439e-02,-6.8542e-02, 6.7688e-02, 4.0863e-02,   5.3162e-02,-1.0857e-02], [ 4.4891e-02, 2.3880e-02, 5.8014e-02,-4.1046e-02, 6.3049e-02,-7.6416e-02,  -7.1838e-02,-8.8074e-02, 1.0513e-02,-9.8511e-02, 3.8300e-02, 1.5068e-02,   2.1362e-02, 3.3398e-03,-7.6782e-02,-1.1267e-01,-6.7688e-02, 6.0669e-02,  -1.0748e-01,-6.4575e-02, 1.4763e-02,-3.5187e-02, 3.4088e-02,-8.3984e-02,  -1.3405e-02, 4.8103e-03, 2.8137e-02,-9.8724e-03, 5.4779e-02,-3.6865e-02,  -9.7656e-02, 3.8788e-02, 3.7079e-02,-8.3130e-02,-1.5823e-02,-1.0083e-01,   1.3275e-02, 1.1810e-02,-8.3008e-02, 6.2500e-02,-8.6487e-02,-1.0333e-01,   4.4342e-02, 4.1748e-02,-8.5144e-02, 1.5656e-02,-1.0521e-02,-8.2581e-02,   1.9394e-02,-7.2388e-02,-5.7037e-02,-8.5144e-03,-3.1464e-02,-1.1066e-01,   3.9276e-02,-4.7607e-02, 5.0079e-02,-9.4757e-03, 5.0385e-02, 8.5526e-03,  -4.3060e-02,-1.0376e-02,-4.5128e-03,-3.4424e-02, 7.3425e-02, 2.1530e-02,  -3.7659e-02, 5.7617e-02, 5.9692e-02,-8.1543e-02, 3.1067e-02,-5.0507e-02,   4.3030e-02, 8.8348e-03,-5.6519e-02, 2.7481e-02,-1.2917e-02, 5.5695e-02,   1.5419e-02, 6.6406e-02, 2.2202e-02,-6.3416e-02, 1.7563e-02, 1.0895e-02,  -6.5308e-02,-1.1566e-02,-1.3268e-02, 3.4424e-02,-1.0602e-01, 4.4037e-02,   3.8879e-02,-9.1934e-03,-4.3121e-02,-5.4047e-02, 2.9755e-03,-6.6040e-02,  -3.2501e-02,-6.5491e-02,-1.5583e-03, 4.0039e-02,-1.0510e-01, 6.6467e-02,  -7.0618e-02,-6.8604e-02, 1.8967e-02, 5.6000e-02,-5.3329e-03,-1.0574e-02,  -6.2805e-02, 3.6221e-03,-4.4342e-02,-5.4565e-02,-4.6417e-02,-1.0887e-02,   4.6692e-02,-3.7537e-02, 1.9653e-02, 1.4626e-02, 3.3081e-02,-9.5825e-02,  -2.8641e-02,-8.0383e-02,-7.5264e-03, 3.5950e-02, 2.8702e-02, 2.7725e-02,  -1.0199e-01, 6.9214e-02], [-1.5526e-02,-2.6035e-03,-5.8929e-02, 3.7079e-02,-8.1421e-02, 2.9907e-02,   2.6611e-02, 7.3547e-02,-2.4506e-02,-6.3965e-02, 7.5569e-03, 6.7078e-02,   5.2185e-02,-8.4763e-03, 7.5317e-02, 7.2708e-03,-7.8735e-02,-8.1238e-02,  -7.4097e-02,-6.3538e-02, 6.4125e-03,-6.4331e-02,-3.1982e-02, 9.4376e-03,  -7.6538e-02,-1.3290e-02, 1.3977e-02, 7.6355e-02, 5.3802e-02,-7.3853e-02,  -8.6548e-02, 7.5806e-02,-7.0190e-02, 4.2877e-02,-3.6255e-02, 6.5552e-02,   3.4393e-02,-8.4229e-02,-7.9285e-02, 5.2643e-02,-2.0462e-02,-7.2632e-02,  -3.7811e-02,-9.2407e-02, 1.9211e-02, 7.9834e-02, 4.1595e-02, 4.9530e-02,  -4.9194e-02,-8.2626e-03,-1.9440e-02,-5.4474e-03,-6.0242e-02,-6.0516e-02,   5.3925e-02, 4.8706e-02, 8.0505e-02, 3.5919e-02, 5.2643e-02, 2.3041e-02,  -3.6957e-02, 1.4008e-02, 7.1220e-03,-3.1250e-02,-4.9744e-02,-1.1993e-02,   4.1290e-02, 3.3051e-02,-6.7688e-02, 4.0558e-02, 4.6509e-02,-4.3671e-02,  -4.0466e-02,-8.5632e-02, 4.9652e-02,-9.0637e-03, 1.0872e-02,-2.3499e-02,  -2.3483e-02, 6.1798e-02, 9.4604e-03, 3.1219e-02,-6.5247e-02,-1.0519e-03,  -7.7576e-02,-6.4514e-02,-7.7026e-02,-7.4646e-02, 1.9035e-03,-1.2337e-02,  -8.3374e-02,-5.0079e-02, 2.7328e-02,-7.1777e-02,-4.0527e-02, 1.1391e-02,  -4.1138e-02,-3.4576e-02,-4.3152e-02,-2.2980e-02, 4.9957e-02,-5.1483e-02,  -1.7471e-02,-9.6741e-03, 6.3843e-02, 7.1594e-02,-7.9422e-03,-6.4819e-02,   7.8064e-02, 6.2622e-02,-4.1931e-02,-5.7220e-02, 2.6550e-02,-1.2886e-02,   4.6783e-02, 5.2917e-02,-8.8379e-02,-5.5573e-02,-4.3526e-03,-6.5430e-02,   5.3528e-02, 8.4656e-02, 8.0566e-02,-8.7708e-02,-5.8685e-02,-6.3416e-02,  -6.9397e-02, 5.4688e-02], [ 9.8267e-02, 1.2964e-01, 2.7496e-02, 1.1224e-01, 6.2744e-02, 1.0693e-01,  -5.3589e-02, 1.3464e-01,-2.5272e-03,-6.7825e-03, 9.5398e-02,-1.4026e-01,   8.2581e-02,-4.4189e-02,-2.4246e-02, 1.1127e-01,-6.4087e-02,-5.2673e-02,   5.5267e-02,-2.6306e-02, 6.7627e-02, 6.7932e-02, 2.5131e-02,-2.4231e-02,   3.6163e-02, 1.1346e-01, 3.1342e-02,-3.4760e-02, 6.8176e-02,-1.2787e-02,   5.8441e-02, 5.4626e-02, 3.0914e-02,-1.3741e-02, 9.0759e-02, 7.7454e-02,   3.7292e-02,-1.4368e-01,-1.1475e-01, 4.7951e-03,-7.3608e-02,-1.7746e-02,   2.6276e-02, 1.2756e-01, 1.7807e-02,-1.8311e-02,-6.4453e-02,-9.4528e-03,   1.2262e-01, 6.1096e-02, 1.0736e-01, 9.5825e-02, 6.1310e-02, 5.4565e-02,   2.3438e-02, 1.2045e-03, 9.8572e-02, 7.3509e-03,-3.7750e-02,-2.1667e-02,  -9.1858e-02, 9.8145e-02, 1.7532e-02, 5.1178e-02,-5.0507e-02, 2.3438e-02,   1.6998e-02,-4.8248e-02, 2.3315e-02,-4.5502e-02, 1.9058e-02, 5.1819e-02,   1.1066e-01,-1.2463e-01, 7.1960e-02,-4.2847e-02,-2.2705e-01, 2.5215e-03,  -3.0701e-02,-2.7313e-02,-2.4536e-01, 1.2077e-02,-4.2081e-04, 2.3285e-02,   4.6661e-02, 1.9922e-01, 8.8989e-02, 5.0415e-02, 1.2366e-01, 1.3037e-01,   2.1347e-02, 5.4245e-03, 7.8552e-02,-8.4534e-02,-1.0791e-01, 2.0950e-02,   2.6642e-02, 5.4138e-02, 1.1212e-01, 1.3074e-01, 1.0681e-01,-8.4610e-03,   5.3436e-02,-3.2043e-02, 5.6976e-02,-3.2990e-02, 1.9226e-02, 7.9956e-02,   9.0515e-02,-1.2469e-01,-4.5776e-02, 1.5088e-01, 9.3811e-02,-2.3727e-02,   6.1890e-02,-2.1774e-02,-9.6313e-02, 1.6346e-03, 8.2550e-03, 5.4779e-02,  -2.9434e-02, 4.0039e-02,-6.0394e-02,-1.3086e-01, 1.5556e-02, 7.2693e-02,  -3.5736e-02, 8.6136e-03], [-1.0107e-01, 3.3752e-02, 2.2659e-02, 3.3539e-02, 3.5309e-02, 3.1464e-02,   3.4790e-02,-4.2603e-02,-3.9032e-02,-4.1656e-02,-7.0984e-02,-9.9915e-02,  -3.4698e-02, 1.6693e-02, 2.1530e-02, 5.0842e-02, 9.0714e-03,-1.8250e-02,   9.8038e-03,-4.6753e-02,-1.0376e-01,-1.4954e-02, 1.9806e-02,-6.8115e-02,  -7.2388e-02,-1.7807e-02,-8.8684e-02, 1.4505e-03,-7.2632e-02,-8.4991e-03,  -9.2773e-02,-4.9438e-02,-8.7158e-02, 3.9093e-02,-1.4259e-02,-5.6854e-02,   5.0774e-03, 3.6835e-02, 6.9695e-03,-8.7524e-02, 4.1107e-02,-6.9885e-02,   3.7567e-02,-1.2083e-03, 2.3895e-02,-4.0527e-02, 7.0740e-02,-2.1149e-02,  -7.6538e-02, 4.9042e-02, 6.6040e-02, 5.1849e-02, 4.3030e-02,-2.8229e-02,   1.0773e-02, 2.2232e-02, 5.5298e-02,-3.6224e-02,-8.9844e-02, 3.8055e-02,   1.6388e-02,-8.9111e-02,-9.7229e-02,-3.5950e-02, 5.6213e-02, 5.7030e-03,  -5.9082e-02,-2.6276e-02, 7.7515e-02, 6.5735e-02,-8.7708e-02,-4.4006e-02,  -9.9976e-02,-8.6670e-02, 3.0117e-03,-3.3691e-02, 2.0309e-02,-3.2837e-02,  -5.1971e-02, 3.0251e-03,-7.1533e-02,-4.7119e-02,-5.3314e-02, 6.0059e-02,   3.7292e-02, 3.3051e-02,-9.8328e-02,-4.9896e-02,-4.7882e-02,-7.3364e-02,  -3.1921e-02,-9.6069e-02,-3.1708e-02, 2.2446e-02, 7.8125e-02,-2.7649e-02,   2.0905e-02,-3.4027e-02,-3.0304e-02,-7.0496e-02, 5.9967e-02,-8.7952e-02,   4.4556e-02, 7.3486e-02, 6.6772e-02,-4.8584e-02,-9.4177e-02, 7.9956e-02,  -2.2720e-02,-9.7534e-02,-4.7394e-02,-3.2623e-02, 4.4067e-02,-2.8137e-02,  -1.7181e-02, 2.5772e-02,-8.0795e-03, 3.5065e-02, 8.4229e-03, 9.5901e-03,  -6.4087e-03,-3.8055e-02,-1.3290e-02,-2.4979e-02,-9.5520e-02,-1.0333e-01,   7.2937e-03,-1.0114e-01], [ 4.8218e-02, 6.3599e-02, 7.3059e-02, 1.2201e-01, 1.2140e-03,-4.6356e-02,   4.0436e-02,-1.3779e-02,-4.6501e-03, 1.2067e-01, 4.0703e-03,-9.6130e-02,  -9.7322e-04,-7.0007e-02, 2.6520e-02, 6.6605e-03, 1.2695e-01, 3.6621e-02,  -4.4830e-02, 1.1298e-01,-1.1243e-01, 2.4704e-02,-2.5253e-02, 8.7402e-02,  -4.0466e-02,-4.5898e-02, 1.6064e-01, 1.0490e-02, 9.7900e-02,-5.1514e-02,   8.4229e-02, 5.4840e-02, 2.0279e-02,-5.0697e-03, 2.5116e-02, 8.5449e-02,  -4.8676e-02, 5.7648e-02, 6.1157e-02, 2.0966e-02, 1.0876e-01, 8.6609e-02,   1.1493e-01, 1.0138e-01, 3.6896e-02, 1.1456e-01, 2.4963e-02, 6.7871e-02,   9.3201e-02,-3.7384e-02,-7.1350e-02, 1.6858e-01, 5.0903e-02, 7.7820e-02,   1.1945e-01,-8.4778e-02, 1.7960e-02, 4.8943e-03, 2.0737e-02, 1.2384e-01,   9.3262e-02, 2.5513e-02, 6.3019e-03,-5.0232e-02,-7.1449e-03,-4.7119e-02,  -8.8379e-02, 7.8186e-02,-3.2257e-02, 9.4223e-03, 6.6101e-02, 1.6922e-02,  -1.9409e-02, 1.3379e-01, 1.3672e-02,-5.7983e-02, 2.0996e-01,-5.4588e-03,   5.2704e-02, 8.1909e-02, 4.1748e-02, 8.7524e-02,-8.0633e-04,-5.1765e-03,   6.5796e-02,-8.5022e-02, 4.9591e-02, 9.7412e-02, 9.0881e-02,-3.0945e-02,   1.0114e-01, 9.4116e-02, 5.3528e-02,-4.1992e-02,-7.4463e-02,-3.3173e-02,   4.5242e-03,-5.7449e-03,-8.8120e-03, 2.2614e-02, 1.2708e-01, 9.0271e-02,  -1.8585e-02, 3.8940e-02, 5.9845e-02, 4.5128e-03, 4.4067e-02, 7.3730e-02,  -2.4063e-02, 1.2842e-01, 2.2852e-01,-2.1545e-02, 5.6274e-02, 4.5227e-02,  -8.8684e-02,-8.4686e-03, 1.3306e-01,-1.9474e-03,-1.3329e-02, 9.0942e-03,   1.1493e-01,-1.0891e-03, 2.6260e-02, 1.0767e-01,-1.1200e-02,-1.8158e-02,  -7.7759e-02, 1.0376e-01], [-2.0340e-02, 1.0272e-01, 4.8035e-02, 1.2622e-01, 2.9343e-02, 1.5230e-03,  -1.2436e-02, 1.3147e-01,-3.1891e-02,-5.1086e-02,-2.6062e-02, 1.9922e-01,   6.2500e-02, 7.0374e-02,-6.5651e-03, 9.9670e-02, 8.0872e-03, 7.6050e-02,  -3.4241e-02,-1.6495e-02,-1.5381e-01,-4.7485e-02, 6.3721e-02, 3.2074e-02,  -1.1572e-01, 1.0109e-02, 1.0492e-01,-1.3013e-01,-7.6965e-02,-1.0138e-01,   3.8422e-02,-2.8595e-02, 9.4360e-02,-6.0822e-02,-7.4707e-02, 3.2471e-02,  -1.0260e-01, 5.0720e-02, 1.0809e-01, 1.1587e-03, 1.4978e-01,-3.0243e-02,   6.8542e-02, 9.2346e-02,-7.1411e-02,-7.8369e-02, 1.0535e-01,-1.0327e-01,   1.7792e-02, 6.5674e-02, 3.5614e-02, 6.5186e-02, 6.2981e-03,-4.5700e-03,  -5.9052e-02,-1.2988e-01, 6.8970e-02,-4.4586e-02, 6.4819e-02, 7.3303e-02,   1.3965e-01, 6.9618e-03, 1.0199e-01, 8.0688e-02, 4.9133e-03,-6.6101e-02,   1.6876e-02, 1.2695e-01, 5.2063e-02,-6.4270e-02,-7.7393e-02, 7.8979e-02,  -9.0714e-03, 3.5828e-02, 2.3926e-02,-9.5032e-02, 1.1432e-01, 2.1835e-02,  -1.3634e-02, 1.1383e-02, 1.9250e-01,-5.0110e-02,-2.5467e-02, 4.7729e-02,   8.9783e-02,-1.7899e-02, 5.9235e-02, 3.9093e-02, 7.7759e-02, 4.6356e-02,   1.0475e-02, 6.0760e-02,-5.1697e-02, 5.1727e-02, 1.1072e-03, 4.8370e-02,  -4.6844e-02,-2.9037e-02, 4.6417e-02,-8.0811e-02,-6.1760e-03,-1.8845e-02,   5.1880e-02, 5.7800e-02, 1.4221e-01, 3.5797e-02, 1.0077e-01,-2.3575e-02,  -2.8900e-02, 8.9783e-02, 1.0706e-01,-4.1321e-02, 9.1309e-02,-3.2196e-02,  -5.7709e-02, 6.1462e-02, 8.2520e-02,-7.0984e-02,-6.1432e-02, 2.6417e-03,  -3.0930e-02, 1.6602e-02,-5.2856e-02, 1.2219e-01,-4.5868e-02,-1.3702e-02,   6.5002e-02, 2.3972e-02], [ 3.3539e-02,-4.5166e-02,-8.4106e-02, 4.1260e-02, 6.6772e-02,-3.5877e-03,   1.9348e-02,-5.3024e-03,-2.6871e-02, 3.8177e-02,-6.3944e-04, 1.8341e-02,   3.8513e-02,-8.4045e-02, 6.7749e-02, 6.3538e-02,-1.0443e-01, 6.2439e-02,  -9.1309e-02,-6.3110e-02, 3.4866e-03, 1.8494e-02, 2.1545e-02,-8.2764e-02,  -2.3987e-02, 5.8167e-02,-9.6497e-02,-1.0559e-01,-1.0114e-01,-1.0480e-01,  -4.0161e-02,-1.0651e-01,-3.4241e-02, 2.4841e-02,-8.7967e-03,-1.9745e-02,  -2.9251e-02, 3.9749e-03,-3.4760e-02, 8.1635e-03, 3.3417e-02, 6.0638e-02,   4.2725e-03,-4.4098e-03, 2.8427e-02, 3.5522e-02,-6.3049e-02,-8.4106e-02,  -8.6914e-02,-4.8187e-02, 4.2358e-02,-7.3914e-02,-1.1688e-02,-6.8481e-02,  -2.4200e-02,-7.7698e-02,-2.1408e-02,-2.0782e-02,-2.5040e-02, 3.9825e-02,  -5.9906e-02, 1.7487e-02, 1.9928e-02,-4.6021e-02,-5.3070e-02,-8.7341e-02,  -6.3660e-02,-5.6839e-03,-4.0497e-02,-9.4666e-02, 4.3304e-02,-1.4442e-02,  -8.9645e-03, 5.6061e-02, 6.3972e-03,-8.8867e-02, 4.3823e-02,-1.0413e-01,  -8.8739e-04,-6.5125e-02, 4.5380e-02,-5.7678e-02, 9.0714e-03, 5.8746e-02,  -1.0303e-01,-2.5101e-02, 8.8806e-03,-5.0049e-02,-1.3306e-02, 3.6377e-02,  -1.2222e-02,-5.7770e-02, 5.4840e-02,-4.3579e-02, 2.8320e-02, 3.5126e-02,  -4.5166e-03,-9.2529e-02, 9.6283e-03,-8.4167e-02,-7.1594e-02, 2.9861e-02,   4.9042e-02,-7.3624e-03,-3.3508e-02,-1.6464e-02, 3.1372e-02, 6.0150e-02,  -9.9304e-02,-1.4374e-02,-5.2460e-02,-9.9670e-02,-1.0590e-01, 1.4709e-02,   4.5166e-02,-6.8115e-02, 6.3599e-02,-9.1171e-03,-6.0089e-02, 5.4901e-02,   1.6525e-02,-8.4534e-02, 2.2659e-03,-2.1500e-02,-7.7759e-02,-4.4312e-02,   2.9175e-02,-3.4213e-04], [-8.0383e-02,-3.8483e-02, 1.2009e-02,-7.3853e-02,-4.9438e-02,-1.3741e-02,  -7.8308e-02,-1.9043e-02,-2.7130e-02, 4.9469e-02, 7.3547e-02,-9.7046e-02,  -3.7323e-02, 3.2227e-02,-2.6550e-02,-4.9667e-03, 4.0161e-02,-2.9175e-02,  -5.5267e-02, 8.6975e-03,-5.3406e-02, 1.0956e-02, 5.6396e-02, 7.3914e-02,   4.4617e-02,-3.9429e-02, 7.3975e-02,-6.6711e-02,-2.8000e-02,-6.8787e-02,   6.5979e-02,-2.6443e-02,-5.5161e-03, 2.4700e-03,-8.9050e-02,-2.5955e-02,   1.6098e-02, 6.6452e-03, 1.3680e-02, 3.6804e-02,-7.5867e-02,-4.3518e-02,  -8.3191e-02,-2.4307e-02,-8.3862e-02,-1.3672e-02,-8.4290e-02, 1.3466e-02,   6.8054e-02, 5.2979e-02,-2.9999e-02, 2.5406e-02,-7.4585e-02,-1.6541e-02,  -2.5894e-02,-1.9257e-02, 5.4932e-02,-9.3201e-02,-2.8549e-02, 4.6112e-02,  -5.3833e-02,-2.5055e-02,-2.0676e-02,-5.4703e-03, 5.2612e-02, 3.5000e-03,  -1.9333e-02,-6.5002e-02, 2.5726e-02,-2.5620e-02, 2.7985e-02,-1.2268e-02,  -3.1624e-03,-2.6718e-02,-8.1558e-03, 5.8441e-02,-2.4796e-02,-4.6082e-02,  -3.6774e-02, 7.3730e-02, 6.5117e-03,-2.7237e-02,-9.6375e-02, 2.3941e-02,  -7.6416e-02, 1.7899e-02, 4.1870e-02, 2.4521e-02, 5.6610e-02, 6.9763e-02,  -9.4177e-02, 1.5869e-02,-7.4463e-02, 5.5695e-02, 7.3608e-02,-9.4849e-02,  -8.5068e-03,-6.7329e-03,-9.7229e-02, 7.3853e-02,-8.1238e-02,-2.4490e-02,   1.3512e-02,-8.7402e-02, 5.5389e-02,-9.8083e-02,-4.1595e-02,-7.9803e-03,  -6.4392e-02,-7.4829e-02, 8.6670e-02, 3.0655e-02, 1.6068e-02,-6.4331e-02,  -1.0208e-02,-4.2511e-02, 2.4277e-02,-7.9269e-03, 4.0680e-02,-4.7638e-02,  -6.6956e-02, 8.5510e-02, 4.5288e-02, 5.1849e-02, 2.7695e-02, 7.4158e-02,  -6.0333e-02, 1.7319e-02], [ 6.4148e-02, 1.5588e-01,-8.2703e-02, 1.7871e-01, 4.6234e-02,-1.2794e-02,   4.1199e-02, 1.0114e-01, 9.0637e-02,-8.1604e-02, 5.1514e-02, 2.7557e-02,   6.5796e-02,-4.3732e-02,-1.5083e-02, 1.3428e-01,-8.6212e-03,-5.0232e-02,   3.6285e-02,-4.6959e-03,-2.9030e-03, 7.5134e-02, 1.2952e-01, 9.1064e-02,  -8.8501e-02, 2.3087e-02, 1.0437e-01,-4.3373e-03,-1.8628e-01, 1.5160e-02,  -4.6967e-02,-2.5630e-05,-3.1128e-03,-2.9037e-02, 6.7863e-03,-7.9651e-02,   1.7609e-02, 9.1675e-02, 2.6929e-01, 7.5317e-02,-7.6416e-02, 6.0364e-02,  -6.2218e-03,-1.9623e-02, 4.3854e-02,-1.7746e-02, 1.0504e-01, 7.0496e-02,   5.3314e-02, 7.9956e-02,-3.9246e-02, 1.3135e-01, 2.8896e-03, 9.3079e-02,   3.6194e-02,-7.6599e-02, 9.4116e-02, 1.8579e-01, 1.2177e-01,-4.5197e-02,   5.3558e-02, 7.0374e-02, 9.7717e-02, 1.5356e-01,-4.6356e-02, 8.2947e-02,  -6.1615e-02, 1.3989e-01, 1.9241e-02, 7.9224e-02,-4.8309e-02, 8.0933e-02,   1.0236e-01, 3.1708e-02, 7.6965e-02, 1.8005e-03, 2.8809e-01,-5.1575e-02,  -9.3628e-02,-3.4332e-05, 1.0144e-01, 5.3894e-02, 3.4698e-02, 5.6519e-02,  -3.5400e-02, 1.3989e-01, 3.5126e-02,-2.7847e-02, 6.2866e-02,-8.0444e-02,   1.0333e-01,-3.5309e-02, 4.1931e-02, 1.0156e-01, 7.2083e-02, 1.6284e-01,   5.4382e-02,-2.1759e-02, 8.3618e-02, 4.9713e-02, 1.3037e-01, 3.2654e-02,   1.0522e-01, 4.5166e-02, 6.5491e-02, 9.4299e-02, 2.6428e-02,-4.4136e-03,   1.9226e-02, 3.3350e-01, 2.2424e-01, 1.8097e-02, 1.4624e-01,-3.5370e-02,   5.0964e-02,-1.7786e-01, 2.1558e-01, 2.5330e-02, 1.0059e-01, 8.8745e-02,  -1.8188e-02, 4.8828e-02,-9.6069e-02, 1.4856e-01,-4.0100e-02, 6.7688e-02,  -4.1504e-02, 9.6069e-02], [-2.3087e-02,-4.1656e-02, 7.8491e-02,-7.3425e-02, 2.9388e-02,-9.1125e-02,   7.9712e-02,-6.9397e-02,-4.9713e-02, 6.0516e-02, 1.8997e-02, 4.2938e-02,   2.3102e-02, 5.4230e-02,-1.0941e-02,-7.6172e-02,-8.6365e-02,-5.7526e-02,  -5.2124e-02, 1.2749e-02, 4.2450e-02,-2.4277e-02, 7.2205e-02, 3.1528e-03,  -1.2886e-02,-1.0788e-02, 3.3844e-02, 1.8051e-02,-4.4342e-02, 7.6447e-03,   2.0187e-02, 2.2461e-02, 2.7527e-02,-1.5008e-04,-8.7585e-02, 7.5684e-02,   8.2764e-02, 5.6030e-02, 3.6682e-02, 7.2937e-02, 6.4819e-02,-7.4524e-02,  -3.8940e-02,-2.6230e-02,-7.1350e-02,-5.3902e-03,-2.3163e-02, 5.9570e-02,   4.3152e-02,-2.3285e-02,-7.5500e-02,-8.7402e-02,-6.8703e-03,-1.0376e-02,  -6.7322e-02, 2.9617e-02,-8.0994e-02,-7.4036e-02,-8.8959e-03,-8.5327e-02,   6.7810e-02, 5.9692e-02, 2.3594e-03,-8.3984e-02,-5.2307e-02, 2.1667e-02,  -1.8051e-02,-5.0278e-03,-6.3354e-02,-6.7017e-02, 4.6356e-02,-2.3636e-02,   2.1805e-02, 2.0325e-02,-7.9102e-02,-8.5510e-02,-7.1777e-02, 7.5562e-02,  -6.0425e-02,-6.4941e-02,-8.2397e-02,-7.7881e-02,-7.1960e-02,-4.1382e-02,   1.6205e-02, 5.1193e-03,-6.3782e-02, 3.5400e-02, 6.8298e-02, 1.5266e-02,  -6.7627e-02,-8.9905e-02, 8.0795e-03,-9.5093e-02, 2.4658e-02, 3.6133e-02,   2.3361e-02, 2.3849e-02, 1.0483e-02, 3.1342e-02, 6.0425e-03,-5.7343e-02,  -6.9397e-02,-8.2947e-02,-2.2960e-04,-2.2461e-02, 7.2998e-02, 2.6512e-03,   4.9225e-02, 6.4697e-02, 4.0771e-02, 3.6530e-02, 4.2908e-02, 3.9490e-02,  -8.0383e-02, 2.6417e-03,-2.9160e-02, 7.6843e-02, 5.7037e-02,-6.6284e-02,  -4.1443e-02,-1.3573e-02, 4.0924e-02, 8.2642e-02, 2.4490e-02, 5.6732e-02,  -7.2693e-02,-8.0811e-02], [ 6.4026e-02, 1.8509e-02,-6.2012e-02, 6.3660e-02, 6.9519e-02,-1.2054e-02,  -1.2207e-02, 1.8326e-02, 7.9773e-02, 3.5229e-03,-9.2392e-03,-7.6599e-02,   7.4890e-02,-1.8524e-02, 1.4014e-01, 5.2185e-02,-7.8003e-02,-3.5583e-02,   1.2683e-01,-1.0809e-01, 1.2012e-01, 1.4197e-01, 1.3159e-01, 3.0792e-02,   1.6492e-01, 1.1810e-01,-1.2695e-01, 1.8726e-01, 7.4768e-02, 1.6614e-01,   7.6599e-02, 3.3997e-02, 1.2476e-01,-1.6068e-02, 2.3499e-02, 8.2336e-02,   1.0980e-01,-2.5269e-01,-1.0968e-01, 4.1443e-02,-1.2189e-01,-7.6782e-02,   1.3451e-02, 9.3079e-02, 3.4912e-02, 3.2471e-02,-2.1741e-01, 2.5192e-02,   5.2521e-02,-1.1890e-01,-6.3293e-02, 8.2764e-02,-8.6853e-02,-4.2786e-02,   7.5928e-02, 3.1555e-02, 1.0974e-01, 9.9182e-02, 2.0462e-02, 1.4172e-01,  -9.9731e-02, 6.8359e-02, 4.4189e-02,-6.5002e-02,-1.4572e-02, 9.9915e-02,  -3.8330e-02,-1.4014e-01, 3.6011e-02, 5.4779e-02, 1.1591e-01, 1.4014e-01,   4.6844e-02,-1.1426e-01, 1.1432e-01, 6.9397e-02,-6.9580e-02, 5.7220e-03,   7.4463e-02, 4.0833e-02,-2.4194e-01, 7.6660e-02, 1.2311e-01, 1.8661e-02,   6.3049e-02, 5.2399e-02, 3.2318e-02, 1.7700e-02, 1.5271e-01, 1.2585e-01,   8.1238e-02,-2.3956e-02, 1.2079e-01, 4.8340e-02, 4.5349e-02, 1.9806e-02,  -1.8585e-02, 1.1414e-01,-1.8997e-02, 9.2468e-02,-3.4271e-02, 7.8003e-02,   3.0945e-02, 3.1891e-02, 4.7722e-03,-1.4477e-03,-8.3130e-02, 6.5552e-02,  -3.7823e-03,-1.3733e-01,-2.5244e-01, 1.4502e-01, 2.7542e-03,-9.2041e-02,   3.7720e-02, 6.5857e-02,-9.0149e-02, 1.9751e-01, 5.7648e-02, 3.1219e-02,  -1.0168e-01,-6.8016e-03, 1.3330e-01,-2.6733e-01, 1.0809e-01, 1.2201e-01,  -1.5230e-03, 2.6703e-02], [-9.3140e-02,-1.8951e-02, 8.5815e-02, 8.8257e-02,-6.3477e-02,-4.9591e-02,  -1.7136e-02,-9.6497e-02, 1.0291e-01,-6.4209e-02,-1.1711e-02, 8.5083e-02,  -8.6426e-02, 9.3079e-02, 3.0472e-02, 7.3128e-03,-3.8696e-02, 5.3650e-02,  -2.9495e-02, 3.8971e-02, 6.1890e-02, 1.3037e-03,-6.2134e-02, 7.0679e-02,  -3.8177e-02, 