const ar_params = {
	"controller.l1.weight" : [[ 1.2195e-01, 2.0190e-01, 2.3926e-01,-4.5459e-01,-2.1509e-01, 4.7798e-03,  -9.3689e-03,-1.8213e-01, 3.8269e-02,-1.2964e-01, 4.0802e-02,-6.4941e-02,   2.2263e-02,-9.2346e-02, 7.4524e-02, 3.7567e-02, 5.7220e-02, 1.2006e-01,  -1.0492e-01,-9.7717e-02,-1.0297e-01,-5.1727e-02,-1.1798e-01,-8.8257e-02,   7.1655e-02, 1.6101e-01,-7.6660e-02, 1.5857e-01,-1.0382e-01, 1.2408e-01,   7.0557e-02, 9.7656e-02,-6.5308e-02,-4.9286e-02, 4.5563e-02,-4.6295e-02], [ 6.7261e-02, 9.0881e-02, 4.4434e-02,-1.5434e-02,-1.2622e-01,-4.8340e-02,   1.4502e-01,-3.4389e-03,-1.0376e-01, 4.3701e-02,-3.4180e-02,-4.2572e-02,   4.4098e-02,-9.0881e-02,-9.0881e-02,-6.8787e-02, 6.4331e-02,-3.8788e-02,   2.2473e-01, 7.6721e-02, 7.8552e-02,-6.6719e-03, 1.3611e-01,-1.0065e-01,  -1.2744e-01, 2.1387e-01, 2.0422e-01,-1.7627e-01, 2.3938e-01, 1.5564e-03,   8.2275e-02, 1.0455e-01, 3.5095e-02, 2.6001e-02, 9.6497e-02,-6.2622e-02], [-2.2253e-01, 1.0394e-01,-3.8452e-01,-9.4788e-02, 7.4234e-03,-2.5049e-01,  -2.2778e-01,-1.2543e-02,-1.9073e-02, 4.8309e-02, 1.4539e-01,-1.4600e-01,  -1.2817e-01, 2.1375e-01, 7.9834e-02,-2.2632e-01, 1.4130e-02, 7.6477e-02,   1.9177e-01,-2.3102e-02,-1.0413e-01,-7.7332e-02,-6.6406e-02, 3.5095e-02,   1.2976e-01, 3.2196e-02, 4.4861e-02, 2.2571e-01,-1.3208e-01, 8.0078e-02,  -5.9967e-02, 2.3376e-01,-7.9407e-02,-5.7037e-02,-2.2229e-01, 6.1607e-03], [-2.9346e-01, 7.7148e-02,-1.2781e-01, 7.0251e-02,-2.4463e-01, 2.7612e-01,  -8.8989e-02, 2.8882e-01, 5.0812e-02,-4.0894e-02,-2.3289e-03,-2.2247e-02,  -3.4088e-02,-2.8702e-02, 1.7700e-01, 6.9824e-02,-8.3740e-02, 3.2902e-04,   5.0598e-02,-9.6802e-02,-1.0486e-01,-6.4270e-02,-9.2590e-02,-4.5349e-02,   1.2863e-02,-1.1407e-01, 8.4534e-02, 3.8818e-02,-2.3291e-01,-1.5649e-01,   9.7168e-02, 1.1261e-01,-8.5388e-02,-2.6688e-02, 4.8950e-02, 1.4209e-01], [ 3.0151e-01, 1.6342e-02, 2.9449e-02, 5.7312e-02, 2.3621e-02,-6.8176e-02,  -1.4551e-01,-3.6102e-02, 3.8177e-02, 6.7505e-02, 9.9548e-02,-4.2572e-02,  -5.0201e-02, 3.0079e-03,-1.2042e-01,-6.3820e-03, 1.0919e-01, 1.6931e-01,   3.1097e-02,-2.0715e-01,-8.6441e-03,-1.1536e-01, 1.6626e-01,-1.3115e-02,   9.5520e-02,-1.2384e-01,-3.2135e-02, 1.7615e-01,-6.0913e-02, 5.3467e-02,  -5.0720e-02, 6.4636e-02, 5.3375e-02,-9.1675e-02, 9.2285e-02,-8.1848e-02], [ 1.6785e-01,-2.2107e-01,-7.8003e-02,-2.1164e-02,-2.2449e-01,-1.1566e-01,   5.9998e-02, 2.1106e-01,-6.8176e-02,-1.4197e-01, 1.3550e-01,-1.8372e-02,  -9.8145e-02, 3.6377e-02, 6.4209e-02,-4.0817e-03, 2.5284e-02, 8.0383e-02,   1.8518e-01, 8.4412e-02,-8.6594e-03,-5.1147e-02, 8.5876e-02,-3.2196e-02,  -8.4106e-02,-1.2183e-01, 3.0273e-01, 7.2266e-02,-1.0132e-02, 1.4099e-01,   2.7173e-01, 9.6497e-02, 1.5271e-01, 7.2754e-02, 5.4932e-02,-1.6821e-01], [-2.2018e-02,-2.0361e-01, 2.1204e-01, 1.3013e-01,-6.2500e-02,-7.9651e-03,  -4.4495e-02, 1.2347e-01,-1.0876e-01, 1.1670e-01, 3.9490e-02,-1.6919e-01,   1.5344e-01, 1.3977e-01,-1.5099e-02,-1.9092e-01, 7.7454e-02,-1.6724e-01,  -9.5825e-02, 2.7246e-01, 1.3525e-01,-9.6375e-02,-1.0516e-01,-1.3680e-02,   9.9670e-02, 7.3547e-02,-1.4069e-02, 3.4497e-01,-1.3049e-01,-7.5317e-02,  -1.2219e-01, 2.2803e-01,-1.6617e-02,-4.7821e-02, 1.9824e-01, 1.0797e-01], [ 2.8784e-01, 1.4673e-01, 5.2216e-02, 9.3002e-03, 1.6370e-01,-1.2213e-01,   4.2511e-02, 1.3953e-01,-1.0958e-03, 8.9233e-02, 4.9286e-02,-1.0553e-01,   5.9845e-02, 4.7455e-02,-1.1066e-01, 3.9886e-02, 2.5360e-02,-4.2610e-03,  -2.3889e-01, 1.0065e-01,-2.2400e-02, 1.3770e-01,-5.8563e-02,-1.4404e-01,  -1.0541e-01, 1.0727e-02,-2.0422e-01, 8.1726e-02,-7.3425e-02, 1.7639e-02,  -2.2766e-02, 1.9617e-01,-1.3031e-02,-1.6113e-01, 2.7863e-02,-7.6416e-02], [-2.1326e-01, 6.2988e-02, 7.1289e-02, 1.9104e-01, 1.3293e-01,-2.3584e-01,   1.7432e-01,-4.2023e-02,-9.7900e-02,-1.2445e-01,-1.7410e-02,-9.4238e-02,  -1.1780e-01,-4.1718e-02, 3.8879e-02,-6.4270e-02, 2.5970e-02,-4.3144e-03,   9.2834e-02,-3.6401e-01,-8.1604e-02,-2.7390e-02, 8.1726e-02,-1.1932e-02,  -2.9688e-01,-1.5373e-03,-6.2164e-02, 1.9629e-01,-1.7993e-01, 1.2659e-01,  -1.2408e-01, 1.3831e-01,-7.5989e-02, 4.8752e-03, 1.4526e-02,-1.3440e-01], [-8.3862e-02,-8.7219e-02,-2.1191e-01,-2.0276e-01, 1.8933e-01,-1.4575e-01,   1.1523e-01, 6.5857e-02,-7.2327e-02, 8.9844e-02,-1.4001e-01,-1.5686e-01,  -2.0264e-01, 2.3767e-01, 5.7098e-02,-1.4099e-01,-6.4941e-02,-1.0211e-01,  -7.4463e-02, 4.2114e-02,-7.7744e-03, 2.5635e-01, 1.4673e-01, 5.8624e-02,  -5.3101e-02, 9.3262e-02,-9.6207e-03, 2.0542e-03,-2.9883e-01,-7.9117e-03,  -3.7994e-02,-4.6356e-02,-2.3682e-01,-9.1431e-02,-7.0862e-02,-8.4610e-03], [-3.5303e-01, 1.3354e-01, 3.2928e-02, 1.6931e-01,-1.4624e-01,-2.7271e-01,  -1.3440e-01, 1.0155e-02, 1.7175e-01,-1.7334e-01, 2.1521e-01,-1.4722e-01,   1.5182e-02,-1.5527e-01,-1.2000e-01,-1.9348e-01, 3.7964e-02,-5.0751e-02,  -1.7273e-02, 1.1192e-02,-1.7114e-01, 2.8760e-01,-2.5543e-02,-1.5808e-02,  -3.2288e-02,-9.6619e-02, 2.0044e-01, 3.7842e-02,-1.4075e-01, 7.0984e-02,   1.2585e-01, 5.9326e-02, 4.1229e-02, 1.3684e-01, 6.4209e-02,-1.7932e-01], [-2.4734e-02,-7.9651e-02, 2.3041e-02, 6.0547e-02,-1.5100e-01,-1.5601e-01,   4.0680e-02,-8.0627e-02, 4.0405e-02, 7.2205e-02, 1.4648e-01,-5.0690e-02,   7.3051e-03,-2.5116e-02, 4.5074e-02,-6.1310e-02, 1.3635e-01, 1.5894e-01,  -1.4824e-02,-5.2612e-02,-1.1108e-02,-4.5435e-01,-1.4478e-01,-1.5686e-02,   5.2551e-02, 3.2013e-02, 4.8767e-02, 9.5703e-02,-2.2412e-01,-3.0746e-02,  -1.3110e-01, 1.0327e-01, 4.5288e-02,-3.7445e-02,-4.2450e-02, 4.4525e-02], [-2.9688e-01,-3.0566e-01,-1.6663e-01,-1.6846e-01, 4.9194e-01,-2.2180e-01,   1.6711e-01, 4.9011e-02,-4.4739e-02, 1.9189e-01, 9.4757e-03,-2.1460e-01,   1.1993e-01, 5.2124e-02,-4.3610e-02, 3.4271e-02, 2.7100e-01,-3.5828e-02,   4.1771e-03,-8.2245e-03,-7.7057e-03,-3.9337e-02,-4.4739e-02, 7.5439e-02,   4.1840e-02, 6.1340e-02,-8.4045e-02, 1.6626e-01, 1.2978e-02, 3.6560e-02,   8.8196e-02, 3.5400e-02, 1.2720e-01, 5.8098e-03,-3.6194e-02, 1.0284e-01], [ 1.9272e-02, 3.2764e-01, 5.8258e-02,-3.3936e-01,-2.3047e-01,-2.1179e-01,   1.6449e-02, 1.0724e-01,-8.8501e-02,-4.8340e-02, 6.7322e-02,-4.4678e-02,   2.7634e-02,-1.5356e-01,-5.8838e-02, 4.9255e-02,-4.5563e-02,-9.6863e-02,  -5.0842e-02, 4.5868e-02,-1.5430e-01, 1.8356e-02,-3.3703e-03,-2.2339e-01,  -1.1406e-02,-5.7739e-02,-4.0955e-02,-1.4453e-01, 5.8624e-02,-5.7098e-02,  -2.4826e-02,-1.1780e-01,-3.2597e-03,-3.4637e-02, 9.6558e-02, 1.2720e-01], [-1.2006e-01, 8.6548e-02,-1.5393e-01, 2.2278e-02, 1.1688e-01,-4.0503e-01,   3.7781e-02, 1.5710e-01, 9.6436e-02,-2.5195e-01, 1.7102e-01, 8.0338e-03,   1.5869e-02,-2.9968e-02,-4.8065e-02, 7.7393e-02,-8.8167e-04, 1.5723e-01,   1.0211e-01, 2.0728e-01,-9.1858e-02, 1.4801e-02,-7.1350e-02, 1.1627e-01,   1.1505e-01, 9.4299e-02, 1.1469e-01, 1.1151e-01,-2.6810e-02, 1.3220e-01,   1.1743e-01, 9.8938e-02, 3.3783e-02, 1.5491e-01,-2.1591e-03, 1.2927e-01], [ 8.2626e-03,-3.7939e-01,-1.3403e-01, 7.7454e-02,-1.0883e-01, 5.7520e-01,   9.9731e-02,-3.4027e-03,-2.3193e-02, 4.1595e-02, 8.9478e-02,-1.0223e-01,  -4.2328e-02,-4.3488e-02, 1.7715e-02,-1.4877e-02,-9.9304e-02,-6.8378e-04,   2.9221e-02,-1.1890e-01,-1.8457e-01,-1.0327e-01, 2.1875e-01,-1.5613e-01,  -1.2964e-01, 1.5759e-01, 9.5558e-04,-1.6614e-01,-6.5857e-02,-4.0344e-02,  -1.5503e-01,-6.6757e-03,-8.5571e-02, 3.5583e-02, 1.0089e-01, 7.4402e-02], [-2.0227e-01,-6.8909e-02,-4.7333e-02,-1.9128e-01,-3.7817e-01, 4.3848e-01,  -5.0781e-02, 3.2082e-03,-4.1138e-02, 1.4258e-01,-8.7158e-02,-1.8298e-01,  -2.2842e-02, 9.6436e-02, 2.7802e-02, 1.7627e-01,-1.6785e-02,-3.0075e-02,   1.0242e-01,-1.3782e-01, 3.5419e-03, 2.4146e-01, 2.3303e-01,-1.2976e-01,   1.4075e-01,-6.5796e-02,-7.3120e-02,-9.7534e-02, 8.8745e-02,-1.2421e-01,  -3.3020e-02, 3.0054e-01,-8.2886e-02, 6.3858e-03, 1.4534e-02, 1.8774e-01], [-3.3325e-01,-1.0712e-01, 2.2192e-01, 1.8420e-01,-3.3813e-01, 5.3516e-01,   1.7834e-01, 1.4763e-02,-7.1960e-02, 5.2032e-02,-1.0364e-01, 5.3650e-02,  -1.5076e-01, 7.2205e-02,-2.1411e-01,-1.6211e-01,-2.2510e-01,-1.5442e-01,  -3.7903e-02,-4.2114e-02,-9.3994e-02,-3.8853e-03, 9.6008e-02,-3.8452e-02,   3.0422e-04, 3.2623e-02,-1.2524e-01, 7.1228e-02, 1.5564e-01, 3.7628e-02,  -1.8115e-01, 1.2787e-02, 4.0253e-02,-5.2673e-02, 1.2634e-01, 4.8035e-02], [-2.9688e-01,-1.9299e-01,-2.1741e-01,-1.0925e-01,-2.4988e-01,-1.3940e-01,  -4.9957e-02,-9.7534e-02,-2.5122e-01,-3.2291e-03, 1.2733e-02, 5.2002e-02,  -1.9092e-01,-1.5430e-01,-1.3000e-01,-1.8481e-01,-1.0834e-01, 1.9250e-01,  -1.2213e-01,-9.2529e-02, 2.4451e-01,-2.2400e-01, 1.2097e-01, 2.8442e-02,  -1.9958e-01, 1.7044e-02, 4.4274e-04,-2.2559e-01,-8.3069e-02, 9.4604e-02,  -2.1155e-01,-6.2988e-02, 3.4882e-02,-2.4194e-01,-2.4182e-01, 7.0190e-02], [-1.7688e-01,-5.9082e-02, 1.9031e-01,-3.8403e-01,-3.3398e-01, 2.9199e-01,   1.3452e-01, 9.5139e-03, 1.1609e-01,-3.2253e-03,-1.1639e-01, 1.1551e-02,   4.2328e-02, 9.0820e-02,-1.3403e-01,-9.9548e-02, 1.4160e-01, 7.3486e-02,   2.0862e-01,-2.1759e-02, 6.2256e-02, 3.9215e-02,-8.2169e-03, 1.2225e-01,   5.0903e-02, 9.0088e-02,-4.8462e-02, 1.9812e-01,-6.6109e-03, 4.9866e-02,  -6.2523e-03, 2.9404e-02, 1.4465e-01, 1.6028e-01, 2.7283e-02, 6.2599e-03], [-2.9346e-01,-1.8103e-01,-3.3081e-02,-3.3594e-01, 2.4951e-01,-2.5635e-01,   1.0095e-01,-1.6724e-02, 3.4485e-02, 9.4849e-02,-1.4732e-02, 2.2668e-01,  -8.8928e-02,-1.0706e-01,-6.3477e-02, 4.8218e-03,-1.9800e-01, 6.3293e-02,  -1.6516e-01,-2.1887e-01,-2.9736e-01,-2.0251e-01,-1.7700e-01,-2.2354e-02,  -5.8563e-02,-7.9529e-02,-2.0068e-01, 8.8196e-02,-1.7480e-01,-5.7831e-02,   2.6276e-02,-1.0327e-01,-2.9282e-02, 5.2673e-02, 6.8909e-02, 9.7168e-02], [ 4.6295e-02, 3.3960e-01,-3.8910e-02,-9.7084e-04, 7.2327e-02,-2.7368e-01,  -2.1423e-01, 7.5562e-02,-1.4587e-01,-2.2461e-02, 1.1096e-01,-7.9590e-02,  -1.2207e-01,-8.7158e-02,-2.3773e-02, 1.5466e-01, 3.8208e-02, 6.0921e-03,  -3.1311e-02,-2.7130e-02,-2.6294e-01, 6.3782e-02, 1.0748e-01, 2.9541e-02,  -6.2744e-02, 1.5894e-01,-2.7881e-01,-3.7903e-02,-8.9050e-02,-5.5122e-03,  -2.9984e-02, 1.2927e-01, 6.1188e-02, 1.5100e-01,-5.2277e-02, 1.4746e-01], [ 1.5466e-01, 2.0905e-02, 1.9800e-01, 2.7026e-01,-1.2085e-02,-4.6753e-02,  -4.7760e-02, 6.6833e-03, 2.7878e-02, 5.6793e-02,-3.7598e-02,-4.4250e-02,  -1.7261e-01, 2.2430e-02,-3.7872e-02, 3.0441e-02,-7.1983e-03,-7.9712e-02,  -3.5492e-02, 7.8979e-02,-8.1482e-02, 8.6914e-02,-2.3352e-01, 8.6365e-02,   2.3819e-02, 1.1639e-01,-2.2964e-03,-9.0210e-02,-2.7298e-02, 4.4525e-02,  -8.8562e-02, 7.0984e-02,-1.4160e-02,-1.1523e-01,-2.6703e-03, 3.4485e-02], [-2.1313e-01,-1.7249e-01, 2.9321e-01, 3.8452e-02,-2.2742e-01,-9.0637e-02,   1.3721e-01, 1.3367e-01, 2.4719e-03,-1.1163e-01, 2.1619e-01, 1.3672e-02,  -1.2215e-02,-7.2021e-02, 3.3356e-02,-1.5259e-01,-1.3342e-01, 1.0223e-01,   1.8774e-01, 1.1005e-01, 9.3628e-02, 1.8433e-02, 1.2451e-01,-1.7175e-01,  -7.2876e-02, 4.7150e-02, 8.2458e-02,-2.2430e-02,-1.5552e-01,-2.2888e-02,  -4.5013e-02, 9.1782e-03,-2.0065e-02,-6.3538e-02, 9.0027e-03,-2.3865e-02], [-5.2582e-02, 1.5222e-01,-2.6764e-02, 2.0264e-01,-1.7981e-01,-2.2009e-01,   1.9202e-01, 1.4929e-01, 2.1835e-02,-9.3445e-02, 4.8370e-02,-1.3171e-01,   7.6904e-02, 1.3049e-01, 1.3708e-01, 1.6602e-02,-1.1609e-01,-4.8370e-02,  -8.0505e-02, 7.8278e-03, 1.1298e-01,-1.1316e-01, 4.9835e-02, 4.4670e-03,   8.1665e-02, 5.6458e-03,-5.4352e-02, 6.6986e-03,-4.3579e-02,-5.4169e-02,   1.4465e-01,-1.4441e-01, 7.5378e-02, 1.7383e-01,-1.1902e-01,-1.5491e-01], [ 7.0862e-02, 9.7839e-02, 1.0913e-01, 2.8613e-01,-7.0862e-02,-2.1667e-01,   1.4819e-01, 1.2109e-01, 1.9836e-01,-3.6316e-02, 1.4137e-02,-7.6416e-02,   7.1106e-02,-7.4219e-02, 1.6129e-02, 1.9763e-01,-1.0229e-01,-1.4075e-01,  -1.4636e-01,-1.4185e-01,-4.9164e-02, 3.6652e-02, 1.4319e-01,-9.5520e-02,   2.3364e-01, 8.9478e-02,-5.9692e-02,-5.9418e-02, 2.2507e-02,-6.8176e-02,   3.9635e-03,-6.0150e-02, 1.8884e-01, 5.4108e-02, 1.0034e-01,-9.4421e-02], [ 2.7710e-01,-1.3037e-01,-3.0396e-02, 2.4573e-01,-1.8298e-01,-7.1228e-02,  -1.2488e-01,-1.8034e-03, 3.6041e-02, 2.7790e-03,-5.0171e-02,-2.9694e-02,   5.1453e-02,-1.4575e-01, 4.3579e-02,-8.4839e-02, 5.5786e-02, 1.3000e-01,   1.0327e-01,-1.0736e-01, 2.4429e-02, 1.2842e-01,-4.6021e-02,-9.4971e-02,   1.9556e-01, 4.5258e-02,-1.5472e-02, 1.0693e-01,-1.6525e-02,-7.1655e-02,   3.6896e-02, 1.4563e-01,-1.2274e-01, 1.9031e-01, 1.9800e-01,-9.1003e-02], [-1.6370e-01,-1.9934e-01,-1.1230e-01,-3.0591e-01,-3.5742e-01, 7.2607e-01,  -2.5215e-03, 1.3847e-03,-3.2983e-01, 1.2915e-01,-8.8684e-02,-1.3635e-01,  -9.1309e-02, 5.5573e-02,-2.0605e-01, 7.5562e-02, 2.1729e-01, 1.8835e-01,   1.6205e-02,-1.7822e-01, 2.3352e-01, 9.6619e-02,-4.1870e-02, 1.3940e-01,  -2.3145e-01,-1.1176e-01,-1.5686e-01, 7.0740e-02,-1.6272e-01,-6.2561e-02,  -4.2877e-02, 6.7993e-02,-8.9661e-02,-3.1311e-02, 8.8989e-02,-4.6478e-02], [-9.8572e-02,-3.5278e-02, 1.7914e-02,-1.6455e-01,-5.1605e-02, 8.4076e-03,   1.5039e-01, 1.4524e-03, 8.4595e-02, 1.3159e-01, 2.0825e-01,-1.3892e-01,   7.7942e-02,-3.3905e-02,-5.9013e-03,-1.0852e-01,-9.7595e-02,-1.8774e-01,  -2.5467e-02, 2.5635e-02,-1.2445e-01, 6.8542e-02, 1.1395e-01, 1.4929e-01,   1.2054e-01, 9.5154e-02,-4.9957e-02,-1.6577e-01,-3.4729e-02,-1.3538e-01,   6.0699e-02, 6.0608e-02,-1.5320e-02, 1.0449e-01, 6.9214e-02, 1.2695e-01], [-9.0515e-02, 3.0762e-01,-3.8770e-01, 2.6587e-01,-1.2634e-01,-2.5781e-01,   1.4870e-02,-4.7455e-02, 1.0931e-01,-1.9128e-01, 1.3745e-01,-1.9312e-01,   4.9362e-03,-1.1108e-01, 8.4991e-03,-2.0294e-02, 9.7046e-02, 1.2012e-01,  -2.4826e-02,-1.7334e-02, 7.4646e-02, 2.3941e-02, 7.7576e-02, 4.6844e-02,   4.8401e-02,-1.7796e-03, 1.7273e-02, 1.6321e-01,-2.0679e-01,-4.0405e-02,  -1.2769e-01, 6.9214e-02, 1.9360e-01,-1.2842e-01,-1.4856e-01,-5.0751e-02], [-3.1396e-01,-4.2139e-01,-3.6646e-01,-1.6870e-01,-1.3574e-01, 1.2041e+00,   6.9656e-03, 1.9104e-01,-2.9199e-01, 3.0746e-02,-3.9551e-02,-8.6914e-02,  -1.2646e-01,-1.4305e-02,-4.0833e-02,-2.8760e-01, 3.5522e-02, 2.1057e-01,  -8.6243e-02, 5.7159e-02,-3.9154e-02,-7.5867e-02,-4.4159e-02,-2.1240e-02,  -6.4926e-03,-6.4659e-03, 2.2290e-01, 2.5220e-01,-2.9248e-01, 9.0332e-02,  -9.6863e-02, 1.3831e-01,-6.0577e-02,-6.1768e-02, 8.4656e-02,-1.6150e-01], [-1.8848e-01, 6.8909e-02,-1.7554e-01, 2.7783e-01,-9.3201e-02,-7.1045e-02,   1.3953e-01,-2.3834e-02, 8.0444e-02,-2.1094e-01,-5.1300e-02, 1.7175e-01,   1.0551e-02, 2.1545e-01, 1.0339e-01, 1.1279e-01, 2.7451e-02,-6.0028e-02,  -1.1926e-01,-6.1768e-02,-9.1064e-02, 2.7344e-02,-4.3518e-02, 1.6525e-02,  -1.3684e-01, 7.2327e-02,-3.5095e-02, 1.9312e-01,-7.0679e-02, 1.0925e-01,  -6.6223e-02,-1.1078e-01,-6.3477e-02,-2.4124e-02, 4.5471e-03,-5.0323e-02], [ 3.1921e-02, 8.1177e-03,-1.0333e-01,-3.0371e-01,-1.7731e-02,-1.5527e-01,  -2.7634e-02, 4.6112e-02,-6.0791e-02,-1.4368e-01, 9.2285e-02,-1.9669e-02,  -5.8960e-02, 9.3262e-02, 7.5623e-02,-7.6599e-02,-1.7078e-01, 7.8918e-02,  -6.0638e-02,-3.9642e-02, 2.4756e-01,-1.3306e-01,-1.7847e-01, 4.8180e-03,   1.2335e-01, 2.2498e-01,-1.3379e-01, 4.5166e-03, 5.9296e-02, 1.3818e-01,  -3.2440e-02, 3.3203e-02, 8.3008e-02,-1.6150e-01, 2.9633e-02,-1.5808e-01], [-2.6636e-01,-8.8684e-02, 3.1299e-01,-1.9458e-01,-1.2720e-01,-1.3110e-01,  -1.1536e-02,-6.9946e-02, 7.0984e-02, 1.1810e-01,-5.4718e-02,-1.4221e-01,   1.5454e-01,-9.9304e-02,-1.0632e-01,-9.8389e-02, 1.4697e-01, 9.6558e-02,   7.6782e-02,-7.1259e-03,-1.7651e-01, 9.6130e-02,-1.4172e-01,-3.7140e-02,  -1.6983e-02,-1.0400e-01, 2.9266e-02, 6.2927e-02,-1.2878e-01, 9.3628e-02,  -8.4778e-02, 5.8533e-02, 3.8361e-02,-4.1046e-03, 5.2887e-02,-1.0651e-01], [-3.1494e-02,-1.1035e-01,-6.4026e-02,-1.0712e-02, 1.7249e-01,-2.1350e-01,  -3.4698e-02,-3.8788e-02,-4.4891e-02, 1.2671e-01, 2.6709e-01, 2.6413e-02,  -7.6172e-02, 1.5356e-01,-3.1647e-02, 5.8472e-02,-5.1994e-03,-1.8176e-01,  -9.2651e-02, 1.1841e-01, 1.5076e-01, 5.9662e-02, 1.0486e-01, 8.0811e-02,   1.0876e-01,-1.3831e-01, 6.1951e-02, 5.5580e-03, 1.5735e-01,-1.3855e-01,   2.0691e-01, 7.9590e-02,-9.7839e-02,-1.9031e-01,-7.6599e-02, 1.7883e-01], [ 3.7183e-01, 1.6333e-01, 3.3417e-03, 2.7612e-01,-3.7292e-02,-1.2073e-01,   2.1521e-01, 1.1060e-01, 1.0223e-01,-7.8430e-02,-1.2598e-01,-1.4490e-01,   4.5288e-02, 1.7908e-01, 5.7129e-02, 8.0872e-04, 1.7542e-01,-3.2501e-02,   1.0663e-01, 1.1032e-02,-2.0959e-01,-1.7224e-01, 5.8411e-02, 3.7117e-03,   1.4453e-01, 1.7944e-02, 7.9285e-02,-3.0151e-01, 1.7993e-01, 8.6731e-02,   1.0582e-02,-1.2793e-01, 1.4746e-01,-5.4749e-02,-2.7878e-02,-2.7618e-02], [ 2.6245e-01,-2.2668e-01, 1.6321e-01, 5.6610e-02,-4.4769e-02, 3.5675e-02,  -6.1737e-02,-3.1776e-03,-1.0278e-01, 1.8994e-01,-1.3285e-03, 2.9102e-01,   9.8999e-02, 4.4495e-02, 2.1362e-01, 8.4412e-02,-1.5511e-02, 1.8201e-01,  -2.0580e-03, 2.3174e-03,-4.1992e-02,-1.0156e-01,-1.1890e-01,-1.8286e-01,  -1.8433e-01, 1.2225e-01,-1.9180e-02, 2.2510e-01, 2.8854e-02,-7.8430e-02,   7.7271e-02,-9.9670e-02,-1.6431e-01,-6.1836e-03, 9.7534e-02, 9.9915e-02], [ 1.3806e-01,-3.9990e-01, 1.7993e-01, 3.5706e-02,-3.7354e-01,-4.4861e-02,   4.4647e-02, 1.8787e-01, 5.7739e-02, 3.6377e-02,-2.6505e-02, 7.4646e-02,   1.3013e-01, 1.6589e-01, 5.6213e-02, 5.0629e-02,-1.9434e-01, 3.8635e-02,  -1.4478e-01,-2.0706e-02,-2.0771e-03, 6.0987e-04,-1.2109e-01,-3.2135e-02,   1.2177e-01, 1.4488e-02,-1.9849e-01, 2.0485e-03,-2.6782e-01, 1.3828e-03,  -8.6594e-03,-2.0187e-02, 7.0496e-02,-2.4292e-01, 3.1311e-02,-9.2957e-02], [ 2.3254e-01,-1.2793e-01, 1.8555e-01,-1.0608e-01, 3.2471e-01,-1.9629e-01,   5.4047e-02, 7.8003e-02,-3.0182e-02,-9.7534e-02,-8.8196e-03,-1.5112e-01,  -8.7097e-02,-1.8677e-02, 9.5581e-02,-6.4514e-02,-1.4734e-01, 1.1584e-01,   5.0751e-02, 1.0321e-01,-5.0629e-02,-1.7685e-02,-6.7078e-02, 6.9656e-03,   1.0901e-01,-5.7281e-02,-2.4854e-01,-6.0516e-02,-1.1401e-01, 5.6519e-02,  -1.8201e-01,-5.1025e-02,-2.9022e-02, 3.4302e-02,-7.8308e-02,-9.4788e-02], [ 3.1433e-02,-1.6956e-01, 3.0518e-01, 2.7808e-01, 4.2572e-03, 7.0850e-01,  -8.0444e-02,-2.9004e-01, 1.7798e-01, 5.4932e-02, 1.7380e-02,-3.6377e-02,   1.9934e-01,-2.1387e-01, 2.8641e-02, 4.0802e-02, 3.2104e-02,-2.9114e-02,  -1.6113e-02, 7.9041e-02,-4.7455e-02,-1.0590e-02, 1.6150e-01,-1.3489e-01,  -2.2583e-02, 6.8855e-03,-1.6650e-01,-1.1169e-01, 3.5828e-02,-3.7201e-02,  -1.5381e-02,-1.5759e-01, 6.1768e-02,-4.3144e-03,-9.6130e-02, 2.8961e-02], [ 2.4805e-01, 3.0469e-01,-2.8076e-01,-6.7932e-02,-1.2781e-01,-2.0215e-01,  -1.8555e-01, 7.6294e-02,-1.2863e-02, 2.8244e-02, 4.1275e-03, 6.4209e-02,   1.1826e-02,-8.0017e-02,-1.3220e-01, 8.7158e-02, 4.8431e-02, 3.0716e-02,  -8.3008e-03, 1.2329e-02, 1.5991e-02,-5.3925e-02, 7.1228e-02, 1.1420e-01,   5.1575e-02, 1.9885e-01,-2.3486e-01,-1.1975e-01,-7.1373e-03,-9.2041e-02,  -1.0193e-01,-8.9844e-02,-3.2593e-02, 1.1340e-01,-1.5393e-01,-1.0925e-01], [-1.6870e-01,-1.0614e-01,-4.3433e-01,-2.4426e-01,-2.0959e-01, 1.7120e-02,   1.2030e-01,-2.5085e-02,-1.5450e-03, 6.5430e-02, 1.5662e-01, 1.2213e-01,   1.4331e-01,-7.4501e-03, 1.1957e-01,-9.3872e-02, 1.2744e-01, 4.9553e-03,  -9.3994e-02,-9.0332e-02,-1.8762e-01, 4.9072e-02, 6.5660e-04, 3.5278e-02,  -1.1407e-01, 1.7981e-01, 4.2816e-02,-1.2610e-01, 4.7974e-02, 3.4561e-03,   2.8000e-02, 7.7332e-02,-6.5125e-02, 4.2816e-02, 3.8544e-02, 6.5796e-02], [ 1.0449e-01,-2.9688e-01, 3.4937e-01,-1.3782e-01,-1.5442e-01,-1.3168e-02,  -7.6111e-02,-1.4148e-01,-8.1604e-02,-6.4270e-02, 3.7598e-02, 9.2850e-03,  -7.3004e-04, 5.6381e-03, 8.0872e-02, 1.0413e-01,-7.4097e-02, 5.2643e-03,   1.2708e-01, 2.1582e-01, 8.4152e-03,-1.0242e-01, 1.6797e-01, 3.1158e-02,  -5.8380e-02,-1.6891e-02, 9.3872e-02, 2.0264e-02,-9.2590e-02, 1.2927e-01,  -8.5999e-02, 7.3730e-02, 3.1860e-02,-3.0396e-02, 8.6121e-02, 1.6077e-01], [ 2.3914e-01, 3.4448e-01,-6.8909e-02,-3.2202e-01,-1.9141e-01,-1.3940e-01,   1.4880e-01, 2.0776e-01,-1.1072e-01, 1.0657e-01, 8.9417e-03, 4.8047e-01,  -5.7953e-02,-4.0131e-02, 1.1682e-01,-9.8206e-02,-8.3191e-02, 1.9373e-01,  -4.0833e-02,-1.2146e-01, 6.8054e-02,-1.8225e-01,-5.8258e-02,-2.8961e-02,  -1.1652e-01,-5.0278e-03,-1.0840e-01, 1.4380e-01,-2.5513e-01, 1.0567e-02,   2.2751e-02,-4.6478e-02,-2.3328e-01,-7.4310e-03,-6.3049e-02,-2.5696e-02], [ 9.2773e-02, 1.8384e-01,-3.8892e-01, 5.7709e-02,-3.5132e-01,-3.0957e-01,  -1.3062e-01,-1.2646e-01,-7.6485e-03,-8.8501e-02,-1.1926e-01, 1.1603e-01,  -1.2500e-01,-2.4704e-02,-2.8336e-02, 1.6251e-02, 5.8685e-02, 7.9590e-02,   5.2338e-02, 1.5381e-01,-7.6416e-02, 1.8478e-02,-5.6274e-02,-4.0802e-02,   8.4900e-02,-1.2018e-01,-3.8361e-02,-6.0692e-03, 1.3855e-01, 5.7220e-02,   7.2021e-02, 1.6006e-02,-5.2429e-02,-7.3738e-03,-3.6469e-02,-8.4167e-02], [-2.8244e-02,-1.5674e-01,-2.7051e-01,-1.1646e-01,-4.6295e-02, 7.9639e-01,   6.7688e-02, 3.5522e-02,-2.9492e-01,-2.0432e-02,-6.1737e-02,-1.3855e-01,  -6.0150e-02,-1.2825e-02,-6.3599e-02,-6.7566e-02, 1.4685e-01, 5.1727e-02,  -1.0370e-01, 1.0510e-01,-8.1543e-02,-1.3074e-01,-5.9662e-02,-1.1536e-01,  -2.9175e-01,-9.3384e-02,-8.7646e-02, 1.0918e-02, 5.0812e-03, 3.5583e-02,  -1.6138e-01,-4.6563e-04,-7.4341e-02,-2.6291e-02, 1.4697e-01, 7.9407e-02], [ 7.3242e-02,-1.1346e-01, 5.4138e-02, 5.2063e-02,-3.1860e-02,-9.0149e-02,   1.0455e-01, 3.1519e-01,-1.4111e-01,-1.0425e-01,-3.2845e-03, 1.0666e-02,  -1.8628e-01, 6.2500e-02, 1.6992e-01, 9.0454e-02, 1.6821e-01, 6.3782e-02,  -3.1677e-02, 2.3450e-01, 7.3669e-02, 1.2927e-01, 4.5654e-02,-6.4392e-02,  -1.5747e-01,-2.3047e-01,-1.3603e-02, 4.4971e-01,-3.1299e-01,-1.7700e-01,   2.4207e-01, 3.2959e-01,-1.1749e-01, 4.7302e-02,-2.5558e-02,-1.4856e-01], [-1.2268e-02,-1.6919e-01,-1.6382e-01,-1.3940e-01,-3.4058e-02,-1.3232e-01,  -5.7587e-02, 1.3940e-01, 1.0016e-01,-5.4749e-02, 1.5271e-01, 8.9722e-02,   1.1151e-01, 1.4038e-01, 1.2170e-01, 1.5515e-01, 3.4882e-02, 2.8046e-02,   2.0959e-01,-5.7404e-02,-9.8083e-02,-5.9784e-02, 6.0806e-03, 7.3425e-02,   4.5624e-02,-2.2964e-02, 3.5767e-02,-1.3062e-01, 8.5327e-02,-8.2031e-02,  -8.8257e-02, 1.6650e-01, 2.2781e-02,-1.1810e-01, 2.5772e-02,-2.7222e-02], [-2.3889e-01,-2.9126e-01,-3.1030e-01,-2.0728e-01, 4.3433e-01,-2.6733e-01,   8.9600e-02, 8.9340e-03,-2.7417e-01,-6.1798e-02, 1.8631e-02, 2.7298e-02,  -1.7188e-01,-2.1875e-01, 2.3218e-01, 8.1787e-02, 1.8225e-01,-5.3101e-02,   1.8539e-02, 4.9957e-02,-6.5308e-02, 1.9763e-01,-7.4768e-02, 1.1011e-01,   1.9385e-01,-1.3062e-01,-7.9773e-02, 1.0571e-01,-1.9385e-01, 1.1395e-01,  -3.5156e-02, 7.6904e-02,-6.3110e-02, 4.6349e-03,-5.9998e-02,-4.4556e-02], [ 1.1902e-01, 1.1621e-01,-8.5388e-02, 4.4678e-02,-2.1606e-01,-1.5527e-01,   2.1350e-01,-6.6162e-02,-7.2021e-02,-1.7334e-02,-1.0962e-01,-7.7698e-02,   1.0431e-01,-3.4332e-02,-1.2085e-01,-1.0248e-01, 3.5034e-02,-4.0855e-03,   9.8572e-02, 1.0693e-01, 1.3916e-01,-1.5007e-02,-7.2815e-02, 2.5650e-02,  -1.6693e-02, 1.0535e-01, 1.9791e-02,-1.7896e-01, 2.5293e-01,-1.0590e-01,   6.7078e-02, 2.9007e-02, 8.6182e-02,-1.6541e-01,-2.3779e-01, 7.4768e-02], [-1.8872e-01, 5.6122e-02,-3.6987e-01, 1.8542e-01, 7.6599e-02,-2.4017e-02,  -6.5308e-02, 2.9419e-02, 4.1504e-02,-1.7432e-01, 2.7878e-02,-5.6549e-02,   8.0933e-02,-1.5369e-01,-6.4636e-02, 1.4941e-01, 1.6345e-01,-1.1120e-03,  -1.0303e-01, 4.2206e-02, 2.6123e-02,-1.1803e-02, 4.2084e-02, 5.9265e-02,  -3.9734e-02,-2.0798e-02,-9.7229e-02, 6.3721e-02,-1.2854e-01, 1.6174e-01,   5.7678e-02, 1.9730e-02, 1.7807e-02, 6.7505e-02,-9.1309e-02, 2.5772e-02], [-2.0483e-01,-3.9764e-02, 6.8932e-03,-3.1763e-01,-2.5757e-01,-9.2957e-02,   4.6295e-02, 6.0577e-02, 3.4271e-02, 1.1981e-01, 6.9031e-02, 4.3396e-02,  -7.4341e-02, 3.5828e-02,-1.1377e-01, 1.8845e-02,-8.8135e-02,-1.5320e-01,  -8.5510e-02,-1.7615e-01, 3.7811e-02, 3.8452e-02,-5.1819e-02, 9.2529e-02,  -1.8250e-01,-4.6417e-02,-6.4026e-02, 1.2524e-01,-2.3425e-01,-1.0834e-01,   2.7817e-02,-9.7717e-02,-1.2866e-01,-4.0833e-02,-1.6248e-01, 5.7465e-02], [-1.8384e-01, 2.4133e-01,-1.2610e-01,-2.4561e-01, 6.5735e-02,-3.3154e-01,   8.1482e-02,-7.3914e-02,-2.6807e-01, 5.5542e-02, 2.4536e-02, 1.2634e-02,  -1.1505e-01, 2.4695e-01, 1.7139e-01, 9.3689e-02, 3.5248e-02, 1.3306e-01,   1.4014e-01,-2.5146e-01, 2.3987e-01,-3.9551e-02,-5.7411e-03,-1.9678e-01,   1.4954e-01,-9.7839e-02,-4.9377e-02,-9.6680e-02, 7.7209e-02, 2.6611e-02,  -1.2164e-01,-1.9363e-02,-1.2317e-01,-9.7168e-02, 7.2876e-02,-1.0040e-01], [-1.2405e-02,-7.4829e-02,-2.3071e-02, 7.1411e-02, 1.1823e-01,-1.0132e-01,   1.0719e-02,-1.0876e-01,-7.1655e-02, 5.3864e-02,-5.5664e-02,-1.0852e-01,   1.0706e-01, 7.8308e-02,-1.9702e-01,-6.0913e-02, 5.0995e-02, 1.6516e-01,   2.9614e-01,-2.1838e-01, 2.5269e-01, 1.3831e-01, 3.6560e-02,-2.9639e-01,   3.5919e-02,-5.1086e-02,-1.1481e-01, 2.6733e-01,-2.3157e-01,-1.6296e-01,   1.9531e-02, 1.1365e-01,-2.9984e-02, 3.5339e-02,-8.0933e-02,-1.1249e-01], [ 1.4795e-01,-3.0151e-01,-1.3708e-01, 3.3179e-01,-1.7004e-01,-6.9031e-02,   9.7839e-02,-6.3965e-02,-1.0785e-01,-1.5918e-01, 1.5173e-01,-4.3564e-03,  -1.9608e-02,-1.3218e-03,-7.9895e-02,-2.0154e-01,-2.3773e-02,-8.5083e-02,  -3.3447e-02, 5.9296e-02, 8.9539e-02, 1.1314e-02,-1.1249e-01,-2.8427e-02,   6.3232e-02,-1.8295e-02,-7.4768e-02, 4.8340e-02,-3.6133e-01,-9.2468e-03,   1.0223e-02, 1.9312e-01,-8.9264e-03,-4.7516e-02,-2.5925e-02,-5.8838e-02], [-1.2769e-01, 3.2520e-01, 1.3416e-01,-5.1147e-02,-1.2903e-01,-2.7051e-01,   1.0242e-01, 5.0385e-02, 1.0809e-01, 1.0107e-01, 1.2024e-01,-6.9824e-02,   9.5825e-02,-2.6154e-02,-1.2585e-01,-1.9495e-01, 1.2152e-01,-2.5696e-02,   1.9958e-01,-1.6699e-01, 1.8628e-01,-4.5128e-03,-1.2610e-01,-4.8279e-02,   2.0886e-01,-1.1682e-01,-1.6281e-02,-4.3823e-02, 1.5564e-01, 6.2744e-02,   1.2134e-01,-6.5735e-02, 2.2241e-01,-1.8384e-01,-6.1218e-02,-7.9163e-02], [ 2.0386e-01, 1.1536e-02,-9.1125e-02, 2.2485e-01,-1.0815e-01, 4.6844e-02,  -1.0181e-01,-1.1169e-01,-1.2219e-01,-3.8361e-02, 1.5857e-01, 4.9019e-03,  -1.2146e-01,-1.2256e-01,-1.7932e-01, 6.0303e-02,-7.0435e-02,-1.4844e-01,  -3.7781e-02,-1.8030e-01, 1.0956e-01, 1.6870e-01,-9.1187e-02,-4.2496e-03,   1.4478e-01, 1.0217e-01,-1.5613e-01, 1.9873e-01, 1.1053e-01,-4.6883e-03,  -1.0693e-01,-9.3018e-02,-3.2166e-02, 1.2915e-01,-1.3025e-01, 2.8412e-02], [-3.0347e-01,-3.2739e-01, 4.1351e-02, 1.3440e-01,-3.4717e-01, 6.3379e-01,   5.0873e-02,-1.2915e-01, 3.3588e-03, 1.2671e-01, 5.2147e-03,-1.8396e-01,   1.3440e-01, 1.1719e-01, 9.9609e-02, 5.5664e-02, 6.5979e-02, 4.7424e-02,   1.4905e-01, 2.3279e-01, 2.0789e-01, 1.7603e-01,-1.7505e-01,-1.1304e-01,  -6.1378e-03, 8.5388e-02,-8.4457e-03, 2.3499e-01,-1.6510e-02,-6.3110e-02,  -8.7830e-02, 1.5015e-01, 8.9294e-02, 2.2144e-03, 1.6983e-02, 2.3453e-02], [-3.0347e-01, 1.4404e-01, 1.6650e-01, 6.2103e-02,-2.7588e-01,-2.6318e-01,  -1.3513e-01, 7.3181e-02,-3.6530e-02,-9.5764e-02, 1.2061e-01, 2.4390e-01,   3.1567e-03,-1.9699e-02, 1.4124e-01, 8.1604e-02, 1.0852e-01, 1.7322e-01,   1.3892e-01, 4.9896e-03, 2.0557e-01,-2.4487e-01,-9.7168e-02, 1.6525e-02,   1.4368e-01, 3.3665e-04, 1.6406e-01, 2.9858e-01,-3.0347e-01, 1.4417e-01,   5.9174e-02,-8.2397e-02,-1.0699e-01, 1.5222e-01, 2.8870e-02,-4.0741e-02], [ 4.3945e-02, 1.1420e-01, 5.8136e-02,-2.4658e-01, 3.8147e-02,-2.3291e-01,   1.5552e-01, 1.8689e-01, 3.0838e-02, 1.2292e-01, 5.9814e-02,-3.2562e-02,  -6.7627e-02,-7.8308e-02, 7.8247e-02,-1.9653e-01,-1.2280e-01, 1.1450e-01,  -3.6743e-02,-9.7229e-02,-2.4011e-01, 2.3657e-01, 4.1931e-02,-1.5312e-02,  -6.1249e-02, 5.5481e-02, 2.3026e-02,-2.1194e-02,-1.4343e-01,-1.8762e-01,   4.9347e-02, 1.1438e-01, 1.0338e-02, 3.1921e-02, 6.5125e-02, 5.3528e-02], [-1.9238e-01,-6.8588e-03,-6.4209e-02,-2.2290e-01,-7.2754e-02,-9.2957e-02,   1.2610e-01,-1.1169e-01, 1.7480e-01, 1.5251e-02, 1.9189e-01, 1.5588e-01,   3.8916e-01, 2.5049e-01,-1.2695e-01, 2.3682e-02, 1.4343e-01, 1.2134e-01,  -7.4097e-02,-5.2979e-02, 1.0126e-01,-2.7817e-02, 1.1963e-01, 6.6895e-02,   1.1029e-01,-9.6252e-02, 8.3252e-02,-2.0386e-01, 1.0767e-01,-4.9477e-03,   1.4270e-01, 1.7126e-01, 1.3550e-01, 1.5295e-01,-4.5624e-02,-1.8005e-01], [-2.7863e-02,-2.1106e-01, 1.1017e-01, 2.2803e-01,-1.7200e-01, 6.8506e-01,   2.5586e-01,-7.5073e-02, 8.1665e-02, 2.7924e-02,-6.2065e-03,-5.2338e-02,   5.1178e-02,-1.2009e-02, 1.1759e-03,-1.2054e-01,-4.2267e-02,-2.2180e-01,   1.5593e-04,-1.6272e-01,-8.0444e-02,-2.3788e-02,-6.3049e-02, 6.8665e-02,   1.0162e-01, 1.1981e-01, 4.0222e-02,-1.2622e-01,-1.0657e-01, 8.4534e-02,   7.9117e-03,-4.2847e-02, 2.1863e-01,-4.0009e-02,-1.3586e-01, 7.9498e-03], [ 1.1127e-01, 3.1836e-01,-3.1592e-01,-1.2500e-01,-1.6223e-01, 7.6172e-01,   1.4575e-01, 2.8662e-01, 1.0345e-01,-8.6365e-03,-1.0583e-01,-9.6924e-02,  -1.3000e-01, 7.5500e-02, 7.2388e-02,-1.0544e-02, 2.6901e-02,-1.5796e-01,  -2.0740e-01, 4.0863e-02, 4.8462e-02, 1.7529e-01, 2.6131e-03, 6.3171e-02,   1.4795e-01, 4.9438e-02,-9.0179e-03, 2.0190e-01,-1.1768e-01,-7.2815e-02,  -5.3650e-02, 3.7384e-02,-1.0004e-01,-1.2079e-01, 1.1940e-02, 1.2354e-01], [ 1.2634e-01, 4.5288e-01, 3.4271e-02, 7.0984e-02,-1.7502e-02,-2.4811e-02,   3.8330e-02, 1.6272e-01,-7.3181e-02,-1.3757e-01,-7.3242e-02,-7.5500e-02,   1.0437e-01, 1.0681e-01, 1.7444e-01,-3.1311e-02,-1.2848e-02, 6.9214e-02,  -9.1919e-02, 3.7689e-02,-5.3368e-03, 1.1612e-02,-3.3966e-02, 4.1626e-02,  -1.6870e-01,-9.7290e-02,-1.8213e-01, 2.1680e-01, 7.2937e-02,-4.6204e-02,  -1.7807e-02,-2.6321e-02, 7.4280e-02,-5.7587e-02, 1.3501e-01, 1.0107e-01], [ 1.5173e-01,-5.0049e-01, 1.6711e-01, 8.6365e-02,-1.3733e-01, 7.3535e-01,  -1.6403e-02, 2.1896e-02,-9.9792e-02, 7.0618e-02,-6.2195e-02, 2.0447e-02,   1.6632e-02, 1.6394e-01,-6.6650e-02,-4.7394e-02, 9.1553e-02, 1.9604e-01,   4.5441e-02, 3.4271e-02, 1.0712e-01, 1.1249e-01,-2.2507e-02, 4.1504e-02,   6.0699e-02,-2.1802e-01, 1.0822e-01,-6.8726e-02,-1.3824e-02, 6.2218e-03,  -7.4585e-02,-6.2927e-02,-8.2031e-02,-1.4893e-01, 1.2230e-02, 1.0217e-01], [ 1.9458e-01,-3.1274e-01,-1.8665e-01,-2.1436e-01,-4.0137e-01, 6.5967e-01,  -1.4282e-01,-8.3740e-02, 6.5735e-02, 3.8849e-02,-4.7028e-02, 1.1823e-01,  -7.2327e-02, 1.6956e-01,-5.6671e-02,-7.3853e-03,-1.2384e-01, 6.1951e-02,  -1.4526e-01, 1.1725e-01,-1.6211e-01, 5.2528e-03, 6.3782e-02, 7.1350e-02,   2.2290e-01, 1.8542e-01, 9.3872e-02,-1.9440e-02,-8.3435e-02,-6.6162e-02,   8.1055e-02, 7.4707e-02,-5.0232e-02, 9.1003e-02, 9.3567e-02, 1.4148e-01], [ 9.2529e-02, 6.0333e-02, 9.7351e-02, 1.2433e-01,-2.3743e-02,-1.1041e-01,   7.6782e-02,-1.9128e-01, 1.3745e-01, 1.2097e-01,-1.0132e-01,-7.6233e-02,  -8.4473e-02, 7.9895e-02,-1.7834e-01,-1.3843e-01,-8.6731e-02, 3.9795e-02,   2.1826e-01, 6.0333e-02,-1.0022e-01, 3.0258e-02,-1.1395e-01,-2.6685e-01,   9.1553e-02, 6.1646e-02,-3.9673e-02, 1.8115e-01, 1.9043e-02,-1.4343e-01,   4.8332e-03,-5.2094e-02, 1.0834e-01, 6.9641e-02, 4.8035e-02, 7.5623e-02], [-1.9897e-01,-2.1997e-01, 1.0645e-01, 7.0312e-02,-2.7197e-01, 3.1616e-01,   5.9723e-02, 7.8201e-04,-2.5024e-03,-1.3928e-01,-4.8248e-02, 1.4185e-01,  -1.4069e-02,-9.7717e-02,-4.6814e-02, 7.2449e-02, 1.5526e-02, 9.5642e-02,   1.3062e-01,-2.6108e-02,-9.9365e-02,-8.2336e-02, 1.4107e-02, 1.5369e-01,   8.8501e-02,-8.6975e-02, 1.1407e-01,-7.1289e-02,-2.1759e-02, 3.7415e-02,   5.9906e-02,-2.3529e-02,-4.0497e-02, 4.1443e-02,-3.0273e-02, 1.5564e-01], [-5.3497e-02,-1.9180e-02, 2.0447e-01, 1.3330e-01,-5.8746e-02,-5.9021e-02,  -2.0203e-02,-7.6050e-02,-6.4453e-02,-2.5220e-01,-1.8018e-01,-6.1066e-02,  -1.1475e-01,-4.1428e-03,-8.8623e-02,-5.5176e-02, 1.7639e-01,-1.8701e-01,   1.4661e-01, 7.0190e-02,-4.1412e-02, 7.3120e-02,-1.3867e-01, 1.9373e-01,   1.0303e-01, 1.6342e-02, 3.8395e-03, 1.3232e-01,-2.8516e-01,-4.5319e-02,   1.5454e-01, 2.5952e-01,-8.7280e-02, 2.0361e-01,-7.0435e-02,-1.8567e-01], [-1.6382e-01, 6.3049e-02,-3.4644e-01, 2.6172e-01, 1.1511e-01,-3.8843e-01,   2.1082e-01,-1.7542e-01,-3.2501e-02, 5.5511e-02,-8.6121e-02,-8.6212e-03,   1.4075e-01, 2.2729e-01, 6.4392e-02,-1.8713e-01,-7.7271e-02, 2.1576e-02,  -3.9490e-02,-6.5613e-02,-9.0454e-02,-1.9446e-01,-1.0516e-01,-3.4424e-01,  -1.4697e-01, 6.4453e-02,-2.6810e-02, 1.4258e-01,-4.8218e-02, 2.3730e-01,   6.5186e-02, 7.6477e-02,-1.1505e-01,-6.7017e-02, 4.5715e-02, 1.0944e-01], [-7.3671e-04, 1.6858e-01,-2.7881e-01,-2.9004e-01,-2.8369e-01,-3.3691e-01,  -2.1545e-01, 2.0493e-02,-3.5400e-02,-9.3079e-02, 3.5614e-02, 9.3018e-02,   1.8665e-01, 1.2177e-01, 7.2144e-02,-2.6050e-01, 6.0394e-02,-1.7725e-01,  -8.6670e-03, 4.0970e-03,-6.2500e-02, 1.2854e-01, 3.2043e-02, 1.3721e-01,  -2.2241e-01, 1.7014e-02, 1.6724e-01,-5.4817e-03, 6.3843e-02,-9.3872e-02,   5.1910e-02, 7.3914e-02,-7.3814e-03, 8.7952e-02,-2.4219e-01,-2.5171e-01], [ 1.3257e-01, 1.1462e-01, 5.6038e-03,-2.3743e-01, 2.4292e-01,-1.5527e-01,  -2.9297e-02, 5.7556e-02, 8.8684e-02,-9.7900e-02, 1.5344e-01,-1.6809e-01,  -8.5205e-02, 7.8247e-02,-1.3745e-01,-5.6915e-02,-1.5027e-01, 1.4417e-01,   1.1267e-01, 5.5573e-02, 8.5831e-03,-1.4587e-01,-5.8624e-02,-9.2834e-02,   1.2238e-01, 1.4856e-01,-1.7175e-01,-3.6907e-03, 1.2830e-01, 1.3379e-01,  -1.0059e-01,-2.8275e-02, 5.6458e-03, 1.6968e-02, 7.3730e-02,-9.4727e-02], [-9.2651e-02, 1.7609e-02,-2.5195e-01, 1.8201e-01,-1.3635e-01,-1.9019e-01,   7.1289e-02, 7.7629e-03,-9.7656e-02,-1.6272e-01,-1.9821e-02, 8.0566e-02,  -1.4209e-01,-1.4441e-01, 7.1838e-02, 3.9215e-03, 1.0901e-01, 2.9785e-02,   2.3364e-01, 8.2947e-02, 1.2537e-01, 1.9934e-01,-5.9753e-02, 1.2939e-01,  -1.3847e-02,-2.8027e-01, 1.2305e-01,-3.9886e-02,-2.3657e-01,-1.9531e-01,   2.2192e-01, 5.4474e-02, 1.5137e-01, 7.4524e-02,-3.1452e-03,-6.1523e-02], [ 1.2830e-01,-3.2593e-01,-2.6474e-02, 2.9468e-01,-1.9385e-01,-2.4414e-01,   2.2461e-01, 2.1774e-02, 1.1023e-01,-1.3794e-01, 1.3710e-02, 1.7053e-01,  -7.3242e-02,-3.0640e-02, 1.7725e-01,-1.4014e-01,-2.6294e-01, 9.9182e-02,  -6.7383e-02,-1.6113e-01,-1.2463e-01,-8.2397e-02,-4.6967e-02, 8.8867e-02,  -1.8600e-02,-1.3420e-02,-7.5745e-02, 1.4307e-01,-1.4868e-01,-8.9478e-02,   1.0858e-01, 5.6091e-02,-6.6345e-02, 2.4002e-02, 3.9886e-02,-1.8994e-01], [-2.7612e-01,-9.0210e-02,-1.8823e-01,-3.0127e-01,-1.1908e-01, 1.0820e+00,  -9.3506e-02, 4.7546e-02,-2.3474e-01, 2.3766e-03,-3.6850e-03, 1.4359e-02,  -1.2708e-01, 9.2346e-02, 1.7896e-01,-3.4088e-02, 1.2917e-02, 1.3565e-02,  -9.4482e-02,-4.2328e-02, 4.2343e-03,-1.1002e-02, 1.4648e-02,-9.0698e-02,   6.8176e-02, 1.6190e-02, 1.4893e-02, 1.2915e-01,-1.3171e-01, 2.2510e-01,   4.2664e-02, 1.4539e-01,-4.6112e-02, 1.2805e-01, 9.5749e-03,-3.3447e-02], [-1.9678e-01,-9.3155e-03,-1.8234e-02, 2.1866e-02,-2.6550e-02, 1.1658e-01,   4.1687e-02, 9.0088e-02, 4.9652e-02, 4.0283e-02, 1.7957e-01, 1.5015e-02,  -1.0536e-02,-2.9221e-03,-1.3135e-01,-1.2396e-01, 2.8247e-01,-2.2559e-01,  -4.4312e-02,-1.2398e-03, 1.6589e-01, 3.7280e-01, 4.5166e-01,-1.7432e-01,  -1.9348e-01,-5.7709e-02, 1.3989e-01,-5.6366e-02, 1.3367e-01,-9.8755e-02,   1.6541e-01,-6.7383e-02, 4.6509e-02,-3.2928e-02,-2.3376e-01, 1.1414e-01], [-1.9165e-01,-4.1602e-01, 9.6741e-02, 1.8298e-01,-4.2529e-01, 5.6104e-01,   2.8625e-02, 1.2398e-02, 5.1819e-02, 2.7847e-02,-9.7229e-02,-5.1361e-02,   4.4037e-02,-1.3184e-01, 1.0132e-01,-7.9224e-02,-8.6975e-02,-2.0233e-02,   5.7129e-02,-1.1865e-01, 1.4075e-01, 1.3074e-01, 6.1340e-02,-2.5024e-01,  -5.3986e-02,-1.0553e-01,-1.2305e-01,-2.4170e-02, 7.0862e-02, 1.1407e-01,   1.6565e-01, 6.4697e-02, 1.6281e-02,-1.3464e-01,-1.3123e-01, 2.2400e-02], [-7.9407e-02, 5.3680e-02, 3.0319e-02,-6.5247e-02, 6.7993e-02,-1.2054e-01,   3.2318e-02,-6.0120e-02,-3.7659e-02, 3.5706e-02, 1.7932e-01,-1.0681e-01,   5.4321e-03, 1.1957e-01, 1.5427e-02, 6.1279e-02,-9.1187e-02,-1.6125e-01,   2.3895e-02, 3.7323e-02, 1.0475e-02,-1.0583e-01, 1.4795e-01, 1.8066e-02,  -3.4821e-02,-2.9251e-02,-3.5217e-02,-5.8777e-02, 1.7505e-01, 1.3501e-01,   1.5774e-03, 2.4078e-02,-6.4453e-02, 4.1809e-02, 3.0029e-02, 1.2152e-01], [-3.6841e-01, 2.1558e-01, 3.2129e-01,-9.2285e-02,-9.9121e-02,-2.5928e-01,   1.0236e-01,-8.2703e-02,-7.4707e-02,-5.2734e-02,-1.7737e-01,-8.0322e-02,   4.9957e-02, 3.4882e-02, 1.0504e-01,-2.5436e-02, 5.1880e-02, 9.1064e-02,   2.8397e-02,-2.7679e-02,-1.0284e-01, 1.4136e-01, 1.8481e-01,-7.2784e-03,   1.5259e-01,-3.9368e-02,-9.7290e-02,-3.7720e-02,-8.7433e-03, 4.8065e-02,   7.9651e-02,-1.7053e-01, 1.0788e-02,-7.3608e-02,-8.8379e-02,-9.8877e-03], [-2.8183e-02, 1.1456e-01, 9.3933e-02,-6.2012e-02, 2.4475e-02,-2.2290e-01,   5.1941e-02, 6.6757e-03,-2.2534e-01, 1.3770e-01,-1.4294e-01, 7.8369e-02,   9.2407e-02,-1.7593e-02,-1.9836e-02, 1.1060e-01, 2.6147e-01, 1.7236e-01,   3.2440e-02, 5.1910e-02, 1.0822e-01,-2.1741e-01,-5.9845e-02, 4.7363e-02,  -1.0736e-01,-1.2744e-01,-9.1431e-02, 2.7002e-01,-2.6245e-02,-2.3636e-02,   5.0140e-02, 1.7432e-01,-2.4719e-01, 1.6052e-02,-6.6643e-03,-9.1431e-02], [ 1.9417e-03,-2.3193e-02,-3.8208e-02, 2.2815e-01,-2.2388e-01, 3.4119e-02,   2.4915e-01, 1.8433e-01, 2.5238e-02, 7.6843e-02, 1.4697e-01,-1.0107e-01,   4.2084e-02,-4.0955e-02, 2.5345e-02, 1.4381e-02,-1.6098e-02,-7.1655e-02,   2.2607e-01,-5.4291e-02, 1.9556e-01,-6.6528e-02, 1.3586e-01, 2.3938e-01,  -6.5979e-02,-7.8125e-02, 1.7981e-01, 1.6800e-02, 1.9006e-01,-2.3834e-02,   2.5293e-01,-1.1310e-01, 1.9641e-01,-7.1030e-03,-6.6162e-02,-5.9021e-02], [-6.6833e-02, 1.6281e-02, 9.7961e-03,-1.3831e-01, 4.1542e-03, 3.7842e-02,   5.6030e-02, 1.9775e-02, 4.4189e-02, 2.5467e-02, 9.6924e-02, 6.5430e-02,   2.0325e-01, 1.1894e-02,-2.2354e-03, 7.1228e-02,-9.7595e-02,-3.8086e-02,   5.5962e-03, 1.6626e-01, 5.4016e-02,-6.5674e-02,-2.4948e-02,-5.6549e-02,  -1.5671e-02,-4.2572e-02, 1.2030e-01,-5.3009e-02, 1.3000e-01, 2.7618e-02,   6.4331e-02,-4.2938e-02, 1.0632e-01,-1.6174e-01, 6.5491e-02,-6.8176e-02], [ 9.6252e-02,-2.1887e-01, 3.2886e-01,-9.3811e-02, 1.6711e-01,-4.0381e-01,   7.7209e-02, 3.2471e-02, 8.0627e-02,-1.4191e-02, 1.5039e-01, 2.0471e-01,  -1.6113e-01, 1.3440e-01, 4.9500e-02, 1.4490e-01,-1.6492e-01, 1.0034e-01,  -1.9714e-01,-1.5564e-01,-4.6501e-03,-8.0627e-02, 3.1982e-02,-1.1981e-01,  -1.2122e-01,-1.2524e-01,-1.6858e-01,-1.6342e-02,-2.9907e-02, 9.9182e-02,  -3.6041e-02,-3.3813e-02,-6.8481e-02, 8.9600e-02,-1.3512e-02, 5.2795e-02], [ 2.0801e-01,-4.5459e-01, 1.0004e-01,-1.3867e-01, 1.5320e-01,-1.5845e-01,  -8.6487e-02,-1.0529e-01,-9.5886e-02,-3.9886e-02, 1.1993e-01,-1.9702e-01,   4.4128e-02,-1.2903e-01, 5.5023e-02,-1.5100e-01, 8.7830e-02, 7.1411e-02,   1.8347e-01,-1.0602e-01, 1.0052e-01, 4.5357e-03, 1.9470e-01,-2.4988e-01,   1.3843e-01,-1.4209e-01, 8.7585e-02, 1.1841e-01,-4.2603e-02, 1.6467e-01,  -1.0468e-01, 8.6365e-02,-9.5825e-03, 6.0486e-02, 4.4617e-02, 7.0740e-02], [-1.9739e-01, 1.1090e-01, 1.3013e-01, 2.1240e-01,-6.3660e-02,-2.8711e-01,   2.3361e-02, 1.4368e-01,-9.6252e-02,-2.9846e-02,-6.2469e-02, 6.8054e-02,  -8.7128e-03, 2.7679e-02, 5.4779e-02, 5.5328e-02, 1.6891e-02, 1.8164e-01,  -7.0557e-02,-1.6943e-01, 2.4194e-01,-2.9572e-02, 1.2158e-01,-1.2299e-01,   1.4343e-01,-1.9055e-01,-1.5149e-01, 9.3628e-02,-6.6284e-02,-7.8735e-02,   1.9775e-01, 4.9622e-02,-1.2720e-01, 1.0266e-01, 9.8694e-02,-2.3239e-02], [-1.8811e-01, 2.1106e-01,-1.4807e-01,-4.2798e-01,-2.8052e-01, 7.2314e-01,  -1.2708e-01, 1.8005e-01,-5.6274e-02,-7.1167e-02, 7.6637e-03,-8.6792e-02,  -8.2397e-02,-4.0710e-02,-5.2216e-02,-3.1769e-02,-7.0862e-02, 2.7390e-02,   1.0071e-01, 9.5886e-02,-1.2177e-01,-7.2754e-02, 1.8738e-02,-3.5614e-02,   8.6304e-02,-1.9058e-02, 6.1493e-02,-2.3694e-01,-1.4734e-01,-1.3947e-02,   9.3201e-02,-9.1614e-02, 5.0751e-02,-3.6430e-03, 5.2429e-02,-1.0022e-01], [-3.6963e-01,-1.1584e-01, 5.5847e-02, 7.4463e-02,-2.8467e-01, 6.6162e-01,   1.6748e-01, 1.4087e-01,-6.3721e-02,-6.4026e-02, 8.3130e-02, 7.3303e-02,  -1.3318e-01,-5.1422e-02, 1.9153e-01,-1.5955e-01, 1.3440e-01,-9.0515e-02,  -1.8750e-01, 1.7993e-01,-3.6896e-02, 6.2439e-02,-1.9360e-01,-3.7933e-02,   1.9824e-01,-2.3361e-02, 3.0731e-02,-1.4210e-03,-1.7017e-01, 8.5449e-02,  -2.1008e-01, 8.6060e-03, 5.4535e-02,-1.1823e-01, 6.2042e-02,-8.0078e-02], [-4.8035e-02, 2.1561e-02,-2.4609e-01,-4.0649e-02,-2.3083e-01, 3.6353e-01,   1.8164e-01, 1.3000e-01,-2.1777e-01, 8.3740e-02, 9.8083e-02, 7.0312e-02,  -1.6150e-01, 4.4708e-02, 2.0813e-01, 5.0995e-02, 2.0767e-02,-1.5491e-01,   1.5662e-01, 9.7473e-02,-1.4526e-01,-1.1249e-01, 5.6152e-02, 2.0239e-01,   7.0679e-02, 1.3257e-01,-8.9966e-02, 4.9652e-02,-9.8953e-03,-1.2817e-01,   2.8992e-02,-1.3745e-01, 1.3354e-01, 6.5613e-02, 1.0529e-01,-1.6602e-01], [ 2.4438e-01, 9.8267e-02, 2.8540e-01,-4.5044e-02,-1.0333e-01,-1.1542e-01,  -8.2703e-02, 9.3506e-02,-2.4292e-01,-1.3660e-01,-1.1761e-01,-9.8450e-02,  -1.9287e-01,-1.3623e-01, 1.6260e-01,-7.8674e-02, 2.4246e-02,-4.1901e-02,  -3.7842e-02,-1.7200e-01, 5.3009e-02,-3.7048e-02, 2.9068e-02,-5.3223e-02,   1.0565e-01, 3.2135e-02,-1.8921e-01, 3.1342e-02, 5.2521e-02, 1.2402e-01,  -2.4597e-02, 3.1097e-02,-1.5759e-01, 2.7054e-02,-8.3191e-02,-3.2471e-02], [ 1.2415e-01,-1.8945e-01,-3.9648e-01,-5.4077e-02,-2.1460e-01, 8.9209e-01,  -5.6152e-02, 1.5900e-02,-2.7612e-01,-1.0669e-01,-1.0455e-01, 1.4429e-01,   1.0803e-01, 1.1859e-01,-2.0008e-03, 8.3435e-02, 2.0264e-01, 1.6272e-01,   1.5967e-01, 1.6138e-01,-3.2013e-02, 7.2670e-04, 3.3081e-02,-1.7859e-01,   1.6504e-01, 1.5259e-01,-1.0071e-01, 6.3538e-02, 6.8420e-02,-1.0199e-01,   1.0345e-01, 1.4758e-01,-1.9922e-01, 1.7163e-01, 2.0554e-02,-5.8838e-02], [ 2.8882e-01,-3.3105e-01,-9.9670e-02, 2.7002e-01,-9.1003e-02,-1.9055e-01,   5.8472e-02,-1.9409e-01,-5.3955e-02,-1.4197e-01, 1.9470e-01, 2.6392e-01,  -1.6708e-02,-1.5259e-01, 1.2756e-01,-1.1551e-02, 8.6182e-02, 1.6382e-01,  -1.4539e-01,-4.9591e-02,-1.2646e-01, 8.1787e-02, 1.3831e-01, 2.0593e-01,   7.0953e-04,-9.0027e-02, 3.2949e-04, 6.9641e-02,-1.8640e-01,-1.0216e-02,  -9.2163e-02,-1.0083e-01, 7.1777e-02, 6.4026e-02,-6.4392e-02,-3.5797e-02], [-6.8420e-02, 6.8726e-02,-5.6934e-01, 9.5642e-02,-3.1421e-01, 1.0925e-01,   6.2866e-02,-6.9702e-02,-2.9968e-02, 1.2244e-01, 9.6985e-02,-2.1985e-01,  -1.3574e-01,-8.5938e-02,-3.2623e-02, 9.8694e-02,-9.5215e-02, 1.9043e-02,  -1.5393e-01, 3.9215e-02,-1.7810e-01, 2.3889e-01, 1.0735e-02, 1.7004e-01,   9.6558e-02,-1.6357e-02, 6.2805e-02, 1.2711e-02,-1.6760e-01, 8.6121e-02,   9.1248e-03, 8.9600e-02, 6.9214e-02, 7.4446e-05, 9.8694e-02, 6.8237e-02], [-4.2065e-01,-2.9663e-01,-1.9958e-01,-3.9404e-01,-9.2346e-02, 9.3066e-01,   1.7871e-01, 1.1774e-01,-3.0176e-01, 1.3977e-01, 1.9373e-01, 1.4807e-01,  -6.5979e-02, 2.7023e-02, 1.8506e-01,-1.9165e-01,-7.1045e-02, 3.1891e-02,  -8.2153e-02, 1.2378e-01, 1.1511e-01,-7.5378e-02,-1.8112e-02, 1.2189e-01,  -1.1884e-01, 4.0924e-02,-3.0502e-02, 2.5879e-01,-4.1235e-01, 8.2581e-02,  -2.8488e-02, 2.9846e-02,-2.6587e-01,-1.1139e-02, 6.5369e-02,-9.4360e-02], [ 1.9482e-01,-2.8015e-02,-1.0297e-01,-1.4697e-01, 7.7026e-02,-4.7095e-01,   3.1067e-02, 7.3776e-03,-7.2327e-02, 7.8857e-02, 2.4597e-02, 5.1483e-02,  -2.8763e-02,-1.7105e-02, 5.1636e-02,-2.3706e-01, 6.4774e-03, 2.1924e-01,  -6.2134e-02, 2.0056e-01, 6.8909e-02, 2.6123e-02,-1.5613e-01,-2.1667e-01,   1.6675e-01, 1.9141e-01, 1.3741e-02,-6.3354e-02,-3.4485e-03,-8.0017e-02,   1.4685e-01, 1.1078e-01,-1.3110e-01, 5.4901e-02, 1.4478e-01, 9.9731e-02], [-3.3398e-01,-1.6113e-01,-3.3936e-01,-3.9551e-01, 5.3613e-01, 1.2988e-01,  -1.5002e-01,-1.3318e-01,-8.5449e-02,-1.3013e-01,-5.4840e-02,-6.2195e-02,  -4.7791e-02,-1.7715e-02, 1.4999e-02,-1.4380e-01, 1.5039e-01, 1.7761e-01,  -4.2572e-02, 1.3428e-01,-1.2805e-01,-1.4050e-01, 8.3557e-02,-9.6680e-02,   2.2919e-02, 6.5346e-03,-1.8372e-01, 2.7612e-01,-5.0262e-02, 1.8066e-01,  -2.1179e-01, 1.7590e-01,-2.7466e-02,-1.7405e-03,-7.5745e-02, 4.3213e-02], [-1.4880e-01,-8.0933e-02,-1.5063e-01, 2.1680e-01,-2.7466e-01, 6.4551e-01,   1.8433e-01, 1.0931e-01, 6.7444e-02, 1.7493e-01, 1.2061e-01, 2.1558e-01,  -1.0791e-01,-1.5088e-01,-2.4323e-02, 1.6785e-01,-2.2034e-02, 2.9697e-03,   1.1469e-01,-1.3525e-01,-1.3745e-01,-2.3230e-01, 9.8145e-02, 7.6477e-02,  -8.0139e-02,-3.0624e-02, 2.1713e-02, 6.1798e-02,-9.1919e-02, 4.7302e-03,  -8.1360e-02, 4.4250e-02,-2.7054e-02,-6.8054e-02,-2.3590e-02, 5.9357e-03], [ 1.6918e-03,-1.2646e-01, 2.0288e-01,-3.1030e-01, 2.1106e-01,-3.5156e-01,   5.6549e-02,-1.0718e-01, 9.3018e-02,-4.1443e-02, 1.5991e-02,-1.7810e-01,  -8.1299e-02,-3.4729e-02,-2.1204e-01, 1.1102e-01,-2.1741e-01,-1.1664e-01,   3.0228e-02,-1.0602e-01, 8.9722e-02, 2.2729e-01, 2.8305e-02, 1.5686e-01,   7.6477e-02,-2.1118e-01,-4.2572e-02,-1.0974e-01,-7.6172e-02, 3.6449e-03,  -1.1664e-01, 1.0760e-01, 7.2144e-02, 6.1981e-02, 3.4981e-03,-1.5393e-01], [ 3.2379e-02,-1.3879e-01, 1.0406e-01,-1.1444e-01,-3.6279e-01, 3.7329e-01,  -1.3977e-01,-6.7200e-02,-1.2097e-01, 3.8574e-02, 1.1414e-01, 1.3452e-01,  -1.3989e-01,-1.5894e-01,-1.2756e-01, 8.1360e-02, 2.4170e-01,-6.8542e-02,   2.0752e-01, 1.3293e-01, 1.3867e-01,-1.2378e-01,-7.7148e-02, 1.6650e-01,  -1.2201e-01,-1.3013e-01, 2.1948e-01,-6.0577e-02,-1.8448e-02, 6.6040e-02,  -9.2957e-02, 6.7993e-02,-4.3243e-02, 2.8418e-01,-6.9580e-02, 5.7831e-02], [ 1.8103e-01, 9.7839e-02, 2.7710e-01,-3.0835e-01, 5.4138e-02,-2.7319e-01,  -1.1676e-01,-5.7709e-02,-7.0763e-03,-1.3977e-01, 3.4454e-02,-7.0190e-02,  -1.3538e-01,-2.7002e-01,-6.6650e-02, 5.9357e-03, 9.7595e-02,-1.6510e-02,  -3.9581e-02, 6.2988e-02,-1.7053e-01, 7.6782e-02, 1.0788e-02, 1.6101e-01,  -5.4382e-02, 4.3221e-03, 7.4863e-04, 3.3600e-02,-2.3010e-01, 1.1158e-04,  -1.8774e-01, 2.5024e-01,-1.1847e-01, 1.0614e-01, 1.8921e-01,-5.7953e-02], [ 9.1858e-02,-1.0553e-01,-2.1777e-01, 2.7075e-01,-9.9426e-02,-1.9556e-01,  -2.9639e-01, 1.9067e-01, 8.0933e-02, 7.8278e-03, 1.6858e-01, 1.5735e-01,   1.2585e-01,-3.3203e-02, 5.0110e-02, 1.2109e-01,-4.3549e-02,-1.0144e-01,   1.3496e-02, 3.9246e-02, 5.3070e-02, 3.1204e-02, 1.1670e-01,-3.1525e-02,   6.3599e-02, 3.2013e-02,-1.6187e-01, 2.3895e-02,-1.9116e-01,-2.9888e-03,  -3.6621e-02, 2.4902e-01,-6.7200e-02,-1.9348e-01, 1.8213e-01, 4.2908e-02], [ 2.3108e-01, 6.3477e-02,-1.8518e-01,-4.3579e-02,-5.1544e-02,-2.2607e-01,  -1.3208e-01, 2.3914e-01, 3.8666e-02,-2.1960e-01, 1.5955e-01, 2.0276e-01,   1.0175e-01, 1.0696e-02, 2.0233e-02, 3.4912e-02, 1.4404e-01, 1.2610e-01,   1.8994e-01, 1.0864e-01, 2.2202e-02, 1.5236e-02, 1.3916e-01, 6.4514e-02,   5.8350e-02, 4.5197e-02, 1.8689e-01, 2.5977e-01,-1.5295e-01,-4.9408e-02,   1.9434e-01, 1.6830e-02, 2.7100e-02, 1.3440e-01,-3.7048e-02, 1.0114e-01], [-2.7686e-01, 5.9570e-02,-2.6077e-02,-3.7134e-01,-1.6785e-01,-9.7473e-02,  -3.1525e-02,-2.3755e-01, 5.0232e-02, 1.6504e-01,-2.2293e-02,-1.6284e-01,  -1.3952e-03,-2.0361e-01, 3.4668e-02,-5.6549e-02,-4.7821e-02,-5.8136e-02,  -9.3506e-02, 2.3267e-01, 7.5928e-02,-1.0724e-01,-1.5967e-01, 8.8440e-02,   1.4124e-01, 7.6477e-02,-5.6152e-03, 1.5027e-01,-7.3181e-02, 1.1560e-01,   1.6760e-01, 1.8024e-03, 1.4717e-02,-1.1154e-02,-3.1738e-02,-1.4229e-02], [ 9.7595e-02, 1.7163e-01, 3.0273e-02, 1.4355e-01,-1.1267e-01,-8.8196e-02,   1.1023e-01, 3.2812e-01,-9.2224e-02,-1.0522e-01, 7.9285e-02, 1.5735e-01,   1.8408e-01,-3.7994e-02,-9.4727e-02, 5.3009e-02,-1.3952e-03, 1.5434e-02,   1.6296e-01,-9.0271e-02,-1.0754e-01, 5.9814e-02, 1.4148e-01, 6.0028e-02,   7.9163e-02,-1.2524e-01, 2.8091e-02, 2.6025e-01, 1.0750e-02, 2.3010e-02,   8.4900e-02,-6.6833e-02,-1.1530e-01, 3.2623e-02,-1.5625e-01,-7.7759e-02], [ 1.0010e-01,-3.0792e-02,-1.2952e-01,-8.7341e-02,-1.7041e-01,-1.3867e-01,  -8.7463e-02, 2.9346e-01,-9.6924e-02,-3.5278e-02, 2.2668e-01,-3.3417e-02,   1.0181e-01, 9.9487e-03,-1.8335e-01,-2.4854e-01,-1.2671e-01, 3.6538e-05,   2.2461e-01,-4.8859e-02, 1.4734e-01,-4.7363e-02, 1.1285e-01, 8.4412e-02,   1.5137e-01,-1.9421e-01, 7.0618e-02, 9.2896e-02, 8.8196e-02,-1.1646e-01,   1.2622e-01,-2.2221e-03, 3.6346e-02, 6.8420e-02,-9.4910e-02,-6.2500e-02], [ 6.3416e-02,-1.8408e-01,-5.7434e-02,-4.8340e-01,-1.0455e-01, 6.0889e-01,   1.8860e-01,-1.6284e-01, 3.0090e-02,-3.2080e-01,-5.7037e-02,-5.9906e-02,   1.0547e-01, 4.8370e-02,-1.9751e-01,-2.4731e-01,-9.8633e-02, 1.1469e-01,  -1.0791e-01,-6.9397e-02, 1.2866e-01, 3.8757e-02, 2.9404e-02, 1.1978e-02,   3.4313e-03, 1.1365e-01, 4.4128e-02, 1.0065e-01,-1.9104e-01, 1.5068e-02,  -2.3987e-02, 1.4661e-01,-1.9006e-01,-6.8398e-03,-4.5700e-03,-3.2837e-02], [ 4.7577e-02, 1.8225e-01,-9.9060e-02, 1.2244e-01, 8.7341e-02,-1.6797e-01,   8.8196e-02, 1.6467e-01, 8.7830e-02, 1.2917e-02,-2.1240e-01,-7.7576e-02,  -8.2031e-02, 3.5474e-01,-2.4368e-02,-1.9080e-01, 4.9774e-02,-6.2347e-02,   9.1187e-02, 9.6054e-03, 9.9716e-03,-1.0889e-01, 2.4915e-01, 1.1926e-01,  -1.2939e-01,-2.5818e-02,-1.6296e-02, 4.9072e-02, 5.7556e-02, 1.8506e-01,  -1.2146e-01, 6.6895e-02, 4.6143e-02, 2.1289e-01, 4.6730e-03, 1.0025e-02], [-9.1919e-02, 3.5449e-01,-6.4148e-02, 1.6553e-01,-1.8909e-01,-2.1973e-01,  -7.6538e-02, 1.5381e-01,-8.4656e-02, 2.4460e-02, 1.2042e-01, 1.0788e-02,  -1.0757e-02, 1.4124e-01,-4.7638e-02, 9.0393e-02, 2.5940e-02,-5.8746e-02,  -1.4915e-02, 7.2266e-02, 9.5154e-02, 9.9182e-02, 3.5553e-02, 1.1005e-01,  -9.4421e-02, 5.7953e-02, 1.6165e-03,-1.3306e-01,-9.4543e-02,-2.5177e-03,  -2.0554e-02,-1.1194e-01, 3.8239e-02,-1.2347e-01, 1.0547e-01,-1.5564e-01], [ 2.9565e-01,-7.4158e-02,-8.6121e-02,-1.2537e-01,-1.5735e-01,-1.7603e-01,  -4.2419e-02, 1.7041e-01, 3.4790e-03, 5.2765e-02, 1.7566e-01, 1.8274e-01,   1.8112e-02,-6.1768e-02,-8.2031e-02,-6.2683e-02,-8.7814e-03,-2.8015e-02,  -3.8483e-02, 1.0368e-02,-2.7103e-03, 5.0598e-02,-1.1650e-02,-6.1340e-02,   5.4588e-03, 6.5796e-02, 7.5760e-03,-9.1614e-02,-1.7212e-02,-3.7994e-02,  -4.9835e-02, 1.1230e-01,-1.1798e-01,-2.0660e-02, 1.2512e-01,-4.1168e-02], [-1.2854e-01,-1.4893e-01, 5.1392e-02,-1.5503e-01,-6.3416e-02,-1.0010e-01,  -5.5237e-02, 1.9104e-01, 8.3313e-02, 1.6833e-01, 1.4539e-01,-1.8579e-01,   2.8687e-02, 2.3632e-03, 5.6671e-02, 1.5717e-02, 1.3098e-01,-2.2937e-01,  -3.0884e-02,-4.3854e-02, 2.8735e-01,-6.3110e-02, 3.3661e-02,-6.6284e-02,  -2.5366e-01,-1.0199e-01,-1.6937e-02,-1.1896e-01, 3.7793e-01, 3.3936e-02,  -7.0984e-02, 5.3619e-02, 1.4807e-01,-7.8918e-02,-2.4719e-02, 5.2002e-02], [-3.7445e-02, 1.6739e-02, 3.5706e-02, 5.3131e-02,-5.8624e-02, 2.4658e-02,   2.3544e-02, 1.3318e-01,-9.3750e-02, 3.8776e-03, 2.7351e-03,-3.6652e-02,  -1.1639e-01,-1.2842e-01, 3.0289e-02,-8.8196e-02,-1.1798e-01,-9.6130e-02,   2.5238e-02, 1.2598e-01,-3.4149e-02,-6.6650e-02, 1.0370e-01,-7.4219e-02,   4.0955e-02,-1.2500e-01,-4.9225e-02,-8.2520e-02, 9.9792e-02, 3.1624e-03,   2.1713e-02,-5.0926e-03, 2.5070e-02,-6.9641e-02,-2.1439e-03,-1.4917e-01], [ 3.2654e-02, 6.4087e-02, 1.7957e-01, 2.1814e-01,-6.0059e-02, 2.5558e-02,   9.2102e-02, 5.2124e-02, 9.8938e-02, 2.9037e-02,-1.7424e-03,-2.4231e-01,  -9.7198e-03,-1.1017e-01, 1.7908e-01, 7.9880e-03, 3.8818e-02,-1.9409e-01,  -7.6721e-02, 8.3740e-02, 3.9337e-02,-1.0046e-01,-5.1392e-02,-5.6824e-02,  -8.7830e-02,-1.1542e-01,-1.1047e-01, 1.6370e-01, 3.1490e-03, 1.4587e-01,  -2.0300e-01, 1.1395e-01, 1.5991e-02,-5.0323e-02,-9.6985e-02, 7.6416e-02], [ 1.2115e-01,-4.1333e-01,-1.5784e-01,-7.9712e-02,-5.2124e-02, 4.7534e-01,   7.8979e-02, 1.7181e-02, 1.8140e-01, 4.1695e-03,-1.2085e-01, 1.0750e-02,  -5.7770e-02, 6.3660e-02,-2.4277e-02, 1.5967e-01, 1.8445e-01, 3.9043e-03,   6.3477e-02,-9.5764e-02, 2.4194e-01, 2.2385e-02, 4.2175e-02,-1.7932e-01,  -1.7908e-01,-1.2299e-01,-7.6714e-03,-6.8054e-02, 8.5022e-02, 2.1866e-02,   8.3374e-02, 1.5282e-02,-8.4915e-03, 1.3939e-02,-6.3843e-02, 7.4951e-02], [-1.7773e-01, 1.9666e-01, 1.6870e-01,-2.2803e-01,-7.7759e-02,-1.3000e-01,   1.4648e-01, 2.5708e-01, 1.0547e-01, 6.9885e-03,-6.1279e-02, 6.1432e-02,   3.2990e-02,-1.6187e-01,-1.0691e-03,-2.3499e-01,-1.2781e-01,-9.5520e-02,   1.3086e-01,-1.9788e-01,-5.7404e-02,-1.1487e-01, 1.0052e-01,-1.2646e-01,   8.6731e-02, 4.6509e-02,-1.1407e-01,-6.5308e-02,-7.6660e-02,-1.4722e-01,   1.7456e-01,-1.5808e-01, 8.4290e-02,-6.4636e-02, 1.3196e-01, 9.9060e-02], [ 4.4891e-02, 6.7078e-02,-1.4511e-02,-9.9609e-02,-1.3647e-01,-2.8076e-02,   2.3962e-01,-2.2720e-02,-1.1127e-01,-5.9082e-02, 3.6377e-02,-3.7689e-02,  -8.5571e-02, 1.3672e-01,-1.2433e-01, 3.6804e-02,-1.0339e-01,-2.2314e-01,   2.1655e-01, 7.4890e-02, 1.1359e-01,-9.5581e-02, 1.5149e-01, 4.1779e-02,   3.4515e-02,-1.4355e-01,-1.1938e-01,-6.5613e-02,-7.5684e-02,-2.0850e-01,   2.0496e-01,-2.1286e-02,-6.8054e-02,-7.8796e-02,-2.1570e-01,-1.8103e-01], [ 9.1248e-03,-1.4961e-02, 1.5735e-01, 2.8857e-01,-1.1877e-01,-3.6682e-02,  -1.3989e-01, 6.9702e-02,-6.4209e-02,-6.2805e-02, 2.1698e-02, 4.6356e-02,  -3.1403e-02,-2.5757e-01,-3.5667e-03, 3.7994e-02,-4.1473e-02,-5.1147e-02,  -1.6614e-01, 7.8979e-02, 1.3013e-01,-1.8692e-03,-2.0065e-02, 5.8502e-02,  -7.4951e-02, 3.9551e-02, 9.8328e-02, 3.6499e-01, 3.1342e-02,-4.1626e-02,  -7.1945e-03,-3.6469e-02, 3.8971e-02, 1.0645e-01, 2.0630e-01,-1.0742e-01], [-2.6074e-01,-8.8806e-02,-7.0435e-02,-8.8928e-02,-2.7295e-01,-1.5234e-01,   5.0879e-04, 1.0384e-02,-1.6162e-01, 1.2312e-03,-3.0121e-02, 1.2329e-01,   1.1444e-03, 1.4404e-01, 1.0828e-01,-1.6907e-02, 2.4670e-01,-9.6436e-02,   3.3179e-01, 2.8503e-02, 5.1804e-03, 1.5015e-01, 1.6479e-01, 1.3049e-01,   8.0627e-02,-2.7026e-01,-7.9895e-02, 5.2307e-02,-1.3000e-01,-2.7649e-02,   4.7394e-02, 2.4750e-02,-4.3549e-02, 3.8452e-03, 6.5308e-02,-1.2152e-01], [ 6.6162e-02, 2.9492e-01, 1.1890e-01,-8.5876e-02,-1.5210e-01,-1.5027e-01,   8.1396e-04, 5.3192e-02,-1.2749e-02, 6.5536e-03,-2.1448e-01,-1.2634e-01,   7.9102e-02, 7.5012e-02,-4.4983e-02, 2.4307e-02,-9.3445e-02,-1.3420e-02,   1.3855e-01, 1.0876e-01, 3.6316e-02,-1.0651e-01, 1.5234e-01, 9.7839e-02,  -7.5806e-02,-1.6309e-01, 1.7102e-01,-4.4037e-02,-1.6464e-02, 8.9111e-02,  -4.6158e-03, 1.5356e-01,-6.3515e-03, 8.7402e-02, 1.0910e-02,-1.2646e-01], [-7.1411e-02,-1.3550e-01, 2.3096e-01,-1.2952e-01,-2.9346e-01, 4.3579e-01,   1.7017e-01,-1.1078e-01, 7.1289e-02,-6.1432e-02, 1.2573e-01, 2.3718e-01,  -4.5990e-02, 8.7585e-03,-4.3091e-02, 1.5100e-01,-8.9966e-02, 7.6294e-02,   2.5391e-01,-8.5876e-02,-2.1875e-01,-2.0227e-01,-1.4307e-01, 1.0992e-01,   1.2250e-01, 2.7588e-01, 7.5745e-02, 1.9116e-01,-1.5979e-01, 4.0588e-03,  -1.4868e-01,-9.1064e-02,-5.8289e-02, 3.9490e-02, 3.6591e-02,-5.6915e-02], [ 1.9568e-01, 4.0192e-02,-1.2549e-01,-3.9886e-02,-3.0746e-02,-4.3823e-02,  -7.3242e-02, 7.9956e-02, 6.5796e-02,-9.4147e-03,-1.2268e-01, 1.1853e-01,  -1.6736e-01,-4.6021e-02,-4.0802e-02,-6.4270e-02,-3.5461e-02, 8.5815e-02,   2.5146e-01,-1.4075e-01,-7.0251e-02,-2.1008e-01,-1.1407e-01, 3.4752e-03,  -1.2408e-01,-7.7148e-02, 5.0232e-02, 2.8305e-02,-3.1967e-03, 4.3945e-03,   1.5454e-01,-8.0156e-04, 4.6906e-02, 9.4849e-02,-1.5186e-01, 4.9957e-02], [ 3.9398e-02,-1.0004e-01,-1.8784e-02, 2.3230e-01, 2.8168e-02,-3.5474e-01,   1.0706e-01, 2.0703e-01,-5.1155e-03, 1.4893e-01, 3.9581e-02,-1.9116e-01,   1.5015e-02, 5.4138e-02, 4.5319e-02, 7.7209e-02, 9.1019e-03, 1.5308e-01,  -8.1848e-02, 1.4148e-01,-1.1853e-01,-1.0757e-02,-1.3318e-01,-2.2046e-01,   1.6956e-01, 6.3904e-02,-2.5610e-01, 2.6270e-01,-1.4258e-01, 1.0889e-01,  -1.1218e-01, 2.1716e-01, 8.6975e-02,-1.5015e-01,-5.0415e-02,-6.7635e-03], [ 1.9568e-01, 3.7500e-01, 1.4441e-01,-1.6321e-01,-7.5562e-02,-1.8787e-01,  -1.0077e-01, 1.0004e-01, 1.5610e-02,-7.2754e-02, 1.0986e-01,-8.3069e-02,   9.6619e-02, 1.1664e-01, 1.2500e-01,-1.1688e-01,-1.0681e-02, 2.2168e-01,  -1.0803e-01,-3.9978e-02,-8.7891e-02, 2.4048e-01,-8.8135e-02,-1.7456e-01,   1.9092e-01, 1.3074e-01,-9.9731e-02, 2.0508e-01,-1.4795e-01,-7.8186e-02,  -1.1597e-01, 7.9590e-02, 5.8685e-02,-2.1619e-01,-7.1716e-02, 9.1431e-02], [ 1.6467e-01,-1.8994e-01,-5.3558e-02,-2.0813e-01,-2.9858e-01, 6.3574e-01,   2.6871e-02,-1.8677e-02,-1.3916e-01, 8.5373e-03, 1.1011e-01,-9.1003e-02,  -1.4062e-01,-3.3051e-02, 8.6121e-02, 1.7761e-01,-1.7639e-02,-4.8370e-02,   2.2568e-02,-4.7119e-02,-7.2556e-03, 1.5308e-01, 8.0872e-02,-1.2115e-01,  -2.0416e-02, 8.9539e-02,-6.4026e-02,-6.3782e-02, 5.2063e-02, 6.0089e-02,  -9.1125e-02, 4.1107e-02,-2.9443e-01,-1.5552e-01, 1.4893e-01, 2.6709e-01], [ 3.7427e-01,-2.3727e-02,-3.9526e-01,-1.7029e-01, 6.1684e-03,-2.1619e-01,  -1.5466e-01, 1.1694e-01, 4.3671e-02,-1.8848e-01, 9.7900e-02, 2.4567e-02,  -5.4810e-02,-6.9641e-02,-1.8909e-01, 1.4172e-01, 1.0498e-02,-2.2614e-02,   2.7603e-02,-5.7007e-02,-1.7322e-01,-1.4124e-01,-3.4752e-03, 8.2092e-02,   7.3364e-02, 4.8218e-03, 2.1240e-02, 5.2307e-02,-1.1554e-01,-1.0704e-02,   8.2581e-02,-2.9266e-02, 1.7776e-02,-8.5876e-02, 1.0083e-01, 1.0175e-01], [-2.6831e-01, 2.7417e-01, 3.7354e-01, 2.5830e-01,-1.7566e-01,-1.8701e-01,  -4.4800e-02, 1.2354e-01, 7.7393e-02,-1.6187e-01, 1.2976e-01, 5.6610e-02,  -4.1870e-02,-2.4072e-01,-1.1009e-02, 1.8341e-02, 1.0925e-01, 1.1310e-01,  -1.6711e-01, 1.1292e-01,-8.5510e-02,-1.4575e-01,-2.9846e-02, 1.7456e-01,  -8.9478e-02,-3.9764e-02, 2.2446e-02, 1.2067e-01,-1.9470e-01,-2.8595e-02,  -1.2238e-01, 9.2102e-02,-5.9090e-03,-5.7892e-02,-6.4880e-02,-1.7383e-01], [ 2.1362e-01, 1.9482e-01,-9.7595e-02, 1.2988e-01, 9.6054e-03,-4.1870e-02,  -1.8335e-01, 2.9858e-01,-2.1143e-01,-1.7578e-01, 1.1188e-01,-1.3354e-01,  -2.2375e-01,-1.5869e-01, 4.4678e-02, 2.2690e-02, 3.1403e-02,-1.1658e-01,  -3.8574e-02, 2.0081e-01,-1.5088e-01,-1.2018e-01,-5.3741e-02, 1.1865e-01,   1.6675e-01,-1.3953e-01, 2.4316e-01, 5.9418e-02,-2.4658e-01, 7.3608e-02,  -6.0150e-02, 3.5248e-02,-4.7882e-02,-1.2500e-01,-8.9874e-03, 5.8228e-02], [ 4.2725e-02,-1.4453e-01, 8.5022e-02,-1.9910e-01,-1.7627e-01,-2.8296e-01,  -7.6721e-02, 7.4829e-02, 6.7810e-02, 2.2018e-02, 2.5513e-01, 6.3782e-02,   1.6833e-01, 7.0984e-02, 1.8860e-02,-1.3843e-01, 9.0759e-02,-3.5309e-02,  -1.3257e-01,-1.0565e-01,-2.0898e-01, 8.1482e-02,-2.6810e-02, 4.1351e-02,  -5.8167e-02,-5.9082e-02,-2.1338e-01, 2.3145e-01,-3.0835e-01,-8.0872e-02,  -5.5695e-02, 8.0750e-02,-1.9189e-01, 1.1108e-01,-1.7593e-02, 6.0852e-02], [ 1.0248e-01, 1.4294e-01, 4.3884e-02, 1.1774e-01,-1.7920e-01,-2.1851e-01,  -1.2305e-01,-1.1078e-01,-7.6660e-02,-2.2232e-02,-3.9948e-02,-1.6235e-01,  -3.4332e-02,-1.6504e-01,-3.1860e-02, 1.1853e-01, 2.7832e-01, 4.5197e-02,   1.1304e-01, 1.1664e-01, 1.2195e-01,-1.1925e-02,-2.7496e-02,-1.1884e-01,   2.0471e-01, 3.6102e-02,-1.1737e-01, 2.9175e-01,-2.9004e-01, 6.9031e-02,   8.6731e-02, 9.9426e-02,-9.1187e-02, 1.0870e-01, 1.6052e-01,-4.9377e-02], [-9.3262e-02,-8.4656e-02, 2.6138e-02,-1.1401e-01,-1.6199e-01, 4.6577e-03,   2.5681e-02,-1.7175e-01, 2.9678e-02,-7.8964e-03, 1.7883e-01, 1.5576e-01,  -4.1229e-02, 1.4441e-01, 4.1351e-02, 9.2285e-02,-9.7778e-02,-4.0405e-02,   2.4353e-01, 6.5247e-02, 9.3262e-02, 7.4463e-03, 6.1111e-03,-6.2103e-03,  -1.2817e-01, 1.1273e-01,-4.4586e-02, 4.7028e-02, 4.4037e-02, 7.0862e-02,   1.7310e-01,-2.5928e-01,-2.7832e-02, 5.4565e-02,-4.3335e-03, 1.4351e-02]],
	"controller.l1.bias" : [ 0.118   ,-0.04526 ,-0.03745 , 0.1578  ,-0.0442  ,-0.0425  ,-0.12006 , -0.1315  ,-0.06995 , 0.0649  ,-0.03543 ,-0.07886 , 0.0328  , 0.11896 ,  0.2189  , 0.1494  , 0.205   , 0.0798  , 0.2025  , 0.1583  ,-0.02396 , -0.05536 ,-0.1624  , 0.0696  ,-0.02429 ,-0.10706 ,-0.166   , 0.03848 , -0.2195  ,-0.02979 ,-0.03217 , 0.10236 ,-0.2637  ,-0.1381  ,-0.2489  ,  0.07324 ,-0.08954 , 0.1973  ,-0.01265 ,-0.0324  , 0.02594 , 0.0922  ,  0.05978 ,-0.01723 , 0.188   ,-0.1001  ,-0.06793 ,-0.1733  , 0.0701  , -0.11774 , 0.04977 , 0.00853 , 0.1216  , 0.02318 ,-0.10095 , 0.11505 , -0.0835  , 0.0852  ,-0.005733, 0.003748,-0.0718  , 0.077   ,-0.02191 , -0.0774  , 0.02684 , 0.1825  , 0.00453 , 0.1836  ,-0.1209  , 0.1515  ,  0.0835  ,-0.0798  , 0.05603 , 0.1378  ,-0.03284 ,-0.1632  , 0.1738  , -0.2174  , 0.03992 ,-0.0285  ,-0.1079  ,-0.287   , 0.11786 , 0.0763  , -0.0924  , 0.199   , 0.013504, 0.1305  ,-0.0382  , 0.0115  ,-0.04337 ,  0.2362  ,-0.003933, 0.09296 ,-0.04852 , 0.1558  , 0.147   , 0.2103  ,  0.08264 , 0.0949  ,-0.01086 , 0.1606  , 0.00797 ,-0.04987 , 0.0838  ,  0.007866, 0.1051  , 0.007584,-0.2297  ,-0.1637  ,-0.1855  ,-0.2216  , -0.223   ,-0.2169  ,-0.1696  , 0.0795  , 0.04984 ,-0.1864  , 0.00412 ,  0.1005  ,-0.0682  , 0.1552  , 0.135   ,-0.04788 ,-0.1776  ,-0.03925 , -0.08356 ,-0.1698  ],
	"controller.l2.weight" : [[ 1.9211e-02, 5.2155e-02,-1.8494e-02, 5.2185e-02,-3.1342e-02, 5.3925e-02,   1.3710e-02,-1.9058e-02,-1.0480e-01,-1.5442e-02, 1.0139e-02,-5.3558e-02,   8.3130e-02,-9.6008e-02,-5.6061e-02, 6.5308e-02,-4.3396e-02, 1.4030e-02,  -4.5349e-02,-5.7507e-04,-4.5441e-02,-4.6326e-02,-5.0476e-02, 5.4199e-02,   5.8594e-02, 3.9703e-02,-1.0303e-01, 5.3192e-02,-8.0505e-02, 2.5868e-04,  -3.7750e-02,-5.0934e-02,-4.9408e-02,-4.4464e-02,-2.4994e-02,-3.1372e-02,   2.1774e-02,-2.6016e-02,-4.3732e-02, 1.0399e-02,-5.9357e-02,-1.4107e-02,  -9.9365e-02, 2.1881e-02,-8.6853e-02, 1.5808e-02, 2.8732e-02,-3.9246e-02,  -6.3477e-02, 4.7913e-02, 7.9102e-02,-1.3329e-02, 5.3741e-02,-6.7261e-02,  -8.1665e-02,-1.0858e-01,-3.8635e-02,-8.6060e-02,-1.7700e-02,-9.3201e-02,   8.4045e-02, 8.2397e-02,-2.2797e-02,-8.5815e-02,-1.5045e-02,-2.2308e-02,  -1.1731e-01,-7.7759e-02,-7.9102e-02,-4.8431e-02, 3.4866e-03,-5.5054e-02,  -2.7313e-02,-1.2550e-02,-1.1237e-01, 6.5308e-02,-5.4138e-02, 1.8112e-02,  -3.6377e-02,-1.9592e-02, 6.0944e-02, 2.5131e-02,-7.7759e-02, 9.0256e-03,  -5.3711e-03, 5.9418e-02,-7.4951e-02,-4.3549e-02, 1.4076e-02, 5.3467e-02,   6.4270e-02,-6.6833e-02,-2.6398e-02,-5.6213e-02, 2.6123e-02,-6.3049e-02,  -2.5574e-02,-3.8025e-02,-2.9785e-02,-4.9667e-03,-5.8655e-02, 6.8604e-02,  -1.0492e-01, 5.3497e-02,-8.1421e-02,-3.0762e-02,-5.5328e-02, 4.9683e-02,  -8.1970e-02,-5.3375e-02, 5.7487e-03, 5.5939e-02, 4.2786e-02,-3.6499e-02,  -5.3635e-03, 1.9180e-02, 4.5563e-02, 2.6245e-03,-1.4542e-02,-9.0897e-05,   1.4130e-02, 1.9241e-02,-7.2510e-02,-7.8979e-02, 4.5410e-02,-8.5754e-02,   3.5458e-03, 4.9774e-02], [ 3.5004e-02, 5.2063e-02,-1.4453e-01, 5.4688e-02, 1.0168e-01, 3.5095e-02,  -3.8330e-02,-9.2163e-02,-1.6479e-01, 2.5299e-02,-9.7961e-02,-1.4229e-02,  -1.6907e-01,-2.5635e-02,-1.0956e-01, 8.7524e-02, 2.2705e-01, 3.3875e-02,   1.9324e-01, 8.1238e-02,-5.6915e-02,-6.1523e-02, 9.8511e-02, 2.4139e-02,  -7.1289e-02,-2.5488e-01, 1.0449e-01, 2.6294e-01,-6.1554e-02,-3.2910e-01,   6.1328e-01,-7.4524e-02,-2.3364e-01, 1.5015e-02,-9.7717e-02,-1.2964e-01,   8.9844e-02, 2.2241e-01, 7.2571e-02, 7.5134e-02,-2.7481e-02, 8.6731e-02,   1.8835e-01,-1.2067e-01,-5.6915e-02, 2.5537e-01, 6.1378e-03,-1.4307e-01,  -3.2349e-01, 3.5000e-04,-1.0675e-01, 2.7985e-02,-4.5128e-03,-2.5391e-02,   6.9885e-02, 3.3356e-02,-8.6548e-02, 1.7334e-01,-8.3008e-02, 7.9407e-02,   1.2445e-01, 1.7798e-01,-9.0393e-02,-2.1057e-01, 1.9824e-01, 2.1411e-01,   4.5715e-02, 1.2512e-01, 9.1919e-02,-3.8696e-02, 1.3969e-02,-6.1768e-02,   6.5430e-02, 1.9474e-03, 3.9502e-01,-1.9250e-01, 1.2445e-01,-7.9163e-02,   1.2863e-02,-7.0877e-03,-3.9856e-02,-3.0380e-02, 1.2683e-01, 2.4451e-01,  -1.3513e-01, 2.4902e-01, 1.9421e-01, 1.2708e-01, 1.1615e-01, 3.3838e-01,   2.1265e-01, 2.7924e-02, 1.5344e-01,-2.7878e-02,-2.9028e-01, 1.5796e-01,   2.5085e-02, 2.1411e-01, 6.0822e-02,-1.8784e-02, 2.6306e-02,-4.3854e-02,  -3.5431e-02, 4.0833e-02, 5.1514e-02,-1.1151e-01,-1.0004e-01, 8.7158e-02,  -6.4148e-02, 8.5983e-03,-3.2654e-02,-3.2990e-02,-1.7261e-01, 7.9651e-02,  -1.8631e-02, 1.5039e-01,-1.1414e-01, 1.2732e-01, 3.6407e-02, 1.3110e-01,  -8.8806e-02, 2.1936e-01, 1.1279e-01,-1.5613e-01,-5.0171e-02, 7.2754e-02,   1.5602e-02, 4.4037e-02], [-6.9702e-02,-5.1910e-02,-2.1143e-01,-1.2524e-01,-1.2326e-04,-1.5488e-02,   5.4741e-03, 1.1658e-01, 5.9967e-02,-9.6313e-02, 4.9774e-02,-1.1499e-01,  -2.4063e-02,-6.1279e-02,-9.1797e-02,-2.8137e-02,-3.1082e-02, 4.9347e-02,   1.6663e-02, 5.0323e-02,-3.9825e-02, 7.1167e-02, 1.6467e-01, 1.0199e-01,   9.6863e-02,-1.5503e-01,-2.9068e-03, 6.5125e-02,-9.0393e-02,-9.5520e-02,   1.6983e-02,-4.0833e-02,-5.8746e-02, 1.0704e-02,-4.1748e-02,-3.9307e-02,   1.3586e-01, 1.4488e-02,-6.2132e-04, 2.3547e-01,-2.1802e-01,-2.7679e-02,   1.2585e-01,-2.3575e-02,-8.8318e-02,-2.4536e-01,-1.9989e-02, 8.2031e-02,  -5.5450e-02,-2.2003e-02,-2.1875e-01, 9.6313e-02,-2.7878e-02, 2.3376e-02,   4.3396e-02,-4.7150e-02, 1.1816e-01, 3.5797e-02,-6.1035e-02, 1.0675e-01,  -1.8384e-01, 1.5979e-01,-5.5634e-02, 2.3224e-02, 5.0354e-02,-8.5327e-02,   3.7476e-02, 3.6240e-03, 7.2754e-02,-1.4441e-01,-3.9764e-02,-9.2163e-02,  -1.1646e-01, 1.1749e-01,-1.1551e-02,-2.5415e-01, 1.7896e-01,-3.6285e-02,  -6.8359e-02,-1.6891e-02,-8.0017e-02,-3.2349e-02, 1.5427e-02, 6.3171e-02,   3.7720e-02,-1.6663e-01, 9.6802e-02,-7.8125e-02, 7.6965e-02, 4.8004e-02,   1.2024e-01,-2.1143e-01,-2.8247e-01,-9.9609e-02,-2.1277e-01,-1.2329e-02,  -2.4475e-02, 1.2585e-01, 8.3387e-05,-5.5359e-02,-1.4282e-01,-2.2058e-01,   3.5126e-02, 2.6443e-02, 1.7502e-02, 6.5857e-02, 3.1708e-02, 2.5131e-02,  -2.3743e-01, 1.8784e-02, 1.8811e-01,-8.8867e-02, 6.5674e-02,-2.8992e-03,   1.3623e-01,-5.9753e-02,-4.9469e-02, 1.0773e-02,-1.8860e-02,-8.2092e-02,  -5.7465e-02, 2.3819e-02,-8.9294e-02, 8.1177e-02,-1.4404e-01,-2.6871e-02,  -2.5864e-02, 4.4708e-02], [-1.5247e-01,-1.0626e-01, 3.8239e-02, 6.1035e-02,-3.7842e-02, 1.1926e-01,   2.9248e-01,-3.8422e-02, 1.6418e-01, 7.4951e-02, 7.0862e-02, 1.1023e-01,  -2.1533e-01,-4.1626e-01, 2.0233e-02, 4.1229e-02,-3.5095e-02, 2.4951e-01,  -1.5356e-01,-1.8811e-01,-1.5759e-01, 9.4360e-02, 8.3618e-02, 1.4075e-01,   1.0229e-01,-1.4114e-02, 1.6797e-01,-9.2651e-02,-6.1707e-02, 2.5482e-02,  -1.5320e-01, 6.0394e-02,-2.1149e-02,-8.4351e-02, 7.5989e-02, 1.2337e-02,   8.8562e-02, 6.9153e-02,-6.4354e-03, 2.9346e-01,-6.0852e-02,-5.5054e-02,  -3.0807e-02,-1.1310e-01, 4.1885e-03, 2.1496e-03, 1.4856e-01, 1.3069e-02,  -3.4131e-01, 8.6609e-02,-1.1578e-01,-9.5886e-02,-1.6953e-02, 1.1334e-01,   2.2131e-01,-1.4331e-01,-1.8265e-02, 2.1594e-01, 1.2683e-01,-3.3295e-02,  -5.2338e-02, 1.0297e-01,-1.0901e-01, 5.9357e-02, 1.3586e-01,-7.2815e-02,   5.9875e-02,-1.6937e-02, 8.1116e-02, 1.1639e-01,-7.8613e-02,-9.4299e-02,   9.7473e-02, 1.5808e-01,-4.4556e-02, 1.7975e-02, 1.9043e-01, 4.2084e-02,   3.2410e-02,-2.3880e-02,-3.3832e-04,-9.5062e-03,-1.8509e-02, 5.1849e-02,   1.2183e-01,-5.6787e-01, 1.4856e-01,-1.5930e-02,-3.2501e-02, 9.9121e-02,   1.2018e-01, 2.9144e-02,-2.6221e-01, 7.6675e-04,-3.3472e-01, 1.1273e-01,  -1.5833e-01,-1.2760e-03,-2.7710e-01, 1.3745e-01, 3.1830e-02,-3.2104e-01,   8.8806e-02,-7.3242e-03,-4.0454e-01,-4.4373e-02,-6.6467e-02,-1.3525e-01,   1.0254e-01, 1.0065e-01, 8.1970e-02, 3.5339e-02, 2.5681e-02, 2.2247e-02,   8.9661e-02, 5.5313e-04,-3.5004e-02, 6.1874e-03,-3.8940e-02, 1.4746e-01,  -1.4062e-01,-1.7590e-01,-1.1743e-01, 1.5674e-01, 1.3733e-01,-1.3863e-02,   1.2622e-01,-3.9429e-02], [-5.2704e-02, 5.9784e-02, 4.4067e-02,-5.6580e-02,-6.6711e-02,-4.7516e-02,  -1.1497e-02,-5.0629e-02,-9.4238e-02, 5.0079e-02,-2.5894e-02,-3.2104e-02,  -7.4768e-02,-4.1107e-02,-1.3725e-02,-8.5999e-02,-5.3528e-02,-6.0760e-02,   7.4707e-02, 4.3823e-02,-1.2152e-01,-5.4108e-02,-6.5308e-02, 7.6538e-02,   6.4270e-02, 6.8359e-02, 1.0414e-02,-6.4331e-02, 5.3436e-02,-1.9569e-03,   2.3708e-03,-1.2550e-02, 7.4585e-02, 2.6215e-02, 3.8757e-02,-4.7577e-02,   6.2347e-02, 4.6570e-02,-7.0923e-02, 3.1250e-02,-6.4453e-02,-1.2335e-01,  -1.0638e-01,-2.1652e-02,-7.9407e-02,-5.5450e-02,-2.7740e-02, 8.6182e-02,  -1.1047e-02,-2.7618e-02, 3.7445e-02,-1.1084e-01,-1.0413e-01,-1.3901e-02,  -5.2124e-02, 1.3054e-02,-2.9968e-02,-6.9458e-02,-5.9692e-02,-6.9031e-02,   9.5291e-03, 1.0328e-03,-1.7792e-02,-7.3853e-02,-1.0468e-01,-5.4169e-02,  -1.0632e-01, 5.2246e-02, 1.9958e-02, 1.6876e-02,-3.8483e-02,-1.7426e-02,  -3.0807e-02,-2.3560e-02,-5.8350e-02, 3.5065e-02,-5.4718e-02,-2.8591e-03,   2.2247e-02, 6.9519e-02, 3.8513e-02, 5.2704e-02,-1.3599e-01,-1.0242e-01,   6.3049e-02,-7.1716e-02, 7.7881e-02, 7.7133e-03,-3.0334e-02, 1.1845e-03,  -3.2074e-02,-7.8186e-02, 6.4514e-02,-8.7463e-02,-1.6800e-02,-2.8168e-02,  -3.5492e-02,-8.2336e-02, 2.0401e-02,-4.7272e-02, 4.0161e-02, 2.9160e-02,   1.0864e-02,-7.7881e-02, 9.9335e-03, 5.1636e-02, 4.7272e-02,-5.9814e-02,  -1.4618e-02,-4.8584e-02,-7.0312e-02,-9.9030e-03, 6.6589e-02, 2.9099e-02,  -5.6061e-02,-2.0676e-02, 4.0039e-02,-4.2542e-02,-1.3206e-02, 4.0588e-02,  -7.8003e-02, 6.6956e-02,-6.3110e-02,-1.1154e-02, 3.5187e-02, 5.3864e-02,  -9.2346e-02,-4.0497e-02], [ 5.4749e-02, 3.5950e-02,-7.3181e-02,-7.2266e-02, 2.9785e-02, 6.3721e-02,  -6.9946e-02, 2.4155e-02,-2.5879e-02, 5.6946e-02,-1.0199e-01, 4.3579e-02,  -1.3893e-02,-8.0872e-02,-7.5317e-02,-8.1421e-02,-2.1622e-02,-5.0262e-02,  -7.9346e-02,-1.1978e-02,-8.4778e-02,-1.8845e-02,-2.2385e-02, 2.3636e-02,  -4.9744e-02,-5.3040e-02,-2.0081e-02, 3.8391e-02,-1.2012e-01, 5.9845e-02,  -2.8019e-03,-8.0338e-03,-7.7087e-02,-1.8372e-02,-2.0905e-02,-8.1787e-02,  -1.0376e-01, 5.5084e-02,-7.6843e-02,-7.4707e-02, 5.1666e-02, 3.5583e-02,   3.7750e-02,-2.5009e-02,-2.7771e-02, 5.8350e-02,-8.6746e-03, 7.2144e-02,  -8.4656e-02, 4.6844e-02,-5.7098e-02,-6.7139e-02, 2.3529e-02,-6.9824e-02,  -2.1072e-02,-4.9774e-02, 5.6946e-02,-3.7201e-02,-4.7089e-02,-3.8483e-02,   4.2328e-02, 2.5360e-02, 3.4058e-02,-6.6772e-02,-9.5215e-02, 6.9199e-03,  -7.3792e-02,-7.3853e-02, 2.0233e-02,-4.1321e-02,-3.8361e-02, 1.1658e-02,  -1.0358e-01,-5.7312e-02,-4.4983e-02, 3.4332e-02, 7.5073e-02, 3.8300e-02,  -3.5065e-02,-5.0659e-02, 2.8717e-02, 7.2510e-02,-7.1655e-02,-3.2135e-02,  -2.5665e-02,-1.6510e-02, 6.6101e-02,-1.5976e-02,-3.3325e-02, 6.5674e-02,  -6.1249e-02, 2.6794e-02, 3.5583e-02, 4.8523e-03, 6.6833e-02, 8.7509e-03,  -9.3262e-02,-3.8818e-02,-3.4451e-04,-8.5693e-02,-9.1675e-02, 3.4122e-03,   4.9866e-02,-2.0142e-02,-5.4230e-02, 3.7720e-02,-6.0364e-02,-1.8570e-02,   6.0699e-02,-1.0138e-01,-7.7881e-02, 3.7785e-03, 7.0190e-02, 1.6098e-02,  -1.3290e-02,-7.6965e-02,-6.8909e-02, 7.2746e-03, 4.5624e-02, 5.9204e-02,   5.6854e-02,-8.3679e-02, 3.2532e-02,-1.1987e-01,-8.3984e-02, 7.4158e-02,  -6.8298e-02,-6.7871e-02], [-5.7037e-02, 3.3173e-02, 4.0703e-03,-1.2769e-01, 8.5815e-02,-3.8757e-02,  -1.8469e-01, 1.2781e-01, 3.0579e-02, 3.3998e-04,-3.1006e-01,-8.0383e-02,   1.0101e-01, 7.9285e-02,-3.7354e-02, 2.5360e-02,-2.9419e-02,-1.7371e-01,  -1.6516e-01, 4.5105e-02, 5.3864e-02,-1.0529e-01,-6.0455e-02,-4.5898e-02,  -9.1553e-02, 1.6541e-01,-2.0142e-02,-2.0142e-01, 1.1823e-01,-5.7251e-02,  -1.0425e-01,-1.2341e-01, 1.0504e-01,-3.6072e-02,-4.2450e-02, 4.1771e-03,   4.7760e-03, 9.6359e-03, 1.4258e-01,-1.6492e-01,-1.3855e-01,-5.6091e-02,   1.6846e-01, 2.9907e-02,-1.4307e-01, 2.7985e-02,-2.3941e-02,-1.8661e-02,  -2.4624e-03,-1.2952e-01,-6.8779e-03,-1.5221e-02, 5.0201e-02,-1.6190e-02,  -2.2632e-01,-1.1102e-01,-6.6895e-02,-1.2213e-01,-1.5576e-01, 2.9129e-02,   1.3281e-01,-5.3101e-02, 5.0934e-02,-9.2957e-02,-5.0659e-02,-1.2312e-03,   2.8610e-02,-2.9846e-02,-4.1962e-02,-2.0554e-02,-6.4392e-02, 1.5356e-01,  -8.7219e-02,-4.8309e-02,-2.9572e-02, 1.1963e-01,-1.9373e-01, 1.0809e-01,  -3.3600e-02, 9.0454e-02,-1.0400e-01,-8.9417e-02, 1.9910e-01, 2.6074e-01,  -1.5613e-01,-1.7395e-01,-1.4050e-01,-6.5125e-02, 1.4172e-01, 2.4681e-03,   8.2886e-02,-1.8835e-01,-1.4600e-01,-5.9357e-02, 1.0736e-01,-1.7761e-01,   2.1899e-01, 6.4819e-02, 1.3489e-01,-9.8114e-03,-4.6539e-02,-2.6566e-02,   1.3268e-02, 1.7456e-02, 5.1308e-03, 2.9572e-02,-7.9590e-02, 4.8018e-04,   8.8257e-02, 6.0547e-02,-2.1820e-02, 2.1704e-01, 1.3931e-02, 2.3743e-01,  -6.6345e-02,-1.7236e-01,-4.3793e-02, 4.4342e-02,-4.0497e-02,-1.4053e-02,  -3.0670e-02, 1.2512e-01, 5.4657e-02,-2.7490e-01, 4.7264e-03, 1.4648e-01,   2.2733e-04, 1.0004e-01], [-6.4758e-02,-5.9235e-02,-9.0027e-02,-7.5134e-02, 2.4756e-01, 1.2854e-01,   1.5234e-01, 8.5754e-02, 5.0110e-02,-1.6064e-01,-2.6703e-02, 6.0921e-03,  -1.5393e-01,-5.3040e-02,-1.6150e-01, 8.4412e-02,-2.1021e-01,-8.8577e-03,  -2.6270e-01,-1.0583e-01,-2.1411e-01, 3.0441e-02, 7.8918e-02,-2.9302e-04,   2.3087e-02,-1.6050e-03, 2.7734e-01,-5.6549e-02, 5.9692e-02, 4.7874e-03,  -2.0496e-01,-1.2915e-01,-1.4465e-01,-3.2520e-03, 3.8910e-02, 8.6670e-03,   1.1530e-01, 1.2329e-01, 8.2092e-02, 5.1056e-02, 6.7810e-02,-6.3354e-02,   2.4078e-02, 7.3433e-03, 3.5767e-02,-1.0699e-01, 1.6333e-01, 4.5593e-02,  -2.3535e-01, 7.6477e-02,-9.7656e-02,-8.3618e-02,-1.7883e-01, 6.7505e-02,   2.1301e-01,-1.1902e-01, 2.2900e-01, 6.7673e-03,-9.6802e-02,-2.5238e-02,  -7.8674e-02, 6.1829e-02, 7.5989e-02, 4.5044e-02, 4.1687e-02, 2.1423e-02,   7.0312e-02,-3.3752e-02, 7.0984e-02,-4.4136e-03,-7.7515e-02,-1.2299e-02,  -1.2978e-02, 2.7002e-01,-1.9202e-01,-1.1432e-01, 1.3647e-01,-4.4373e-02,  -1.4795e-01,-6.0486e-02, 7.6782e-02, 5.7953e-02, 3.1128e-02, 5.1758e-02,   2.7145e-02,-1.6614e-01,-9.6375e-02,-1.2756e-01, 1.3847e-03, 1.4539e-01,   1.8127e-01,-4.0466e-02,-3.1396e-01, 3.4363e-02,-4.2578e-01, 1.0260e-01,  -1.9067e-01, 5.8105e-02, 1.2741e-03, 2.2278e-01, 1.0596e-01,-1.5564e-01,   1.2177e-01, 6.8298e-02,-1.0211e-01,-6.9092e-02,-6.1264e-03, 2.0599e-02,  -1.1391e-02, 9.0027e-03, 7.5439e-02,-2.5330e-02,-1.2891e-01, 6.6772e-02,   3.4058e-02, 6.9580e-02,-3.4790e-02, 6.2988e-02, 1.1853e-01, 6.2439e-02,   3.9886e-02, 6.2164e-02, 9.4666e-02,-3.1052e-02,-9.6375e-02,-3.2654e-02,   1.2494e-01,-1.0645e-01], [-3.1452e-03,-4.8920e-02,-1.7212e-02,-3.6316e-02,-2.9541e-02,-1.0724e-01,   1.5793e-02, 8.9569e-03,-5.1994e-03, 3.4668e-02, 2.3758e-02,-6.6284e-02,  -1.1682e-01, 6.3110e-02,-1.2500e-01,-8.1299e-02, 2.5269e-02, 6.3477e-02,  -5.6244e-02,-6.6956e-02,-8.4961e-02,-1.1765e-02,-4.9469e-02,-6.7566e-02,  -5.5733e-03,-7.9651e-03,-1.1108e-01, 6.4697e-02, 1.7456e-02,-1.3892e-01,  -2.5726e-02,-1.4307e-01,-1.1578e-01,-4.5349e-02, 9.1431e-02, 1.6220e-02,  -1.0675e-01, 3.5370e-02,-5.7373e-02,-9.7717e-02,-3.0243e-02,-8.0383e-02,   6.3538e-02,-1.1703e-02,-6.9763e-02, 4.1931e-02,-8.0383e-02,-5.3375e-02,   3.0518e-02,-6.0415e-04,-1.1420e-01, 3.6682e-02,-4.7729e-02,-2.1332e-02,   5.6038e-03, 4.7302e-02,-5.7739e-02, 3.1166e-03, 4.5410e-02,-6.6071e-03,   2.3453e-02,-9.5062e-03, 3.0487e-02,-4.7150e-02, 3.4180e-02,-8.3130e-02,   4.9011e-02,-7.2754e-02,-6.8115e-02,-3.9642e-02,-7.0557e-02,-1.8433e-02,  -2.4887e-02,-3.4607e-02,-1.0590e-01,-7.7881e-02, 3.0029e-02,-6.9763e-02,   3.2864e-03,-3.8391e-02,-4.0817e-03,-6.8542e-02, 6.1493e-02, 1.0582e-02,   4.8096e-02, 1.5930e-02,-1.0498e-01,-6.2622e-02,-1.1673e-02,-4.0070e-02,  -3.2928e-02,-1.2054e-02,-5.4169e-02, 1.8738e-02,-1.0063e-02,-3.9482e-03,  -5.4016e-02, 3.0273e-02,-4.0924e-02,-9.1431e-02,-8.8135e-02,-8.3862e-02,   1.8829e-02, 6.9946e-02,-6.0455e-02,-3.1952e-02, 4.7699e-02, 1.7654e-02,   6.6162e-02,-3.8239e-02, 5.4413e-02,-1.1148e-03,-5.3345e-02, 3.9062e-02,  -4.7699e-02,-2.0370e-02, 7.1411e-02,-7.4951e-02,-9.6313e-02,-6.6872e-03,  -5.5695e-02,-6.6772e-02,-1.7151e-02,-1.0577e-01, 4.2755e-02,-6.5247e-02,  -2.9831e-02,-4.3297e-03], [-3.9642e-02, 2.5879e-02, 1.0139e-02,-7.5500e-02,-4.0436e-02, 7.7026e-02,   7.7881e-02,-5.3253e-02,-2.0218e-02,-6.8542e-02,-1.8738e-02, 6.5796e-02,  -3.6621e-02,-9.5034e-04, 2.0218e-02,-5.9937e-02,-1.0999e-01, 5.7129e-02,   2.8076e-02,-2.4277e-02,-4.2610e-03,-1.1314e-02, 5.1300e-02, 7.1943e-05,  -1.0986e-03,-6.2988e-02, 5.9265e-02,-4.5654e-02, 2.2293e-02,-7.7515e-02,   4.3755e-03,-1.2390e-02,-9.6436e-02,-6.2561e-02, 4.1840e-02,-4.1046e-02,   4.3945e-02, 1.2856e-02,-1.2794e-02,-7.0557e-02,-1.8628e-01,-1.0818e-02,  -3.4790e-02,-1.0944e-01,-1.1719e-01, 1.4206e-02,-4.6631e-02,-2.6230e-02,  -1.3222e-02,-5.6946e-02,-8.0811e-02, 1.3371e-03,-7.1106e-02,-1.1475e-01,   3.4088e-02,-7.1167e-02,-8.4900e-02, 9.7427e-03, 5.6274e-02,-2.3132e-02,  -5.3680e-02,-8.4656e-02,-1.1322e-01,-5.1460e-03, 8.0017e-02,-8.5876e-02,   3.3386e-02,-1.8982e-02,-5.7953e-02, 2.3289e-03,-6.5308e-02,-7.0374e-02,  -5.5962e-03,-3.7415e-02,-3.0502e-02, 8.0719e-03, 3.0548e-02, 2.4139e-02,  -1.2744e-01,-1.1066e-01,-7.1045e-02, 5.5756e-02,-1.2549e-01, 1.7273e-02,  -1.1060e-01,-8.9661e-02,-2.6413e-02,-1.0248e-01, 2.1988e-02, 1.6159e-02,  -8.5083e-02,-5.5008e-03, 1.4923e-02,-1.0452e-02,-1.7065e-01,-1.1865e-01,  -1.7883e-02, 1.7532e-02,-4.0741e-02,-7.7026e-02,-8.8867e-02,-7.2327e-02,  -1.1670e-01,-1.2006e-01,-3.0899e-02,-8.1665e-02, 6.5155e-03, 8.9172e-02,   4.9500e-02, 2.4399e-02, 7.1533e-02, 5.2246e-02,-3.1555e-02,-6.0059e-02,  -8.2581e-02,-9.8816e-02,-1.3562e-01,-2.1545e-02,-5.8289e-02,-1.8417e-02,  -1.0968e-01,-4.7394e-02,-9.4543e-02,-4.3640e-02, 4.7485e-02,-5.5176e-02,   4.7028e-02,-8.8989e-02], [ 1.1420e-01, 8.0017e-02,-1.5002e-01,-2.9526e-02, 2.6260e-02,-1.3953e-01,  -7.6416e-02, 1.3110e-01, 7.4402e-02,-1.8213e-01,-2.2568e-02,-5.6122e-02,  -8.0383e-02, 3.2867e-02,-5.2917e-02, 4.6265e-02,-2.0959e-01, 1.0956e-01,  -1.3831e-01,-1.4366e-02,-3.9001e-02, 1.5259e-01, 1.0657e-01,-2.5940e-02,   3.2135e-02, 2.5497e-02, 2.1500e-02,-9.5276e-02,-8.0994e-02,-1.1310e-01,  -8.5266e-02,-9.4543e-02,-5.5695e-02,-1.2103e-01,-9.4528e-03, 8.4686e-03,  -1.0803e-02,-9.8022e-02, 5.4260e-02, 1.6077e-01, 5.4810e-02,-7.2510e-02,   7.1533e-02,-5.3375e-02,-1.5698e-01,-2.1619e-01,-2.9434e-02,-3.4821e-02,  -1.8967e-02, 6.7078e-02,-1.9775e-01,-1.1298e-01,-1.7371e-01,-9.3323e-02,   6.9092e-02, 4.1992e-02, 3.4454e-02, 1.2274e-01,-6.7749e-02, 4.0100e-02,  -8.7585e-02, 1.6833e-01,-1.9324e-01, 1.5955e-01,-5.1483e-02,-1.6772e-01,   4.9530e-02,-1.9989e-02, 6.9275e-02,-1.1932e-01,-3.6896e-02,-4.7333e-02,  -7.6660e-02, 6.6040e-02,-2.1692e-01,-2.2437e-01,-6.6589e-02,-7.2098e-03,  -1.1627e-01,-1.8982e-02,-1.0358e-01,-9.7656e-02, 1.0651e-01,-1.1237e-01,  -3.0243e-02,-1.5552e-01,-3.7567e-02,-1.0181e-01, 8.0933e-02,-3.2983e-01,  -6.1417e-04,-1.9336e-01,-1.1847e-01, 3.3051e-02,-6.6711e-02,-5.2643e-02,  -5.4199e-02, 1.3130e-02, 1.5149e-01,-1.4160e-01, 1.2131e-03,-1.2109e-01,   5.8472e-02,-5.0079e-02, 2.3865e-02,-1.2001e-02, 5.2795e-02, 6.4026e-02,  -1.8982e-01, 9.8999e-02, 1.2573e-01,-3.1348e-01, 2.5085e-02, 4.5502e-02,   9.3933e-02,-8.4473e-02, 7.6599e-02,-9.5215e-02, 3.8605e-02,-7.0679e-02,   7.7026e-02, 2.9282e-02,-7.7515e-02, 1.8164e-01,-9.1492e-02, 9.8389e-02,   7.5562e-02, 2.4128e-03], [ 1.5869e-01,-4.0321e-03,-5.5695e-02,-1.0925e-01,-5.7648e-02, 1.6449e-02,   4.3152e-02,-3.9398e-02,-2.4976e-01, 8.6441e-03, 5.3772e-02,-1.6006e-02,  -1.3745e-01, 1.9739e-01,-1.5796e-01,-2.9980e-01,-1.8906e-02,-1.1737e-01,  -6.0364e-02, 1.2988e-01, 2.7786e-02,-6.3110e-02,-2.8397e-02, 1.0248e-01,   6.6719e-03,-1.1389e-01,-1.5442e-01, 7.7515e-02, 2.6703e-02, 6.2561e-03,  -2.0789e-01,-1.7456e-01, 5.2002e-02, 2.5854e-01,-6.1981e-02,-1.9727e-01,   7.1350e-02, 1.0254e-02, 7.2632e-02,-2.3315e-01, 1.2976e-01,-1.8945e-01,   9.9243e-02, 1.7358e-01,-1.4038e-01,-6.9763e-02, 1.0900e-03, 8.0078e-02,  -3.8135e-01,-3.2135e-02,-2.1716e-01, 2.3270e-03,-7.7019e-03,-8.8379e-02,  -2.7808e-01, 1.6638e-01,-8.4595e-02,-2.0859e-02, 8.3069e-02,-7.3090e-03,   1.2367e-02,-1.0010e-01, 8.3130e-02, 4.1901e-02,-1.4270e-01,-4.5319e-02,  -9.7168e-02, 1.0941e-02, 2.8276e-04,-2.3572e-01, 7.4951e-02, 9.1492e-02,  -1.9043e-01,-2.1436e-01,-1.4105e-03,-4.3091e-02,-1.5698e-01,-1.7407e-01,   2.5464e-01, 1.5222e-01,-7.7087e-02,-5.5161e-03, 1.1871e-01,-2.7008e-02,  -6.6040e-02, 9.5215e-02, 3.1235e-02,-3.5492e-02, 4.1229e-02,-1.0048e-02,  -1.7480e-01,-2.2083e-01, 1.7224e-01, 1.1955e-02,-3.0591e-01,-6.0883e-02,   1.2091e-01, 8.8318e-02, 2.9443e-01,-1.6797e-01, 3.4161e-03, 1.5942e-01,   8.3374e-02,-1.8044e-03, 1.2805e-01,-5.6763e-02, 4.5410e-02, 3.4027e-02,  -4.4769e-02,-7.8552e-02,-9.4666e-02, 1.4427e-02, 2.0239e-01, 9.9915e-02,  -2.5122e-01, 2.2934e-02, 1.2463e-01, 2.0447e-01, 6.4148e-02,-1.5063e-01,   1.5222e-01,-9.5276e-02, 6.5193e-03, 1.7346e-01, 1.7603e-01, 1.5967e-01,   1.4087e-01, 2.0676e-02], [ 1.5884e-02, 2.7313e-02,-1.7554e-01,-2.9663e-02, 6.6040e-02,-6.3354e-02,   3.1342e-02, 2.9633e-02,-5.7159e-02,-2.0496e-01, 1.0315e-01,-3.8544e-02,  -7.1411e-02,-1.2915e-01,-2.0410e-01,-1.2067e-01,-1.2354e-01, 9.2896e-02,  -1.1475e-01,-7.8247e-02,-2.5317e-01, 2.3889e-01, 1.8408e-01, 2.4124e-02,  -1.7395e-02, 3.8223e-03, 6.1401e-02,-1.8518e-01,-8.2458e-02, 8.0872e-02,  -2.0020e-01, 2.5299e-02, 3.0136e-02,-1.7212e-01,-6.4163e-03,-4.4434e-02,  -5.6274e-02,-3.1494e-02,-1.7929e-02, 7.9712e-02, 1.0724e-01,-6.6589e-02,  -1.8152e-01, 4.7119e-02, 7.5989e-02,-1.9617e-01, 4.1168e-02,-9.9335e-03,   4.7073e-03, 2.3605e-02,-9.2773e-02,-1.0779e-01,-6.5613e-02,-9.1980e-02,   1.0040e-02, 4.0710e-02, 1.2360e-01, 6.8298e-02,-6.1127e-02,-5.6915e-03,  -5.2612e-02,-1.6556e-02, 2.8915e-02, 1.9543e-01,-1.8274e-01,-2.7368e-01,   4.5197e-02,-1.1420e-01,-3.8177e-02,-1.6809e-01, 8.4839e-02,-7.4951e-02,  -3.5492e-02,-7.3181e-02,-1.4026e-01,-6.4758e-02, 1.5343e-02, 5.1758e-02,  -4.9957e-02,-3.8330e-02,-1.7456e-01, 5.3711e-02,-6.3843e-02,-1.3086e-01,   9.5367e-03,-2.5293e-01, 9.7595e-02,-6.6284e-02, 6.8420e-02,-2.0312e-01,  -2.5558e-02,-1.2524e-01,-1.4490e-01,-3.1128e-02,-8.2336e-02, 9.8083e-02,  -1.8286e-01,-1.2146e-01, 4.9377e-02, 2.2385e-02, 5.3497e-02,-2.1606e-01,   7.5195e-02,-3.1113e-02,-5.6976e-02,-4.8637e-03, 9.0027e-02, 1.9424e-02,  -3.0197e-02, 5.7709e-02, 1.8661e-02, 9.8953e-03, 1.2292e-01,-2.9144e-02,   1.5283e-01,-1.2781e-01, 4.4861e-02,-3.4149e-02,-4.6234e-02, 4.5197e-02,   9.7229e-02,-1.6821e-01,-1.8103e-01, 1.4233e-01, 2.7328e-02,-7.6111e-02,   9.1858e-02, 8.0688e-02], [ 7.0251e-02, 9.6619e-02,-2.9834e-01,-1.0059e-01,-5.1346e-03,-6.3049e-02,   3.2324e-01,-3.5889e-02, 1.6809e-01,-3.7201e-02, 1.9470e-01, 1.0046e-01,  -1.0364e-01, 7.8674e-02,-1.2177e-01,-3.2318e-02, 1.3184e-01, 2.3816e-01,  -2.5195e-01, 1.7529e-01,-9.7900e-02, 8.7769e-02, 2.2827e-01, 2.2388e-01,   1.1757e-02, 3.1433e-02, 4.7668e-02, 3.5370e-02, 1.8326e-02,-2.1191e-01,  -4.3311e-01,-2.6758e-01,-6.6910e-03, 9.2407e-02, 8.9355e-02, 1.3664e-02,   1.1578e-01, 2.2217e-01, 1.2103e-01, 2.4377e-01,-1.5906e-01,-1.2445e-01,   1.8079e-01,-3.8635e-02,-1.7163e-01,-9.3002e-03, 3.0273e-02, 4.1504e-02,  -3.6230e-01, 1.5723e-01,-2.9736e-01, 1.2286e-01, 3.8361e-02, 6.8016e-03,   2.4734e-02, 1.7065e-01, 1.0449e-01, 6.3049e-02, 1.1780e-01,-2.9205e-02,   8.5815e-02, 8.7463e-02,-1.3171e-01, 2.1667e-02, 8.3496e-02, 3.2135e-02,   9.7229e-02, 1.6541e-01, 1.6675e-01,-3.4961e-01,-2.1210e-02, 5.6213e-02,   2.5665e-02,-6.8542e-02,-2.2949e-01,-5.2299e-03, 1.4746e-01,-1.3074e-01,   2.1545e-01, 5.8167e-02,-3.5675e-02,-7.5378e-02, 2.7808e-01, 6.5369e-02,   7.5989e-02,-3.5522e-02, 8.6182e-02,-2.1509e-01, 1.8420e-01,-7.6660e-02,   3.3325e-02,-2.5073e-01,-2.3987e-01,-5.1193e-03,-2.8052e-01,-1.4941e-01,   2.0813e-01, 1.1676e-01, 1.5625e-01,-9.6436e-02,-1.1749e-01, 8.4229e-02,   9.8267e-02, 1.2093e-02,-8.6914e-02,-3.7415e-02, 1.1230e-01,-3.8269e-02,  -1.8384e-01,-5.5573e-02, 2.2852e-01, 4.7455e-02, 1.3440e-01, 4.9713e-02,   5.3833e-02, 2.2156e-02, 3.7445e-02, 1.5991e-01,-1.8787e-01, 1.0645e-01,  -1.2253e-02, 8.6304e-02,-2.8247e-01, 3.3765e-01, 1.4343e-01, 7.3425e-02,   1.7566e-01, 1.0229e-01], [-2.3596e-01,-3.3173e-02, 8.2092e-03,-9.0149e-02,-7.3853e-02,-2.0432e-02,  -1.4185e-01,-2.8442e-02, 1.7685e-02, 2.8711e-01,-7.0557e-02,-1.0358e-01,   2.8198e-01,-2.4341e-01, 6.6162e-02,-7.2861e-03, 9.4482e-02,-1.5674e-01,   1.1298e-01,-2.1960e-01, 1.0181e-01,-1.5747e-01,-7.9224e-02,-8.8379e-02,  -3.8147e-02, 7.4341e-02,-6.9885e-02, 3.0334e-02, 3.1174e-02,-2.1997e-01,  -6.1157e-02,-5.8411e-02,-4.5471e-02,-2.0959e-01, 1.3452e-01,-1.3879e-01,  -1.2732e-01,-1.1462e-01, 1.2781e-01,-1.7407e-01,-1.3562e-01, 2.8870e-02,  -1.6370e-01,-2.0630e-01,-1.0352e-01, 8.2016e-03, 1.2482e-01,-2.6531e-03,   2.3779e-01,-1.3440e-01, 1.2585e-01,-2.4377e-01, 1.4319e-01, 1.1517e-01,   5.6152e-03,-1.7371e-01,-7.6843e-02,-8.3679e-02,-1.5686e-01,-8.4534e-03,   8.9905e-02,-5.9052e-02,-8.9478e-02,-3.6621e-02,-4.9072e-02,-1.5430e-01,   5.3802e-02, 1.9028e-02,-6.7444e-02, 7.6477e-02,-2.2119e-01, 1.1523e-01,   1.0840e-01, 3.8300e-02, 9.5154e-02, 9.5886e-02, 1.8753e-02, 6.4819e-02,   1.6479e-02,-1.3046e-02, 2.9465e-02,-3.6507e-03, 5.4291e-02, 6.6101e-02,   9.8343e-03,-2.9980e-01,-1.0950e-01,-1.8115e-01,-1.9946e-01,-4.2267e-02,   7.6111e-02,-1.2708e-01,-1.6846e-01, 6.6223e-02, 1.3220e-01,-2.8870e-02,   1.0858e-01,-1.2598e-01, 8.2520e-02,-4.5288e-02, 1.2898e-04,-2.0361e-01,  -7.4707e-02, 3.8879e-02, 4.2450e-02,-8.5266e-02,-1.6357e-01,-1.8079e-01,   9.9854e-02, 3.7060e-03,-5.6702e-02,-5.1819e-02,-1.6992e-01, 2.0874e-02,  -7.3853e-02, 8.7402e-02,-4.3091e-02,-2.1216e-01,-6.3782e-02,-1.0181e-01,  -1.2524e-01,-1.0376e-01, 7.0862e-02,-5.4810e-02, 5.1392e-02, 1.0040e-02,  -3.7170e-02,-1.1731e-01], [-5.2399e-02, 2.3193e-02,-1.3416e-01,-1.4001e-01, 3.6804e-02,-6.3232e-02,   3.3569e-02,-1.2634e-01, 3.4454e-02,-5.5176e-02,-1.6693e-02,-3.8147e-02,   1.1177e-02,-1.7114e-01,-9.1370e-02,-1.4453e-01, 3.0804e-03,-7.5073e-02,  -8.0505e-02,-6.2378e-02,-2.8259e-02, 3.0746e-02,-1.3062e-01,-1.1093e-02,  -1.0535e-01,-1.9531e-01,-5.5023e-02, 6.5651e-03,-3.6774e-02, 2.9526e-02,  -1.0260e-01,-7.8369e-02,-1.3330e-01, 7.7820e-02,-6.0028e-02,-7.3853e-02,  -8.5266e-02,-1.3855e-01,-8.7585e-02,-2.8992e-02,-2.1759e-02,-7.3608e-02,  -3.5187e-02,-5.4138e-02,-5.1575e-02,-8.5327e-02, 2.1423e-02,-3.7262e-02,  -4.4128e-02,-8.1848e-02,-8.9600e-02,-8.1116e-02,-7.0435e-02, 8.0627e-02,  -5.1392e-02,-5.8777e-02, 2.5894e-02,-1.7627e-01,-5.2368e-02,-1.4014e-01,   9.9121e-02, 4.2755e-02,-9.9976e-02,-4.3030e-02,-2.5803e-02,-6.2790e-03,   2.6001e-02,-9.9426e-02, 2.5726e-02,-8.6853e-02, 2.0142e-02,-7.3280e-03,  -2.2583e-02,-1.2344e-02,-2.2095e-02, 7.0496e-02, 2.7588e-02, 4.8218e-02,  -5.9204e-02,-3.7537e-02,-3.2928e-02, 1.4519e-02, 2.0737e-02,-4.1656e-02,  -1.2347e-01,-1.4572e-02,-1.4746e-01, 7.4341e-02,-5.4260e-02,-1.1011e-01,  -8.1863e-03,-4.9316e-02, 7.0267e-03,-7.4951e-02,-8.8959e-03,-1.0858e-01,  -7.5623e-02,-1.0303e-01,-1.5833e-01, 3.4729e-02, 8.0811e-02,-1.2695e-01,  -8.1604e-02,-4.4037e-02, 2.2552e-02, 3.0731e-02,-2.7191e-02,-6.8542e-02,   3.7262e-02,-4.5441e-02, 1.4297e-02, 5.9906e-02,-3.8849e-02,-1.0376e-01,  -7.8491e-02, 6.6223e-02,-1.0492e-01,-2.8915e-02,-3.4729e-02,-1.0760e-01,  -1.3159e-01, 3.6194e-02, 1.6235e-02,-9.4482e-02,-1.3382e-02,-8.5632e-02,  -8.3557e-02,-3.0853e-02], [-9.2041e-02, 6.9214e-02, 2.2125e-02,-8.4412e-02,-3.6957e-02,-8.8501e-02,  -3.0327e-04, 9.7580e-03,-7.3914e-02,-9.4177e-02,-7.3364e-02,-4.2297e-02,  -1.2390e-02,-3.1143e-02,-2.8442e-02, 4.1870e-02, 7.7026e-02,-8.5083e-02,  -2.7237e-02, 1.4473e-02, 2.8320e-02,-6.4514e-02,-9.4757e-03, 4.2267e-02,  -2.3438e-02,-6.2225e-02,-4.8279e-02,-5.2826e-02, 4.8340e-02, 7.6027e-03,  -7.3120e-02,-4.7821e-02,-8.3679e-02,-2.4704e-02,-1.0384e-02,-3.6255e-02,  -9.2285e-02,-1.0170e-02, 2.9572e-02,-4.1809e-02,-1.5381e-02, 3.8635e-02,  -7.5928e-02, 5.2887e-02,-5.8929e-02, 3.1891e-02, 2.1637e-02, 3.1616e-02,  -7.1289e-02,-2.3212e-03,-1.1719e-01,-8.4290e-02, 3.5583e-02,-2.9465e-02,   5.7648e-02,-5.8350e-02, 5.7983e-02, 2.9785e-02,-5.5786e-02, 1.1627e-02,  -1.0846e-01,-5.1056e-02, 4.5197e-02,-6.9702e-02,-3.7750e-02, 5.2551e-02,  -1.4114e-02, 2.0172e-02,-4.2969e-02,-9.8206e-02, 2.6512e-03, 4.0405e-02,   7.6416e-02, 4.5349e-02,-3.3691e-02, 2.0401e-02,-4.4037e-02,-6.9702e-02,  -8.6609e-02, 1.6617e-02,-6.6650e-02,-3.6049e-03,-1.1493e-01,-6.8848e-02,   1.7960e-02, 7.2441e-03,-2.3956e-02,-8.3252e-02,-8.2520e-02, 5.3040e-02,  -7.2899e-03,-8.3008e-02,-1.2703e-03, 7.2937e-02,-2.0859e-02,-6.1432e-02,  -3.4485e-02,-6.6833e-03, 4.4037e-02,-1.2642e-02,-8.2092e-03, 5.7068e-02,   1.4572e-02, 1.5888e-03,-5.9271e-04, 3.5126e-02, 6.9885e-02,-2.8915e-02,  -1.8494e-02, 7.3669e-02, 6.7322e-02, 3.6255e-02,-9.1797e-02, 7.2815e-02,  -1.9897e-02, 3.2196e-02, 2.6123e-02,-4.9164e-02,-1.2219e-04, 6.5308e-02,   1.4629e-03,-6.9092e-02,-1.0693e-01,-7.4951e-02, 8.1177e-03, 3.6194e-02,  -5.3040e-02,-2.4673e-02], [ 1.0211e-01, 1.2646e-01,-2.3636e-02,-2.7319e-01, 2.2668e-01, 1.5271e-01,   1.0315e-01, 1.8860e-01,-1.1127e-01, 1.0010e-01,-1.9189e-01,-8.1482e-02,  -2.3926e-01, 4.2572e-02,-1.5356e-01, 1.7639e-02, 6.3538e-02,-6.9092e-02,  -2.5757e-01,-8.4534e-02,-1.6785e-01, 1.1340e-01, 9.2529e-02, 2.1759e-02,   9.9304e-02, 3.1174e-02, 1.5796e-01, 1.5479e-01, 9.6741e-02,-5.1849e-02,  -4.1602e-01,-7.0648e-03, 4.2786e-02,-2.5610e-01, 7.5439e-02,-8.9661e-02,   1.2622e-01, 6.4819e-02, 3.8055e-02, 2.9640e-03, 1.5649e-01, 4.6509e-02,   1.2848e-02, 1.9434e-01, 8.9294e-02,-1.2769e-01, 1.5540e-01, 1.6800e-02,  -2.4060e-01, 1.4856e-01,-2.2437e-01,-9.2407e-02,-1.3257e-01, 2.0325e-01,   2.4097e-01,-1.1612e-02, 1.9336e-01,-1.4819e-01,-1.6296e-01, 1.4758e-01,  -1.6296e-01, 3.0777e-02, 1.7957e-01, 3.2349e-02, 2.5299e-02, 9.3018e-02,   1.2012e-01,-1.8726e-01, 1.2323e-01, 4.9706e-03, 8.3984e-02, 1.4966e-01,  -2.3758e-02, 3.6743e-02,-3.1787e-01, 3.1910e-03, 1.7670e-02, 7.0251e-02,  -5.3418e-01, 1.1145e-01, 3.2104e-02,-4.1962e-02, 9.2529e-02, 3.4790e-02,  -4.9744e-02,-3.0542e-01,-3.0225e-01,-1.2805e-01, 2.1680e-01, 2.1350e-01,   2.1716e-01,-4.3518e-02,-3.8110e-01, 1.0309e-01,-2.0471e-01,-9.5093e-02,  -1.4076e-02, 8.8806e-02, 1.0101e-01, 1.0797e-01, 9.9426e-02,-2.1375e-01,   1.5076e-01, 1.3586e-01, 1.4050e-01, 3.3661e-02,-1.2427e-01, 2.0081e-01,   8.3862e-02, 1.2744e-01, 3.3173e-02, 1.5210e-01,-5.0781e-02, 1.2927e-01,   7.6660e-02, 2.0004e-02, 1.0513e-02, 2.1851e-02, 2.2961e-01, 6.1981e-02,   1.8042e-01, 2.5244e-01, 2.7319e-01,-2.7002e-01,-3.7170e-02,-4.9316e-02,   1.6357e-01,-1.9568e-01], [-3.8483e-02,-9.5703e-02, 5.7190e-02,-1.4319e-01, 6.0333e-02, 5.5939e-02,  -4.1077e-02,-7.1533e-02, 4.3304e-02, 5.3436e-02, 2.7435e-02,-1.7807e-02,  -6.3232e-02,-4.3762e-02,-6.7200e-02,-2.5558e-02,-9.3018e-02, 7.9498e-03,  -5.8411e-02,-8.3252e-02,-3.8033e-03,-9.9609e-02,-1.5007e-02,-2.2171e-02,  -7.9590e-02,-5.8289e-02,-5.1849e-02,-4.2145e-02, 4.4952e-02, 2.3575e-02,  -5.1575e-02,-5.7098e-02, 1.6093e-05, 4.2076e-03,-5.7617e-02,-3.7537e-02,  -3.7445e-02, 1.7029e-02,-1.4978e-01,-1.1009e-02,-1.3710e-02,-5.6732e-02,   3.5706e-02,-4.4952e-02,-8.6487e-02,-3.3531e-03, 3.4294e-03, 7.0618e-02,  -1.0669e-01, 1.2840e-02, 2.8858e-03,-2.0874e-02,-3.9520e-02, 2.9404e-02,  -8.6975e-02, 6.6895e-02,-6.2256e-03,-9.0088e-02,-1.4801e-02,-3.1769e-02,  -2.1179e-02,-8.9264e-03,-8.4534e-02,-3.1830e-02, 2.9861e-02,-4.4891e-02,   8.5220e-03, 4.4800e-02,-7.8011e-03,-1.0931e-01,-5.8899e-02,-1.1182e-01,  -3.8574e-02, 2.8839e-03,-5.1880e-02, 5.8044e-02, 5.4291e-02,-1.2253e-02,  -3.9429e-02,-9.5886e-02, 8.9661e-02,-7.7271e-02,-1.3037e-01, 6.2943e-03,   5.6885e-02,-3.4332e-02,-5.0629e-02,-9.7107e-02,-1.6235e-02,-6.0577e-03,  -6.0516e-02,-4.5258e-02, 4.4983e-02,-1.1743e-01, 1.7990e-02,-1.5869e-02,   3.4119e-02,-1.0571e-01, 1.8188e-02, 4.4525e-02,-6.2500e-02,-7.4463e-02,  -9.7351e-02, 4.0375e-02,-3.3417e-02, 3.4119e-02,-9.2468e-02,-6.4575e-02,  -4.0222e-02, 4.9469e-02,-8.6914e-02,-1.7700e-02, 7.4707e-02,-4.0588e-02,  -8.2031e-02, 2.6169e-02, 2.3708e-03,-1.2720e-01, 2.6932e-02, 7.3547e-02,  -1.4001e-01,-6.0333e-02,-9.5398e-02,-4.9469e-02,-8.6060e-02, 1.6663e-02,   2.4750e-02, 5.4077e-02], [-1.1721e-03,-3.9062e-02, 3.3783e-02, 1.9989e-02,-2.3483e-02,-7.7881e-02,   6.2134e-02,-8.7158e-02, 9.7351e-02,-4.7302e-02,-5.8228e-02,-4.8340e-02,  -8.5693e-02,-1.1890e-01,-5.2094e-02, 7.3303e-02,-5.1941e-02, 2.1896e-02,   2.6245e-02,-8.5205e-02,-6.1737e-02,-9.6375e-02,-4.7119e-02,-5.0995e-02,  -6.2225e-02, 8.3557e-02, 1.1421e-02, 7.9041e-03, 3.9124e-02, 5.3436e-02,  -7.9956e-02,-8.7708e-02,-7.6660e-02, 3.3913e-03, 6.4697e-02,-5.6343e-03,  -6.4270e-02, 4.8950e-02, 3.7323e-02, 9.4360e-02, 3.7384e-02,-6.3232e-02,  -7.0618e-02,-5.1697e-02, 3.6530e-02,-2.4445e-02, 4.0192e-02,-6.2286e-02,  -3.7292e-02, 1.3641e-02,-8.6609e-02,-4.3518e-02, 1.2207e-02,-3.4485e-02,   6.1188e-03,-1.2091e-01,-6.8726e-02, 2.0691e-02,-8.4106e-02,-1.1206e-03,  -3.6316e-02, 5.6763e-02, 1.3153e-02, 1.1688e-02,-9.1736e-02, 3.8544e-02,  -3.8635e-02,-6.8970e-02,-9.6924e-02,-8.9233e-02,-7.9529e-02,-1.1926e-01,  -6.1890e-02, 3.4447e-03, 3.3783e-02, 2.4750e-02,-1.0168e-01, 6.9946e-02,   5.0720e-02,-4.1016e-02,-4.5441e-02, 4.1687e-02, 5.2032e-03,-6.4209e-02,  -7.1793e-03,-2.2644e-02,-2.8900e-02,-2.1698e-02, 1.9821e-02,-3.3035e-03,  -4.5746e-02,-4.4647e-02, 3.8940e-02,-2.9831e-02,-3.2806e-02, 1.3382e-02,  -8.8623e-02, 2.0447e-02, 6.9122e-03,-4.6661e-02,-2.8412e-02,-5.2528e-03,  -2.7267e-02, 7.0984e-02,-6.0760e-02,-8.6365e-02,-1.0413e-01,-1.4648e-02,   2.1667e-02,-1.5480e-02,-2.2650e-04, 2.4765e-02, 8.9340e-03, 4.2603e-02,  -1.1261e-02,-6.7078e-02,-3.1403e-02,-5.9601e-02,-3.0060e-02,-8.3862e-02,   2.0332e-03,-7.8491e-02, 1.1070e-02,-5.9662e-02,-7.2083e-02,-1.1078e-01,  -5.4230e-02, 5.8441e-02], [-1.1169e-01, 2.8229e-02,-4.2389e-02, 5.8022e-03, 2.8793e-02,-7.1869e-03,  -1.2604e-02,-1.0046e-01,-1.3049e-01, 7.9285e-02, 6.5613e-02,-2.1521e-01,  -7.2021e-02,-1.3110e-01,-7.7248e-04,-5.2307e-02, 4.0558e-02,-3.8071e-03,   5.4504e-02,-9.2651e-02,-9.6436e-02, 2.6108e-02,-1.6382e-01,-9.6619e-02,   2.0004e-02,-1.4551e-01, 5.4932e-02, 5.1025e-02,-4.0771e-02, 1.4381e-02,  -3.4814e-01, 1.6022e-02, 3.7476e-02,-5.2643e-02,-1.1930e-03,-8.4229e-03,  -2.0920e-02,-4.5357e-03,-4.7668e-02,-7.1899e-02, 1.7853e-02, 7.1411e-02,  -8.7036e-02, 5.8105e-02, 7.8735e-02,-2.2241e-01, 2.5314e-02,-1.0822e-01,  -1.7509e-03,-3.4454e-02, 1.1536e-02,-7.8735e-03,-2.7679e-02,-6.6833e-02,   5.1331e-02,-1.4441e-01,-2.0142e-02, 1.3489e-02,-1.5625e-01, 3.9490e-02,   3.5431e-02,-6.3416e-02,-2.7664e-02, 7.2754e-02,-3.8548e-03, 3.2532e-02,  -2.4979e-02,-2.0187e-02,-3.1372e-02, 3.7270e-03,-7.2144e-02,-1.0687e-01,   1.1536e-01,-1.6602e-02,-2.2131e-01,-9.5139e-03,-1.2375e-02,-2.4857e-02,  -3.8239e-02,-2.3438e-02, 3.3997e-02,-6.6467e-02,-8.6792e-02,-7.8735e-02,  -3.1166e-03,-2.7740e-02, 5.7800e-02,-2.5436e-02,-8.9600e-02,-5.3284e-02,   6.1707e-02, 1.2219e-01,-1.9312e-01,-8.9783e-02,-5.5573e-02,-9.1858e-02,  -5.7144e-03, 3.7613e-03,-7.0679e-02, 8.9233e-02,-1.2909e-02,-2.0105e-01,   2.3834e-02, 9.1248e-02,-3.6438e-02,-7.0984e-02,-1.1774e-01,-8.8928e-02,   8.3496e-02, 8.0017e-02,-6.9946e-02,-7.2693e-02,-2.2449e-03, 3.4885e-03,  -1.0852e-01,-9.5581e-02, 7.7209e-03,-6.5369e-02,-8.3496e-02,-1.3977e-01,  -6.1127e-02,-9.4910e-02, 5.4138e-02,-9.0271e-02,-9.5520e-03, 2.5299e-02,  -1.3647e-01,-2.4231e-02], [-1.2366e-01,-2.1896e-02,-9.7427e-03,-1.0910e-02,-9.8328e-02, 9.8190e-03,  -3.0365e-02,-9.6680e-02, 8.2764e-02, 1.3721e-01,-1.9739e-01, 3.6011e-02,   1.8713e-01,-2.1826e-01, 1.1688e-01, 5.2429e-02, 4.8004e-02,-1.5125e-01,   1.0956e-01,-1.4014e-01, 9.4727e-02, 4.8737e-02,-1.4824e-02,-1.5271e-01,  -4.9805e-02,-1.9653e-01,-1.6785e-02, 2.9358e-02,-1.7212e-02,-3.6743e-02,  -8.6365e-02, 1.1359e-01, 1.5015e-01,-2.0767e-02, 9.2346e-02, 2.0178e-01,  -1.1212e-01,-2.2119e-01, 1.1761e-01,-2.0615e-02,-1.2866e-01,-8.1635e-03,  -7.1472e-02, 2.9358e-02,-1.1047e-01,-2.1530e-02,-1.7200e-01,-7.8125e-03,   2.0020e-01,-5.8868e-02, 1.4915e-02,-1.8677e-01, 4.2145e-02, 1.1438e-01,  -7.6538e-02, 8.6548e-02,-3.0624e-02, 2.9694e-02,-1.0602e-01,-1.6670e-03,   1.1615e-01,-1.8463e-02,-1.6129e-02,-1.7224e-01,-1.0272e-01, 6.3416e-02,  -2.8915e-02,-3.0685e-02,-1.9989e-02, 1.1188e-01,-2.7267e-02, 9.5337e-02,  -9.7595e-02, 3.4760e-02,-5.9204e-02, 2.6108e-02,-1.1829e-01, 4.5471e-02,   2.8976e-02,-2.7908e-02, 2.8244e-02,-4.7119e-02, 1.4941e-01, 1.7261e-01,  -6.5002e-02,-4.6295e-02, 5.6839e-03,-8.6121e-02,-4.4861e-02, 1.6068e-02,  -1.6602e-01,-7.9651e-02,-1.2683e-01, 9.0515e-02, 2.0593e-01,-3.3661e-02,   2.2253e-01, 3.6774e-02,-3.6316e-02,-1.0818e-02, 2.3117e-02, 9.9030e-03,   4.7569e-03,-6.3293e-02, 5.9113e-02, 2.7319e-01,-1.1530e-01,-6.7505e-02,   3.5004e-02,-1.2016e-02,-6.8726e-02,-6.3293e-02, 7.1564e-03,-9.9915e-02,   3.0273e-02, 9.0881e-02,-1.0309e-01,-7.1533e-02,-1.1009e-02,-3.9001e-02,  -1.5271e-01,-1.1279e-01, 9.6436e-02,-8.7952e-02,-2.4078e-02,-6.7383e-02,  -4.8431e-02,-2.4948e-03], [ 3.9368e-03,-1.2374e-04,-2.4780e-01,-9.5337e-02,-1.0925e-02, 1.1383e-01,  -8.1062e-04,-4.6906e-02,-8.4290e-02, 2.1011e-02, 3.2166e-02,-1.4511e-02,  -1.4868e-01, 4.6844e-02,-5.4871e-02, 1.0406e-01, 3.1519e-01, 5.5511e-02,   2.9639e-01, 1.1987e-01,-2.4341e-01,-2.7026e-01, 5.6213e-02, 2.6465e-01,  -1.5327e-02,-1.4624e-01, 1.8079e-01, 1.1365e-01, 7.1716e-02,-2.8149e-01,   1.8402e-02,-8.5938e-02,-1.3208e-01, 3.3600e-02, 7.8552e-02,-4.1504e-02,   1.9653e-01, 1.8433e-01, 1.0443e-01, 2.0691e-01,-2.7084e-02, 6.6223e-02,   2.0032e-01,-3.6194e-02,-4.2076e-03,-2.4994e-02, 7.5562e-02,-7.6843e-02,  -1.4355e-01,-4.8157e-02,-1.1328e-01,-7.4951e-02,-1.5063e-01,-7.6233e-02,   1.0034e-01,-7.0984e-02,-2.8549e-02, 1.8616e-01,-7.5867e-02,-5.3833e-02,   9.7595e-02, 2.2388e-01,-2.2546e-01,-4.2114e-01, 1.0748e-01, 1.9238e-01,   3.0685e-02, 1.9507e-01, 8.9783e-02,-8.0643e-03,-6.6261e-03,-9.7778e-02,  -9.2545e-03, 1.2549e-01, 2.9964e-03, 1.3794e-01, 3.1079e-01,-3.1189e-02,   1.9727e-01,-1.6711e-01, 7.9422e-03, 1.7120e-02, 3.2990e-02, 2.9297e-02,  -1.2854e-01, 1.4307e-01, 2.8516e-01, 1.1688e-01,-6.7810e-02, 1.7554e-01,   1.2781e-01, 8.5510e-02,-2.1252e-01, 8.4167e-02,-2.7002e-01, 2.9434e-02,  -6.8787e-02, 1.6870e-01,-3.1414e-03, 2.9816e-02,-1.3069e-02,-3.1677e-02,  -1.7410e-02, 4.1565e-02, 1.3879e-01,-1.4209e-01,-5.1239e-02, 1.7737e-01,  -5.3406e-02, 2.2736e-02,-1.3290e-02, 1.7261e-01,-9.7900e-02,-9.7534e-02,  -1.0291e-01, 3.1152e-01,-4.6387e-02,-3.7964e-02, 1.4270e-01,-4.5441e-02,  -9.1492e-02, 2.6831e-01, 8.2214e-02,-1.7468e-01,-8.7891e-02,-8.6243e-02,  -8.2520e-02, 1.6858e-01], [ 7.5439e-02,-5.2948e-02, 4.3823e-02,-2.0154e-01, 9.0515e-02, 3.2471e-02,   4.5166e-02,-1.6556e-02, 2.4002e-02,-8.7814e-03,-8.5022e-02, 4.5837e-02,  -1.2018e-01, 1.6037e-02, 2.6337e-02,-6.1890e-02,-1.0675e-01,-1.0620e-01,  -1.0022e-01,-2.9526e-02, 1.1102e-01, 6.3438e-03, 2.2552e-02,-1.2354e-01,  -4.6600e-02, 1.9379e-02,-3.3447e-02, 2.4826e-02,-1.3397e-02,-7.3547e-02,  -3.7964e-01,-7.9834e-02,-8.5938e-02,-8.1406e-03, 4.5204e-03,-2.5244e-01,   5.6000e-02,-1.1682e-01, 5.9967e-02,-6.4270e-02, 6.8665e-02, 4.1870e-02,  -1.0138e-01, 7.3242e-02,-5.1483e-02, 7.9346e-02, 7.8674e-02,-1.2871e-02,   4.7272e-02,-4.5891e-03, 7.9727e-03,-5.7220e-02, 1.1703e-02, 1.2280e-01,   6.5247e-02,-7.6294e-02, 6.7322e-02,-1.5540e-01, 2.8152e-02,-3.8910e-02,   2.4323e-02,-1.1426e-01, 3.9001e-02,-9.0408e-03,-1.3840e-02,-7.0312e-02,  -5.4138e-02,-8.2764e-02, 1.2109e-01, 3.1921e-02, 6.5125e-02, 2.0859e-02,   4.3182e-03,-1.0651e-01,-3.8910e-02, 1.5234e-01,-1.7188e-01, 3.8147e-02,  -1.2286e-01,-4.9408e-02,-1.9202e-01,-7.8003e-02,-3.4241e-02, 1.1127e-01,  -1.0370e-01, 6.0608e-02,-9.1492e-02,-1.3721e-01, 4.7821e-02,-9.6558e-02,   1.1694e-01,-1.5686e-01,-2.3889e-01, 1.8707e-02,-7.1045e-02,-1.0907e-01,   1.4160e-02,-2.4155e-02, 2.1988e-02,-7.2449e-02, 6.4392e-02,-9.3506e-02,  -4.6082e-03, 7.5623e-02, 1.5479e-01,-9.7046e-02,-2.7039e-02,-5.6244e-02,   1.4014e-01,-8.7280e-02, 7.4036e-02, 1.3757e-01, 4.4373e-02,-2.5604e-02,   8.5205e-02, 6.3599e-02,-9.3933e-02, 8.2458e-02, 9.4482e-02,-7.7698e-02,  -3.6102e-02, 9.3613e-03, 4.6600e-02,-1.7090e-01, 6.4125e-03, 3.1158e-02,   3.4851e-02, 1.1145e-01], [ 2.0660e-02,-3.0640e-01,-2.3267e-01, 1.3757e-01,-1.3049e-01,-1.9836e-01,  -3.2837e-01,-9.2041e-02,-2.6245e-01,-1.3000e-01,-1.2042e-01,-7.6233e-02,  -2.3108e-01,-1.2866e-01,-3.6182e-01, 1.5308e-01, 2.4512e-01, 1.7822e-01,  -8.0872e-02, 7.8064e-02,-8.8196e-02,-1.0767e-01,-9.5581e-02,-2.1631e-01,  -1.8884e-01,-1.6150e-01,-1.2402e-01, 4.2383e-01,-2.1606e-02,-9.3811e-02,   6.5967e-01,-3.9185e-02,-1.8152e-01,-1.4636e-01,-6.3110e-02,-1.6333e-01,   1.0582e-02,-5.4169e-02,-2.9419e-01, 3.4570e-01,-2.6709e-01, 1.0327e-01,  -2.7295e-01, 2.2736e-02,-3.5059e-01, 4.1992e-01,-3.2764e-01,-1.6174e-02,  -3.3984e-01,-6.2744e-02,-4.2816e-02,-1.4648e-01,-2.5952e-01,-6.4148e-02,  -2.4316e-01,-1.8152e-01,-2.0027e-03, 2.6196e-01,-2.2791e-01,-7.7148e-02,   7.8796e-02, 2.7271e-01, 3.7402e-01,-4.3091e-02, 3.1348e-01, 2.2241e-01,  -2.0862e-01, 1.4624e-01,-1.8042e-01,-4.2334e-01,-1.7468e-01,-1.2054e-01,  -1.2598e-01,-1.0077e-01, 5.8691e-01, 1.6016e-01, 2.5684e-01,-3.1052e-02,  -1.8433e-01,-2.5952e-01, 1.4488e-02,-4.2755e-02,-2.4426e-01,-3.5913e-01,  -9.3567e-02, 4.8730e-01, 2.7930e-01, 1.8420e-01,-2.1204e-01, 4.8438e-01,  -2.2412e-01, 1.4221e-01, 4.3628e-01,-2.0166e-01, 2.2202e-02, 3.0811e-01,  -3.7500e-01, 2.4121e-01,-2.3071e-01,-3.2812e-01,-7.2205e-02,-2.2949e-02,  -1.6956e-01,-2.2876e-01, 2.2412e-01,-1.6382e-01,-2.6855e-01,-1.7773e-01,  -8.3008e-02,-3.7445e-02,-2.2552e-02, 3.4595e-01, 1.1307e-02, 1.2683e-01,  -2.2229e-01,-2.8247e-01,-1.9421e-01, 2.6465e-01,-1.5564e-01,-2.3730e-01,  -5.9052e-02, 2.6392e-01,-4.7632e-01,-8.7036e-02,-5.6610e-02,-1.8018e-01,  -1.8945e-01, 1.2769e-01], [-1.1568e-03,-4.1321e-02, 2.4948e-02,-1.1963e-01,-8.2764e-02, 3.8391e-02,  -7.7576e-02,-3.2745e-02,-4.0955e-02, 3.0380e-02, 2.3346e-02, 2.5543e-02,  -5.2460e-02, 4.9629e-03,-4.1840e-02, 9.6283e-03,-7.5798e-03, 3.7445e-02,  -1.0175e-01,-4.1931e-02, 5.5939e-02,-1.1560e-01, 4.9530e-02,-7.0557e-02,   3.2501e-02,-8.7097e-02, 6.7139e-02,-8.7769e-02,-4.2542e-02,-1.6155e-03,  -2.9388e-02, 4.1687e-02, 7.1869e-03,-8.9539e-02,-7.5623e-02,-7.1533e-02,  -4.1260e-02,-7.0740e-02,-7.5439e-02,-2.6627e-02,-3.6743e-02,-2.1851e-02,   5.2368e-02, 4.5180e-04, 2.4414e-03, 8.8043e-03,-5.0964e-02,-8.2031e-02,  -4.4525e-02, 6.7627e-02,-1.1285e-01,-1.1694e-01, 1.3290e-02,-9.7595e-02,  -5.0293e-02,-6.1890e-02,-2.0554e-02, 1.3618e-02, 7.8964e-03,-6.9763e-02,  -5.3802e-02,-1.0883e-01, 2.3804e-02,-4.2145e-02,-3.8269e-02,-4.0833e-02,  -9.2224e-02,-9.1736e-02,-7.5500e-02,-1.0492e-01, 4.4489e-04, 1.3748e-02,  -4.0070e-02, 3.8391e-02,-1.9592e-02, 2.6520e-02, 4.6478e-02, 8.9645e-03,  -6.8481e-02, 1.1642e-02, 3.8544e-02, 4.5441e-02, 3.9978e-02, 9.7046e-03,  -1.1261e-01,-3.2043e-02, 2.4261e-02,-2.6749e-02, 6.2347e-02, 4.4525e-02,  -1.3452e-01,-6.2286e-02, 2.3407e-02,-1.5602e-02, 1.7624e-02,-7.5195e-02,  -1.9150e-02,-3.5706e-02,-7.5439e-02, 2.9922e-02,-6.3782e-02,-8.3252e-02,  -3.7628e-02, 1.8677e-02,-1.2793e-01,-9.0576e-02, 2.1194e-02,-5.3467e-02,   4.1534e-02,-1.0144e-01, 1.9608e-02, 4.6997e-02,-1.0754e-01, 6.5369e-02,  -9.9426e-02,-6.4026e-02, 2.3697e-02, 5.8289e-03,-1.4514e-01,-1.1975e-01,  -3.2471e-02,-4.8401e-02, 1.2024e-02, 3.1647e-02,-1.4389e-02,-6.1554e-02,  -7.5012e-02,-4.1504e-02], [-5.3894e-02,-3.7933e-02,-6.5247e-02,-4.2847e-02,-6.1737e-02, 3.5980e-02,  -3.5828e-02, 7.1526e-03,-8.8562e-02, 5.8075e-02,-1.6891e-02,-2.0706e-02,  -8.5205e-02,-3.6560e-02,-8.2825e-02,-1.3037e-01, 1.3863e-02,-7.5188e-03,  -6.3660e-02,-7.1716e-02,-9.6008e-02, 2.2339e-02,-4.8553e-02,-5.2734e-02,  -9.1370e-02,-4.8447e-03,-2.7588e-02,-8.5205e-02,-1.2856e-02,-1.4221e-01,   8.2092e-02,-2.0046e-03,-1.1047e-02, 3.9764e-02, 8.4925e-04, 7.4402e-02,   3.7140e-02, 8.8623e-02,-8.5388e-02, 7.2021e-02,-4.4556e-02,-1.0718e-01,  -6.5979e-02, 